#ifndef __LENET5PARAMS_H
#define __LENET5PARAMS_H

#include "lenet5params.h"

float conv1Weight[6][3][5][5] = { {{{ 1.7171e-02,  1.1835e-02,  9.9026e-02, -1.3406e-02,  9.2369e-02},
		  {-1.8204e-02, -3.2776e-02,  6.4952e-02, -6.6637e-02,  1.0993e-01},
		  {-9.9351e-02, -7.5577e-02, -5.4610e-02,  1.0009e-01,  2.8544e-02},
		  {-2.8286e-02, -1.4704e-03, -1.2120e-01,  3.1920e-02, -9.3081e-02},
		  { 5.7214e-02, -7.1472e-02,  3.2588e-02, -3.1188e-02, -3.8211e-03}},

		 {{ 9.2979e-02, -1.7441e-02,  1.6382e-01, -7.6889e-02,  1.0453e-01},
		  { 1.8292e-02, -5.5729e-02, -5.5107e-02,  1.3597e-01,  1.1792e-01},
		  {-8.6439e-02,  9.0301e-02,  1.9736e-02,  5.8208e-02, -5.3020e-02},
		  {-1.0329e-01,  1.2424e-01,  7.3475e-02,  1.5927e-01,  1.2626e-03},
		  { 3.9934e-02,  3.3158e-02, -6.9730e-03,  1.3082e-01, -2.8432e-02}},

		 {{-1.2305e-02,  1.9394e-01,  1.7253e-01,  7.1899e-02,  1.1763e-01},
		  { 3.7716e-02, -1.0420e-03,  2.0982e-01, -7.7043e-04,  1.9568e-01},
		  { 2.9242e-02,  6.8818e-03, -1.0694e-03,  8.8450e-02, -2.5374e-02},
		  { 7.2818e-02,  1.5143e-01,  5.3208e-02,  1.4180e-01,  1.4681e-01},
		  { 1.8379e-01,  9.0636e-02,  1.8700e-01,  5.0105e-02,  1.6500e-01}}},


		{{{-1.6211e-01, -3.6533e-02, -7.3813e-03, -8.1707e-02, -9.3977e-02},
		  {-8.1589e-02, -9.2165e-02,  1.5372e-02, -1.1773e-02, -2.5660e-02},
		  {-6.9868e-02, -7.8335e-02, -1.1391e-01, -9.6368e-03, -9.9577e-02},
		  {-4.1294e-02,  1.7848e-02, -1.3402e-01, -9.5224e-02, -7.8599e-02},
		  {-3.1249e-02, -2.1180e-02, -2.0614e-01,  8.5304e-05, -1.0319e-01}},

		 {{-9.3051e-02,  1.3882e-01,  9.3321e-03,  7.0093e-02,  9.9901e-02},
		  { 1.3793e-01, -3.2649e-02, -3.4935e-02,  9.8500e-02,  1.2791e-01},
		  { 8.3992e-02, -7.8106e-02,  5.9622e-02,  3.1630e-02,  7.6053e-02},
		  {-1.3318e-02,  8.2522e-02,  6.4813e-02,  1.1184e-01, -2.3399e-02},
		  { 3.8607e-02, -6.1309e-02,  8.2575e-02, -9.7858e-03,  1.3910e-01}},

		 {{-1.9450e-02,  1.9909e-02, -4.2123e-02,  9.3505e-02, -1.8681e-02},
		  { 1.3915e-01,  2.6726e-02, -5.8682e-02,  1.5400e-01, -1.4939e-02},
		  { 9.6984e-02,  2.6503e-02, -2.6570e-02, -3.1479e-02,  5.3091e-02},
		  { 9.7766e-02,  9.8175e-02,  8.1987e-02,  1.2164e-01, -5.2706e-02},
		  { 7.7174e-02,  1.3456e-01, -4.9032e-02,  1.3107e-01,  7.4287e-02}}},


		{{{-2.4252e-02,  4.9200e-03,  4.9598e-03, -7.4355e-03,  7.3904e-02},
		  { 1.6112e-01,  6.1848e-02,  1.3019e-01, -2.3567e-02,  1.5075e-01},
		  { 1.1523e-01, -3.8130e-02,  1.3594e-01,  3.5950e-02,  1.4360e-01},
		  {-2.5394e-03,  1.0568e-02, -1.7267e-02,  2.7132e-03,  5.7476e-03},
		  { 4.1810e-02,  4.2197e-03,  1.5528e-01,  4.7458e-02,  1.0502e-01}},

		 {{-5.7169e-03,  9.2599e-05,  6.8656e-02, -3.3734e-02,  1.0736e-01},
		  {-3.9730e-02,  1.0221e-01,  1.0658e-01, -4.6125e-02,  9.5346e-02},
		  { 8.0846e-03, -8.6535e-02,  1.1451e-01, -4.2526e-02,  1.0667e-01},
		  {-1.5998e-02,  5.5908e-02, -4.3218e-02, -7.5930e-02,  7.7708e-02},
		  {-9.6413e-02,  6.3048e-02,  3.3185e-02,  4.3323e-02,  1.5142e-02}},

		 {{ 6.2900e-02,  9.4128e-02, -1.9267e-02,  1.7719e-02, -8.8277e-02},
		  { 1.1673e-01, -4.6790e-02,  1.2212e-01,  8.7342e-02, -1.8691e-02},
		  { 6.1382e-02, -5.1989e-02,  9.0310e-02,  5.7909e-02,  9.9012e-02},
		  { 1.7135e-03,  1.1632e-01, -3.2699e-02, -1.9422e-02, -4.7405e-02},
		  { 6.9103e-02,  5.0608e-02,  1.3003e-02,  4.4076e-02, -1.9771e-02}}},


		{{{-8.0930e-02,  2.3558e-02, -1.3959e-01, -1.1553e-01,  4.6554e-02},
		  {-1.8026e-01, -8.0840e-02,  2.2975e-02, -1.5566e-02,  7.4603e-02},
		  { 1.6626e-02, -9.5022e-02,  6.0109e-03, -9.2346e-03, -7.6635e-02},
		  {-9.5278e-02, -1.1899e-01, -3.3355e-02, -4.8867e-03, -9.9159e-02},
		  {-4.7655e-02, -1.7184e-01,  1.2729e-02,  6.2688e-02, -4.3491e-02}},

		 {{ 6.7322e-02,  4.0787e-02,  7.8035e-02,  1.4676e-01,  1.2855e-01},
		  {-7.8017e-02, -9.1952e-02, -3.1768e-02,  1.1468e-01,  3.2089e-02},
		  { 6.8184e-02,  4.0588e-02, -6.5381e-02,  1.5468e-01, -2.6510e-03},
		  {-2.0735e-02,  8.2736e-02,  7.6655e-03,  5.6429e-02,  4.4040e-02},
		  { 1.6150e-02, -1.2339e-03,  1.4018e-01,  1.4256e-01,  9.9245e-02}},

		 {{ 5.6286e-02,  5.7256e-02,  1.1300e-01,  1.6631e-01,  9.1699e-03},
		  { 4.6637e-02,  3.8685e-02,  4.7822e-02,  1.5928e-01,  3.6715e-02},
		  { 6.2656e-02, -1.2406e-02,  1.9757e-01, -1.7698e-02,  1.1421e-01},
		  { 1.5704e-01,  1.3115e-01, -3.8477e-02,  1.7788e-01,  8.2397e-02},
		  { 1.2767e-01,  1.0937e-01,  1.0311e-01,  1.0399e-01,  5.1551e-02}}},


		{{{-7.4320e-02, -1.3347e-01, -1.0649e-02, -2.6264e-02, -1.3968e-02},
		  {-1.7904e-02,  6.2054e-02, -9.4517e-02, -6.6441e-02,  1.0173e-01},
		  { 5.9259e-02,  4.3265e-03, -2.6348e-02,  6.2285e-03,  9.9756e-02},
		  {-5.8643e-02, -1.2161e-01,  2.1731e-02, -6.1890e-02, -1.1156e-01},
		  { 1.8729e-02, -3.0377e-02,  5.0032e-02,  9.7506e-03,  4.9762e-02}},

		 {{-6.4847e-02,  8.5420e-02,  6.7992e-03,  4.4977e-02, -4.7644e-02},
		  { 1.2511e-01, -5.5378e-02,  1.2334e-01,  4.9440e-02,  1.4382e-02},
		  { 1.5647e-01, -5.3677e-02,  1.5234e-01,  4.9296e-02,  1.7243e-01},
		  { 1.0874e-01,  9.4791e-02,  1.0725e-01, -3.4520e-02, -5.3645e-02},
		  {-2.1032e-02,  9.5687e-02,  7.3157e-02,  1.4538e-01,  1.1343e-02}},

		 {{ 1.2921e-01,  1.0390e-01,  1.0083e-01,  7.4413e-02,  5.6307e-02},
		  { 1.0735e-01, -2.5651e-02,  2.1436e-02,  2.4855e-03,  8.8039e-02},
		  { 1.9786e-01, -1.7673e-02,  1.8381e-01,  8.3739e-02,  1.5110e-01},
		  {-7.9919e-03,  1.9785e-01,  9.5822e-02,  1.8849e-01, -1.4808e-03},
		  { 2.9786e-02,  1.5221e-01,  1.9302e-01,  3.5751e-02,  7.9622e-03}}},


		{{{ 1.0500e-01,  1.2214e-01,  1.8577e-01,  1.7103e-02,  2.4115e-02},
		  { 1.7257e-01,  1.9144e-01,  1.9831e-01,  5.0854e-02,  4.3909e-02},
		  { 1.7801e-01,  1.8074e-01,  1.5366e-01,  1.3299e-01,  1.3820e-01},
		  { 7.8794e-02, -1.4588e-02,  1.5610e-01,  3.7325e-02,  1.3829e-01},
		  { 9.2343e-02, -7.8107e-03,  6.1040e-02, -2.5134e-03,  8.2725e-02}},

		 {{ 6.2868e-02, -3.1752e-02,  6.1683e-02,  3.7789e-02,  1.3683e-02},
		  {-4.5777e-02,  8.0197e-02, -7.7000e-02,  7.9171e-02, -9.8967e-02},
		  { 2.0498e-02,  2.7801e-02, -9.0238e-02,  8.0662e-02, -8.9974e-02},
		  {-6.9423e-03,  1.0067e-01, -8.8389e-02, -9.0831e-02,  4.6327e-02},
		  { 2.5723e-02, -1.3321e-02, -6.5629e-02, -5.6657e-02, -6.7398e-02}},

		 {{-1.5781e-01, -6.8302e-02,  3.9339e-02, -1.2877e-01, -1.5747e-01},
		  { 1.1824e-02,  1.5079e-02,  3.0355e-02, -4.8830e-02, -3.9841e-02},
		  {-1.3307e-01, -4.8583e-02, -7.6198e-02, -1.0207e-01, -2.7722e-02},
		  { 4.1928e-02,  4.3803e-02, -1.3098e-01, -8.1860e-02, -1.6596e-01},
		  {-3.8883e-02, -1.3236e-01, -1.1053e-01, -1.5101e-01,  1.3941e-02}} } };

float conv2Weight[16][6][5][5] = { {{{ 8.1484e-02,  1.1739e-01,  7.5112e-02,  1.9187e-02,  2.3321e-02},
		  { 1.8624e-02,  4.9956e-03,  7.3391e-02,  1.1785e-01,  1.3058e-02},
		  { 4.8715e-02,  1.8343e-02,  3.9389e-02,  1.8079e-02,  4.0414e-02},
		  {-1.5737e-02,  1.0589e-01,  6.0909e-02,  6.7428e-02,  7.2728e-02},
		  { 5.4357e-02,  4.8826e-02, -8.6005e-03,  8.5905e-02,  1.0262e-01}},

		 {{-4.6791e-02,  1.3709e-02,  2.1473e-02, -2.5325e-02, -6.3571e-02},
		  {-4.0774e-02, -8.4866e-02,  5.5137e-02, -4.7268e-03,  8.1463e-02},
		  {-2.1068e-02, -2.8517e-02, -1.3730e-02, -3.7773e-02, -6.8608e-02},
		  {-6.0725e-02, -7.4335e-02,  7.5695e-02,  8.2568e-02, -2.3477e-02},
		  {-3.8970e-02, -7.8599e-02,  1.2010e-02, -5.5900e-02,  5.5918e-02}},

		 {{ 5.0551e-02, -4.6680e-02,  6.4089e-02, -4.1778e-03, -3.1352e-02},
		  { 1.6171e-02,  7.2616e-02, -2.7766e-02,  8.0364e-02,  4.1910e-02},
		  {-7.9092e-02,  7.6046e-02,  8.6197e-02,  6.8707e-02,  9.2346e-02},
		  { 5.5875e-02,  4.6942e-02,  2.0458e-02, -3.2217e-03,  2.5771e-02},
		  { 4.6952e-02,  4.6472e-02,  4.0824e-02,  4.0750e-02,  1.8731e-02}},

		 {{ 7.4698e-02,  9.6620e-02,  7.9108e-02, -1.6354e-02,  3.6587e-02},
		  { 6.7529e-03,  6.5584e-03,  1.0390e-01,  6.0816e-02,  3.1494e-02},
		  { 1.2074e-01, -1.5835e-02,  1.4367e-01,  5.3432e-02,  1.2479e-01},
		  { 1.5426e-01,  1.2601e-01,  7.6283e-02,  6.1265e-02,  6.1751e-02},
		  { 1.2722e-01,  1.3000e-01,  9.5920e-02,  7.3471e-02,  1.0474e-01}},

		 {{-8.2967e-03,  1.1185e-01,  8.0735e-02,  6.1222e-02,  5.8730e-02},
		  { 1.0623e-01,  1.2689e-01,  1.0611e-01,  8.2595e-02, -1.1303e-02},
		  { 4.2038e-02,  1.3424e-01,  1.4703e-01,  1.0727e-01,  1.3907e-01},
		  { 8.2653e-03,  1.0454e-01,  1.5203e-02,  6.2732e-02,  5.2446e-02},
		  { 9.0391e-03,  1.0876e-01,  7.9695e-02, -1.3392e-02,  1.0229e-01}},

		 {{ 2.3200e-02, -4.0667e-02, -2.3287e-02,  5.4789e-02,  5.1326e-02},
		  {-7.9900e-02,  4.6835e-02,  5.4994e-02, -5.3819e-02,  5.0104e-02},
		  {-3.5780e-02, -7.8495e-02,  2.5419e-02, -6.3404e-02,  5.2352e-02},
		  { 3.7598e-02, -2.7728e-02, -2.4334e-02, -5.4769e-02,  5.0656e-02},
		  {-1.1162e-01, -2.1074e-02,  5.1930e-02,  4.3698e-02, -2.6179e-02}}},


		{{{ 7.1173e-03, -4.0492e-02,  5.5445e-02,  1.0429e-01,  4.3516e-02},
		  { 4.5725e-02,  2.2349e-02,  2.0238e-02,  5.5576e-02,  7.0557e-02},
		  { 2.8543e-02,  3.2281e-02,  5.0178e-02,  1.1389e-01, -6.7482e-03},
		  { 4.9019e-02,  3.3309e-02,  8.3628e-02,  1.2692e-01,  3.9165e-02},
		  { 7.5545e-02, -1.1222e-02,  1.1674e-01,  1.1165e-01, -2.9788e-02}},

		 {{-1.7570e-02,  1.2404e-03, -2.0609e-02,  2.8244e-02, -1.1953e-02},
		  {-8.4577e-03,  1.9618e-02,  3.5571e-02,  4.4352e-02, -5.7300e-02},
		  { 6.7179e-02,  2.1571e-02,  5.0131e-02,  3.0914e-02,  1.7975e-02},
		  {-7.2368e-02,  2.8799e-02,  5.2590e-02, -4.4315e-02,  8.5091e-02},
		  {-2.4621e-02,  1.8073e-02,  3.8181e-02, -5.5048e-02, -9.0963e-03}},

		 {{-4.0307e-02,  5.5914e-02, -2.6008e-02, -1.5814e-03, -4.2408e-02},
		  {-3.6351e-02,  2.9868e-02,  2.2687e-02,  1.8255e-02, -3.3317e-02},
		  {-4.2666e-02,  4.7105e-02,  4.6921e-02, -6.5197e-02,  6.5773e-02},
		  { 2.6502e-02, -4.9997e-02, -3.6776e-02,  9.4096e-02, -4.7081e-03},
		  { 1.7639e-02,  2.8403e-02, -2.0566e-02,  9.9828e-02,  5.7410e-02}},

		 {{ 4.5247e-02,  8.0436e-02,  2.5577e-02,  1.1310e-02,  2.8811e-02},
		  { 1.2107e-01,  1.3576e-01,  4.1195e-02,  1.4091e-01, -9.1632e-03},
		  { 1.4629e-01,  4.3957e-02, -1.0488e-02,  6.1012e-02,  1.2900e-01},
		  { 3.5133e-02,  5.3773e-02, -2.2070e-03,  1.3004e-01,  1.0074e-01},
		  { 7.9785e-04,  1.1556e-02,  1.3036e-01,  8.2952e-02,  6.8157e-02}},

		 {{ 5.6733e-02,  1.1875e-01,  1.3128e-01,  5.8149e-02,  3.8746e-03},
		  { 8.3996e-02, -1.6341e-02,  1.9697e-02,  1.2526e-01,  1.0556e-01},
		  {-6.6644e-03,  9.3715e-02,  2.1650e-02,  2.2076e-03,  1.0820e-01},
		  {-4.6241e-03,  6.6869e-02,  1.3782e-01,  1.0571e-01,  4.6211e-02},
		  { 1.1612e-01,  1.2841e-01,  1.0386e-01,  9.7174e-02,  1.5847e-02}},

		 {{-9.9939e-02,  2.0295e-02, -7.6587e-02, -6.8993e-02,  3.6502e-02},
		  {-1.1821e-01, -6.3285e-02, -2.5480e-02, -9.8533e-02, -5.0254e-02},
		  { 3.4667e-02, -2.0953e-02, -1.1039e-01,  1.9897e-02, -8.3272e-02},
		  {-8.9569e-02, -1.0224e-01, -3.2282e-02, -1.0350e-01, -5.2515e-02},
		  {-9.3490e-02, -2.8486e-02,  3.2444e-02,  5.9557e-02, -3.8486e-02}}},


		{{{-2.6509e-02,  4.5066e-02, -5.2423e-03,  2.3619e-02,  1.2149e-01},
		  {-6.5817e-02, -5.6303e-02, -2.3832e-02,  1.4670e-02,  4.9307e-02},
		  {-7.5364e-03,  4.9978e-02,  5.2640e-02, -1.2377e-02,  4.2674e-02},
		  {-6.7300e-02, -3.3389e-02,  8.3495e-02, -4.9323e-03, -3.7575e-02},
		  {-5.2101e-02,  5.4531e-02,  8.3262e-02,  8.4340e-02,  6.6639e-02}},

		 {{-3.0032e-02, -3.3784e-02,  4.6072e-02, -5.3428e-02,  7.9596e-02},
		  { 1.5324e-02,  3.3611e-02,  6.4573e-02,  1.1280e-02,  3.2448e-02},
		  {-4.6423e-02,  1.0960e-02, -3.6954e-02,  8.9864e-02,  3.2303e-02},
		  { 6.7271e-02,  2.5823e-02, -3.1972e-02,  4.2797e-02,  7.0279e-02},
		  {-2.7469e-02,  8.9571e-02, -1.4612e-02, -1.0744e-02, -3.2921e-02}},

		 {{ 1.0722e-02,  4.4935e-02,  3.0164e-02,  5.3666e-02,  9.3044e-02},
		  { 5.5125e-02,  6.1150e-03,  7.6708e-02,  8.1856e-02, -5.2227e-02},
		  { 5.0501e-02, -4.4223e-04,  8.2992e-02, -1.8620e-02,  3.8112e-02},
		  { 5.6491e-02, -1.2090e-02, -2.3371e-02, -6.4222e-02,  6.8145e-02},
		  {-7.5272e-02,  5.7213e-03, -4.8979e-02,  4.3308e-02, -5.8601e-02}},

		 {{ 1.9531e-02, -7.9672e-03, -1.3378e-02,  5.6761e-02,  1.1518e-01},
		  { 3.0943e-03,  5.3589e-02,  1.9740e-02,  1.0762e-01,  1.7657e-02},
		  { 1.1516e-01,  1.2933e-01,  8.1917e-02,  4.8652e-02,  6.2019e-02},
		  { 5.1201e-02,  7.9026e-03,  1.3427e-01,  6.1259e-02,  1.1764e-01},
		  { 1.3486e-01,  9.8943e-02,  7.7725e-02,  6.0881e-02,  1.0243e-02}},

		 {{-8.6487e-03,  1.0892e-01, -6.0148e-03,  3.8824e-02,  7.4400e-02},
		  { 1.3549e-02,  1.0473e-01,  3.5582e-02,  8.9199e-02,  1.1453e-02},
		  { 1.1453e-01,  3.2233e-02, -3.3323e-02,  2.7564e-02,  6.9644e-02},
		  {-3.4995e-02,  1.1677e-01, -2.7096e-02,  1.1702e-02,  8.2075e-02},
		  { 9.3626e-02, -3.0152e-02, -2.3012e-02,  3.0767e-02,  4.6653e-02}},

		 {{-4.4988e-02,  2.5430e-02,  3.3178e-02, -5.7577e-02, -5.2530e-02},
		  {-8.3617e-02,  2.5960e-02, -4.6383e-02,  3.0387e-02, -7.3319e-02},
		  {-5.6371e-02, -3.8650e-02,  2.5306e-02,  7.7972e-03, -7.5926e-03},
		  {-6.9621e-02, -1.9563e-02, -7.7604e-02,  1.0793e-02, -7.2832e-03},
		  {-5.8210e-02,  2.6151e-02, -5.4216e-02, -9.7594e-02, -3.1781e-02}}},

		{{{ 9.5717e-02,  4.4634e-02,  9.6443e-02,  2.7101e-02,  1.1802e-01},
		  { 1.4361e-02,  5.3985e-02,  4.9404e-02,  6.5261e-02,  7.3874e-02},
		  { 7.5548e-02,  7.4197e-02,  1.1968e-01,  1.0727e-01,  9.5666e-02},
		  { 3.2884e-02,  1.3248e-02, -1.2852e-02,  7.1158e-02,  1.0119e-01},
		  { 9.1857e-03,  1.2015e-01,  9.0972e-02,  3.4358e-03,  5.1338e-02}},

		 {{ 1.6606e-02,  5.8831e-02,  2.7930e-02,  3.7662e-02, -5.6181e-02},
		  { 2.1620e-02, -3.6719e-02, -2.8856e-02,  4.2085e-02,  6.2008e-02},
		  { 5.6794e-03, -6.1391e-02,  8.8490e-02,  7.4646e-02,  8.3258e-02},
		  {-3.7964e-02, -2.8429e-02,  1.0079e-01,  6.1225e-02, -2.5161e-02},
		  { 7.5816e-02,  2.6927e-02,  3.2925e-02,  8.4606e-02,  3.5994e-02}},

		 {{-5.1302e-02,  9.2120e-03,  9.9668e-02,  5.0237e-02, -2.3529e-02},
		  {-3.0035e-02, -5.6403e-02, -3.0439e-02,  2.7987e-02, -4.2371e-02},
		  { 3.4941e-02,  2.6500e-02,  1.1372e-01, -6.9768e-03, -3.2108e-02},
		  { 8.6451e-02,  7.6124e-02, -4.1804e-02, -1.1084e-02, -3.7486e-02},
		  {-1.9915e-02,  2.2655e-02, -3.8841e-02,  1.0104e-01,  6.7817e-03}},

		 {{ 1.5087e-01,  1.2436e-01,  1.5442e-02,  1.3628e-01, -2.1832e-02},
		  { 4.3397e-02,  3.3341e-02,  9.4693e-02,  1.0856e-01,  3.4606e-02},
		  { 4.1628e-02,  5.4181e-02,  7.6086e-02,  2.1994e-02,  4.8006e-02},
		  { 1.1328e-01,  1.2026e-01,  3.5372e-02,  5.6126e-02,  7.9432e-02},
		  { 1.2404e-01,  1.2205e-01,  1.4229e-01,  7.1437e-02,  1.3306e-02}},

		 {{ 1.1614e-01,  2.1463e-02,  1.3648e-01,  9.8324e-03, -2.9859e-03},
		  {-1.1690e-03,  8.7512e-02,  1.4349e-01,  5.1130e-02,  3.4364e-02},
		  {-3.8098e-03,  3.8525e-02,  1.0330e-01,  3.4842e-02,  3.9292e-02},
		  { 3.4418e-02, -3.5593e-03,  1.5009e-01,  1.0516e-01,  2.3456e-02},
		  { 1.5403e-03,  8.0205e-02,  1.4663e-01,  2.4676e-02,  6.5403e-02}},

		 {{-3.2779e-02,  2.6636e-02,  4.8498e-02, -8.5929e-03,  2.0744e-02},
		  { 1.8180e-02, -8.0793e-03, -4.7435e-02,  5.9102e-02,  1.8026e-02},
		  {-9.2544e-02,  5.3621e-03,  5.3235e-02,  3.8524e-02, -4.3380e-02},
		  {-1.9178e-02,  1.5167e-02,  1.2716e-03, -5.8469e-02,  1.0399e-01},
		  { 1.6661e-02,  6.5702e-02, -5.2423e-02, -5.3863e-03,  9.3594e-02}}},


		{{{-3.9937e-02,  8.6067e-02, -1.5143e-02,  1.0388e-01,  1.5610e-02},
		  {-6.5767e-02,  5.2985e-02,  1.0987e-01,  2.7693e-02,  1.0062e-01},
		  { 4.4205e-02,  9.2778e-03, -1.4640e-02,  6.4807e-02,  2.7438e-02},
		  {-6.6030e-02,  4.0953e-03,  2.8164e-02,  2.1421e-02, -1.2017e-02},
		  { 4.0952e-02, -5.7020e-03, -3.8863e-02, -2.8327e-02,  3.8930e-02}},

		 {{-6.2740e-02,  3.0238e-02,  3.5321e-02,  2.3227e-03, -5.6138e-02},
		  { 6.7575e-02,  8.7511e-02,  9.7851e-02,  1.8588e-02, -3.3099e-03},
		  {-7.6461e-03,  7.0907e-02,  6.4462e-02, -4.5556e-02,  5.0498e-02},
		  {-6.9064e-02,  1.4962e-02,  3.6389e-02,  9.0039e-03, -1.1539e-02},
		  { 2.0651e-02, -6.5841e-02,  3.7222e-04,  1.0279e-01,  2.5194e-02}},

		 {{-4.6834e-02,  1.0839e-02,  2.7788e-02,  5.5145e-02,  1.2096e-03},
		  {-5.7232e-02, -2.6911e-02,  7.2577e-02, -2.3597e-02,  4.2487e-02},
		  { 5.3094e-02, -7.2548e-02,  5.3984e-02,  5.5024e-03, -5.9836e-02},
		  {-5.9763e-03, -7.2816e-02, -3.5516e-02, -3.1282e-02,  5.4850e-03},
		  {-7.8761e-02, -8.8109e-02, -5.6635e-02,  3.2513e-02,  7.3941e-02}},

		 {{ 4.0214e-02,  2.6046e-02,  6.9729e-02,  9.1694e-02,  5.7905e-02},
		  { 1.0719e-01,  4.8490e-02,  1.9479e-02,  1.5085e-01,  1.4425e-02},
		  { 1.4632e-01,  3.7214e-02,  1.5574e-01,  1.3422e-01,  1.3545e-01},
		  { 1.6032e-01,  1.3488e-02,  6.3362e-02,  1.0276e-01,  9.0892e-02},
		  { 3.3361e-02,  4.5269e-02,  1.5995e-01,  4.9838e-02,  1.1878e-01}},

		 {{ 1.2784e-01,  1.2554e-01,  1.1698e-01, -1.8774e-03,  5.6982e-02},
		  {-1.3201e-02,  4.6448e-02,  8.9638e-02,  9.0425e-02,  2.5974e-02},
		  { 4.0594e-02,  8.3701e-02,  7.6216e-02, -2.9703e-03, -8.2827e-03},
		  {-3.7083e-02,  4.0359e-02,  1.3069e-01,  8.0040e-02,  8.1582e-02},
		  { 2.0181e-02,  6.6972e-02,  1.0688e-01,  3.6161e-02,  1.0846e-01}},

		 {{ 1.3203e-02, -8.4046e-02, -1.0836e-01,  2.1863e-02, -5.1663e-03},
		  { 1.7936e-02, -5.1334e-02, -1.0769e-01,  1.8301e-02, -2.3048e-02},
		  {-1.0100e-01, -5.1139e-02, -8.4182e-02, -7.3140e-02,  3.6547e-02},
		  {-8.5730e-02, -5.4168e-02, -4.9070e-02,  5.1942e-02, -9.7881e-03},
		  {-1.4449e-02, -1.0883e-01, -4.7798e-02, -2.3491e-02, -5.3640e-02}}},


		{{{-6.8174e-02,  3.9059e-02, -5.5611e-03,  3.6899e-02,  4.9652e-02},
		  { 1.8774e-05,  6.0094e-02,  1.1797e-01,  2.6658e-02,  8.7358e-02},
		  { 9.6091e-02,  7.7776e-02,  1.5099e-02,  2.3718e-02,  6.6777e-02},
		  {-5.3053e-02,  3.5937e-04, -2.2961e-02,  7.9222e-02, -1.0830e-02},
		  {-2.8443e-02,  6.6469e-02, -2.1433e-02,  2.3392e-02, -3.9241e-02}},

		 {{-1.2723e-02, -2.9024e-02, -2.4962e-02,  7.4188e-02, -9.3925e-03},
		  { 6.5962e-02, -2.7639e-02,  8.3930e-02, -5.6804e-02,  1.6655e-02},
		  {-9.7986e-03,  7.1204e-02,  9.6335e-02,  9.5919e-02, -5.2252e-02},
		  { 2.1841e-02,  6.2480e-03,  8.4823e-02,  1.0325e-01, -8.6296e-04},
		  { 5.1663e-03, -4.8614e-02,  7.5167e-02,  4.0428e-02,  4.8147e-02}},

		 {{-6.3187e-02,  7.1185e-02,  2.7089e-02, -1.9914e-02, -1.5545e-02},
		  { 4.5798e-02, -2.3408e-02, -3.3699e-02,  7.4647e-02,  1.3401e-02},
		  {-8.8194e-03,  4.3290e-03,  4.2405e-02,  8.2790e-02, -2.5503e-02},
		  {-2.4073e-02, -6.9115e-02,  2.7746e-02,  9.4605e-02,  5.6744e-02},
		  {-2.0762e-02, -8.3406e-02, -3.0030e-02,  7.4378e-02, -4.2909e-02}},

		 {{ 1.1533e-01,  7.3842e-02,  1.1957e-01,  3.9307e-02,  6.8146e-02},
		  { 1.0575e-01, -9.2872e-03,  7.9309e-02,  8.9546e-02,  7.6083e-02},
		  { 5.6113e-02,  1.4003e-01,  7.0636e-02,  2.1496e-02,  3.0283e-02},
		  { 3.3787e-02, -5.9387e-03,  4.0597e-02,  2.5898e-02,  7.6386e-02},
		  { 6.6340e-02,  1.2023e-01,  9.4802e-02,  8.3826e-02,  5.1215e-02}},

		 {{-1.2421e-02,  3.3679e-02,  1.1666e-01, -1.2630e-02,  1.2393e-01},
		  { 1.0957e-01,  1.9693e-02,  6.6770e-02,  5.9477e-03,  7.8791e-02},
		  {-3.2229e-02,  5.0540e-02,  8.6317e-02,  1.2954e-01,  1.1642e-01},
		  { 2.0896e-02,  6.1397e-02,  1.0363e-01, -5.1174e-03, -7.9769e-03},
		  {-2.3907e-03,  5.6221e-02,  1.3380e-02,  8.0207e-02,  6.2676e-02}},

		 {{-8.9049e-02, -1.1950e-01,  3.3311e-02, -2.5782e-02, -4.5762e-02},
		  {-2.9009e-02, -4.7355e-02, -5.4455e-03, -2.7198e-02,  9.4520e-03},
		  {-7.0736e-02, -1.1591e-01, -1.0663e-01, -4.0524e-02,  1.2306e-02},
		  {-7.3041e-02,  8.2653e-04, -3.6123e-02, -7.8028e-04,  3.9092e-02},
		  {-8.2178e-03,  3.2037e-02, -1.4170e-02,  1.4435e-02, -3.6253e-02}} } };

float fullConnect1Weight[120][576] = { {3.612991049885749817e-02,3.541469201445579529e-02,1.368462014943361282e-02,1.167503185570240021e-02,3.457290586084127426e-03,-3.315387293696403503e-02,-2.572642872110009193e-03,-6.035571917891502380e-03,-1.962212100625038147e-02,-1.848982088267803192e-02,2.266189642250537872e-02,-1.692648977041244507e-02,3.257388249039649963e-02,-1.976153347641229630e-03,-1.406164746731519699e-02,-3.127344325184822083e-02,9.796206839382648468e-03,5.766852293163537979e-03,1.604523509740829468e-02,5.517096258699893951e-03,-9.694425389170646667e-03,-3.582908539101481438e-03,-3.466942906379699707e-02,-2.755472995340824127e-02,-1.027199253439903259e-02,-1.220072619616985321e-02,3.135478496551513672e-02,-8.696327917277812958e-03,2.602347172796726227e-02,1.121665537357330322e-02,1.782340742647647858e-02,1.057967729866504669e-02,1.162307988852262497e-02,2.488552406430244446e-02,-1.316240523010492325e-03,-8.059789426624774933e-03,-3.615102544426918030e-02,3.181887045502662659e-02,-2.177002094686031342e-02,1.730742491781711578e-02,-7.105478551238775253e-03,2.788360044360160828e-02,-2.511112019419670105e-02,2.995046228170394897e-02,2.655814029276371002e-02,9.409766644239425659e-03,-2.389351092278957367e-02,2.759847044944763184e-02,-2.555401623249053955e-02,3.232699260115623474e-02,-4.336435347795486450e-03,3.506439179182052612e-02,2.157944999635219574e-02,-3.829601407051086426e-02,-2.659967914223670959e-02,1.270534849027171731e-04,-2.868580818176269531e-02,3.964683786034584045e-02,-3.587987273931503296e-02,-1.501696091145277023e-02,1.619859598577022552e-03,-3.488041087985038757e-02,-1.127158291637897491e-02,2.169044688344001770e-02,-1.417137868702411652e-02,-1.193309668451547623e-02,3.629306703805923462e-02,9.850267088040709496e-04,2.912174910306930542e-02,-1.270978152751922607e-02,-2.077307179570198059e-02,-2.682861499488353729e-02,-2.406506426632404327e-02,1.883916184306144714e-02,-1.441042637452483177e-03,3.506938740611076355e-02,1.115340366959571838e-02,-1.785158365964889526e-02,1.957384310662746429e-02,3.501586988568305969e-02,1.318879611790180206e-02,-1.596701890230178833e-02,-1.253152638673782349e-02,-2.433937415480613708e-02,-4.052095115184783936e-03,9.355827234685420990e-03,-3.856755048036575317e-02,3.633954003453254700e-02,-3.997218608856201172e-02,-3.961865603923797607e-02,3.771982342004776001e-02,-9.673281572759151459e-03,2.943326160311698914e-02,-3.518499806523323059e-02,1.344671472907066345e-02,-1.367357093840837479e-02,-1.618534326553344727e-02,-2.656435221433639526e-02,-8.445760235190391541e-03,-2.138502337038516998e-02,-4.019908607006072998e-02,1.747817359864711761e-02,-1.340907812118530273e-02,-1.755876466631889343e-02,-3.885942697525024414e-02,3.928397223353385925e-02,2.158066444098949432e-02,3.200944513082504272e-02,2.751840092241764069e-02,-4.041868075728416443e-02,-1.621283963322639465e-02,2.809081785380840302e-02,-3.534617274999618530e-02,-2.240487374365329742e-02,3.398089110851287842e-02,3.236344084143638611e-03,2.441273443400859833e-02,3.987896814942359924e-02,3.633667901158332825e-02,7.794554810971021652e-03,-1.863889768719673157e-02,-3.482449427247047424e-02,1.249752100557088852e-02,3.222080692648887634e-02,-1.113350130617618561e-02,-1.109108421951532364e-02,3.856470063328742981e-02,2.492836210876703262e-03,-3.937551751732826233e-02,1.077933050692081451e-02,1.940757036209106445e-02,-9.017228148877620697e-03,1.677135750651359558e-02,-1.510049868375062943e-02,-1.774806180037558079e-03,2.230667276307940483e-03,3.482588008046150208e-02,-3.806965542025864124e-04,2.365778945386409760e-02,3.685100236907601357e-03,-2.473928220570087433e-02,3.873776877298951149e-03,-3.039535693824291229e-02,-2.523019909858703613e-02,-7.839025929570198059e-03,-1.114390697330236435e-02,-2.102416940033435822e-02,-2.817283943295478821e-02,1.205261982977390289e-02,-2.427089586853981018e-02,2.822007052600383759e-02,-1.055697910487651825e-02,-3.389759361743927002e-02,-3.178475424647331238e-02,-6.655234843492507935e-03,-1.934109441936016083e-02,3.485793992877006531e-02,1.338494825176894665e-03,-3.038908727467060089e-02,2.163783088326454163e-02,1.480010058730840683e-02,2.276273816823959351e-02,3.575278818607330322e-02,3.583768755197525024e-02,-3.090968541800975800e-02,-2.056400850415229797e-02,-9.253249503672122955e-03,3.182492777705192566e-02,1.378860906697809696e-03,1.082364097237586975e-02,-3.568170592188835144e-02,-1.184596028178930283e-02,-9.795133955776691437e-03,-1.164600253105163574e-02,3.804193809628486633e-02,-1.412708777934312820e-02,1.274743676185607910e-02,1.886550709605216980e-02,2.710114466026425362e-03,-1.791809126734733582e-02,-2.932735905051231384e-02,2.154523506760597229e-02,3.373609855771064758e-02,1.744825625792145729e-03,-2.888491610065102577e-03,-3.757694363594055176e-02,4.473265260457992554e-03,-3.716955333948135376e-02,1.302663981914520264e-02,-1.680985651910305023e-02,-1.762849465012550354e-02,-2.816746756434440613e-02,3.997886553406715393e-02,3.265202045440673828e-03,4.130935296416282654e-02,2.203482761979103088e-02,-3.784646466374397278e-02,-2.890044264495372772e-02,3.626965358853340149e-02,2.518225833773612976e-02,-1.296716555953025818e-02,1.986199244856834412e-02,-1.990028657019138336e-02,1.539055816829204559e-02,-3.290138393640518188e-02,-2.912635728716850281e-02,2.229716256260871887e-02,-1.046017929911613464e-02,-1.856783777475357056e-02,6.440578028559684753e-03,2.308152616024017334e-04,-3.647691756486892700e-02,-9.254682809114456177e-03,-2.830833196640014648e-02,2.871742658317089081e-02,3.113255091011524200e-02,-2.579879388213157654e-02,2.406508289277553558e-02,-9.916973300278186798e-03,2.765229344367980957e-02,-2.010516263544559479e-02,-3.218052908778190613e-02,4.016523435711860657e-02,-5.710716359317302704e-03,3.612656844779849052e-03,-3.637468814849853516e-02,3.032381460070610046e-02,1.058474741876125336e-02,-2.481913939118385315e-02,1.603111252188682556e-02,-3.683635219931602478e-02,3.060586168430745602e-04,3.774431347846984863e-02,-5.434234160929918289e-03,7.531497627496719360e-03,-3.899147734045982361e-02,1.671617105603218079e-02,1.524881366640329361e-02,-2.765558660030364990e-02,-1.478238310664892197e-02,-9.823344647884368896e-03,1.732946187257766724e-02,1.549845095723867416e-02,1.013458333909511566e-02,-9.645679965615272522e-03,-3.537404909729957581e-02,2.529988531023263931e-03,-5.866669118404388428e-03,-6.438765674829483032e-03,-3.435204550623893738e-02,3.450834751129150391e-02,-1.856832648627460003e-03,-8.185348473489284515e-03,-1.088819187134504318e-02,1.948291808366775513e-02,-3.204539418220520020e-02,3.329025581479072571e-02,2.767982520163059235e-02,3.913859650492668152e-02,2.863622456789016724e-02,-2.433895692229270935e-02,-1.125936489552259445e-02,-9.089461527764797211e-03,3.009774908423423767e-02,-2.975003793835639954e-02,-2.966454066336154938e-02,-9.867562912404537201e-04,-4.233489278703927994e-03,1.596618629992008209e-02,3.317623957991600037e-02,-1.203552633523941040e-02,8.721185848116874695e-03,-2.463389933109283447e-02,6.339255254715681076e-03,-2.378824865445494652e-03,-4.127179086208343506e-02,3.156824409961700439e-02,3.010393865406513214e-02,-3.611144796013832092e-02,-2.982380613684654236e-02,1.661960780620574951e-02,-1.441416912712156773e-03,-4.714464768767356873e-03,-1.956947334110736847e-02,-2.426643483340740204e-02,4.722913727164268494e-04,2.409694343805313110e-02,1.394651178270578384e-02,-2.800534851849079132e-02,-4.031201824545860291e-02,2.156282402575016022e-02,1.483139488846063614e-02,1.328073255717754364e-02,1.752656884491443634e-03,9.990080259740352631e-03,2.756195887923240662e-02,-3.375256434082984924e-02,3.099448606371879578e-02,-1.336231268942356110e-02,2.348970808088779449e-02,2.726096473634243011e-02,-1.104032970033586025e-03,3.590434417128562927e-02,1.249149069190025330e-02,1.028279960155487061e-02,-2.303830580785870552e-03,-2.876570448279380798e-02,-3.184704110026359558e-02,-2.168511785566806793e-02,2.813436277210712433e-02,3.260716795921325684e-02,6.825101096183061600e-03,-3.417913243174552917e-02,-9.160364046692848206e-03,-3.610768541693687439e-02,-7.572594564408063889e-03,-3.060269169509410858e-02,-7.607098203152418137e-03,2.975655905902385712e-02,-2.401561476290225983e-02,-2.679170481860637665e-02,-1.496780011802911758e-02,-1.497305184602737427e-02,1.030774787068367004e-02,2.562547102570533752e-02,-3.220347315073013306e-02,-1.715132966637611389e-02,-1.184827648103237152e-02,-1.230123452842235565e-02,-2.170163672417402267e-03,-3.188448399305343628e-02,1.334272883832454681e-02,-2.879132889211177826e-02,-2.458271011710166931e-02,-3.564276918768882751e-02,5.460120737552642822e-03,-3.964072465896606445e-02,-2.073066495358943939e-02,-3.671393543481826782e-02,-1.514929905533790588e-02,-3.998608887195587158e-02,-4.111135378479957581e-02,-1.733285933732986450e-02,2.082387357950210571e-02,3.098675049841403961e-02,-3.141541779041290283e-02,-4.176548495888710022e-02,-7.232666015625000000e-03,3.873122856020927429e-02,-6.299894303083419800e-03,3.639951720833778381e-02,1.611714810132980347e-02,6.056050304323434830e-03,-2.239347063004970551e-02,-2.782764658331871033e-02,2.912723831832408905e-02,-1.898053102195262909e-02,1.365636754781007767e-02,-1.922170445322990417e-02,-3.745065256953239441e-02,4.677531251218169928e-04,2.322316728532314301e-02,-1.274666097015142441e-02,-3.680442925542593002e-03,-2.317346818745136261e-02,1.331266760826110840e-02,2.533903531730175018e-02,-1.623724400997161865e-02,-2.528260648250579834e-02,3.309061378240585327e-02,-3.850852698087692261e-02,-7.677077781409025192e-03,3.760952502489089966e-03,2.408148534595966339e-02,4.110638052225112915e-02,-3.824021294713020325e-02,3.011150658130645752e-02,2.545797079801559448e-02,-2.035332098603248596e-02,-2.815371938049793243e-02,-1.443019788712263107e-02,1.398752443492412567e-02,-1.110507361590862274e-02,1.702552661299705505e-02,1.994790323078632355e-02,-6.343895569443702698e-03,-2.878527157008647919e-02,1.397505588829517365e-02,2.253253944218158722e-02,1.563744619488716125e-02,-2.649874426424503326e-02,-2.778399549424648285e-02,3.388153389096260071e-02,-3.624397143721580505e-02,8.496978320181369781e-03,3.770871832966804504e-02,-2.476875670254230499e-02,-3.802427649497985840e-02,-3.690308332443237305e-02,-3.854262828826904297e-02,-1.644188165664672852e-02,-1.337878499180078506e-02,-2.288854122161865234e-02,-4.731376189738512039e-03,2.539059706032276154e-02,-3.635444492101669312e-02,1.611617021262645721e-02,2.798440866172313690e-02,-1.986189978197216988e-03,-1.445089373737573624e-02,-1.414673496037721634e-02,-2.867226256057620049e-03,1.004959549754858017e-02,-2.335056290030479431e-02,-2.896073088049888611e-02,3.635594993829727173e-02,1.041335705667734146e-02,1.541132573038339615e-02,-2.493202500045299530e-02,2.973481453955173492e-02,1.298655662685632706e-02,-1.443947083316743374e-03,-2.976074256002902985e-02,3.965449519455432892e-03,2.775638177990913391e-02,-2.064316719770431519e-02,-9.542025625705718994e-03,-4.073525592684745789e-02,-1.606667228043079376e-02,3.000757470726966858e-02,3.668005112558603287e-03,-8.413512259721755981e-03,-1.798527501523494720e-02,-3.824369236826896667e-02,1.116474531590938568e-02,-4.031891375780105591e-02,-6.055950187146663666e-03,6.426537409424781799e-03,2.312807738780975342e-02,-6.972681265324354172e-03,1.904221251606941223e-02,-2.453834563493728638e-02,8.471326902508735657e-03,3.265250101685523987e-02,-2.880567219108343124e-03,2.958667464554309845e-04,2.484579384326934814e-02,3.730821609497070312e-02,3.142980486154556274e-02,2.415841817855834961e-02,-5.694289226084947586e-03,1.759619079530239105e-02,-2.481139078736305237e-02,5.118114408105611801e-03,-3.235545475035905838e-03,-2.027652785181999207e-02,-8.738558739423751831e-03,1.018953695893287659e-02,1.884190924465656281e-02,1.117436587810516357e-02,3.968713805079460144e-02,-3.276571631431579590e-02,-2.369593828916549683e-02,3.864142578095197678e-03,2.747324481606483459e-02,-2.334485203027725220e-02,-2.480817399919033051e-02,3.527528420090675354e-02,-2.509213238954544067e-02,-1.739189587533473969e-02,3.888060525059700012e-02,3.134418278932571411e-02,2.858023159205913544e-02,-1.859061606228351593e-02,-1.034381915815174580e-03,3.161847963929176331e-02,3.918463364243507385e-02,-1.296555995941162109e-02,-4.484012257307767868e-03,-2.643321407958865166e-03,-1.222375128418207169e-02,2.031056676059961319e-03,2.082699676975607872e-03,-3.664421662688255310e-02,4.114738479256629944e-02,-2.914856746792793274e-02,-2.639689296483993530e-02,-1.104101911187171936e-02,2.057220973074436188e-02,1.005089469254016876e-02,3.267748281359672546e-02,2.835918404161930084e-02,-9.283656254410743713e-03,2.131091058254241943e-02,-1.229950319975614548e-02,-7.339791860431432724e-03,-3.786377608776092529e-02,-3.952104598283767700e-03,3.017538599669933319e-02,1.141868066042661667e-02,-2.897347882390022278e-02,2.854568324983119965e-02,2.336592040956020355e-02,-2.730990014970302582e-02,3.235488384962081909e-02,2.060836181044578552e-02,3.026271425187587738e-02,2.120141685009002686e-02,2.255181223154067993e-02,-1.600044593214988708e-02,2.967758662998676300e-02,1.712207309901714325e-02,-9.796647354960441589e-03,-1.049386616796255112e-02,4.116522520780563354e-02,3.045022860169410706e-02,1.564979925751686096e-02,-6.733978632837533951e-03,-1.636960729956626892e-02,2.066943421959877014e-02,-3.260897845029830933e-02,1.582602737471461296e-03,-7.687166333198547363e-03,4.050221666693687439e-02,-4.707731306552886963e-03,-3.526249155402183533e-02,3.864790499210357666e-02,-1.984386891126632690e-02,-1.844017021358013153e-02,2.448395639657974243e-02,2.617314830422401428e-02,-2.485281042754650116e-02,3.707565367221832275e-02,3.340477496385574341e-02,2.039400860667228699e-02,2.967482991516590118e-02,-2.767220884561538696e-02,-1.640106737613677979e-02,-2.071147412061691284e-02,3.387089446187019348e-02,-2.915740758180618286e-02,2.643997408449649811e-02,3.390109911561012268e-02,3.526153741404414177e-03,6.587181240320205688e-03,-9.075404144823551178e-03,-1.604263484477996826e-02,2.288679406046867371e-02,-3.226954489946365356e-02,-2.650043182075023651e-02,-7.267062086611986160e-03,3.738577663898468018e-02,1.677482016384601593e-02,2.017743140459060669e-02,3.962558135390281677e-02,2.389074303209781647e-02,-1.182433683425188065e-03,3.065486997365951538e-02,-5.098076071590185165e-03,-2.284143865108489990e-02,-2.133136801421642303e-02,2.841863594949245453e-02,3.653875365853309631e-02,-1.492798514664173126e-02,1.358082890510559082e-02,7.449864875525236130e-03,3.345406427979469299e-02,1.575102843344211578e-02,-3.427147492766380310e-02,1.047738827764987946e-02,-3.656610148027539253e-03,2.551784925162792206e-02,2.096792869269847870e-02,-2.167749963700771332e-02,-1.998013071715831757e-02,3.886470943689346313e-02},

{-2.013825252652168274e-02,-9.694407694041728973e-03,-7.705127936787903309e-04,1.671770773828029633e-02,-4.680525138974189758e-02,-2.062327042222023010e-02,-1.455147191882133484e-02,9.055567905306816101e-03,7.130565587431192398e-03,4.294313024729490280e-03,1.714861579239368439e-02,-2.502276562154293060e-02,2.377847768366336823e-02,-4.578921943902969360e-02,-1.557954773306846619e-02,-2.508511021733283997e-02,2.638797834515571594e-02,-4.316702857613563538e-02,-4.717597365379333496e-02,-1.019603479653596878e-02,-2.249586395919322968e-02,7.533506490290164948e-03,2.962212450802326202e-02,-2.824836038053035736e-02,3.125278453808277845e-04,-1.781927421689033508e-02,1.293467078357934952e-02,-2.300714142620563507e-02,-4.383987188339233398e-02,1.870317035354673862e-03,-4.005979374051094055e-02,-1.060999464243650436e-02,-3.810344496741890907e-03,-3.979373257607221603e-03,-3.718351572751998901e-02,-2.300612442195415497e-02,1.294074207544326782e-02,-1.591025106608867645e-02,-2.188391238451004028e-02,2.454996667802333832e-02,2.300549484789371490e-02,-3.317296132445335388e-02,-4.679453372955322266e-02,-2.692386880517005920e-02,3.528925776481628418e-02,-4.093696549534797668e-02,-3.205201402306556702e-02,-3.231300786137580872e-02,-1.649454236030578613e-02,5.288443062454462051e-04,-4.364768415689468384e-02,-4.130941256880760193e-02,-1.901539228856563568e-02,-4.675635695457458496e-02,-2.502119541168212891e-02,-4.184897243976593018e-02,3.140659257769584656e-02,3.505752980709075928e-02,2.912300452589988708e-02,-3.530643507838249207e-02,-1.314591430127620697e-02,1.399053819477558136e-02,-2.108749188482761383e-02,2.259296178817749023e-02,2.039960958063602448e-02,-3.545762598514556885e-02,-2.949658408761024475e-02,-4.301469027996063232e-02,4.987032152712345123e-03,2.337781153619289398e-02,-1.006271503865718842e-02,-4.092405363917350769e-02,3.057563677430152893e-02,-3.322575613856315613e-02,1.222735643386840820e-02,-9.377732872962951660e-03,3.509786352515220642e-02,5.033627152442932129e-03,-6.278704851865768433e-03,-7.465854287147521973e-05,2.097208052873611450e-03,3.861438715830445290e-03,-4.639670625329017639e-02,-6.894295103847980499e-03,3.503142669796943665e-02,-6.171304732561111450e-03,-1.578710041940212250e-02,-3.790906071662902832e-02,-4.346325062215328217e-03,-2.443706057965755463e-02,3.352116420865058899e-02,-3.379462659358978271e-02,-9.172778576612472534e-03,2.229375578463077545e-02,3.435549139976501465e-02,-4.507658258080482483e-02,2.582987025380134583e-02,-3.984662145376205444e-02,1.967640779912471771e-02,-4.381939396262168884e-02,3.088011406362056732e-02,2.107406035065650940e-02,2.574386075139045715e-02,1.383163407444953918e-02,-4.075823351740837097e-02,1.781848631799221039e-02,-4.349796473979949951e-02,2.996408846229314804e-03,4.142807796597480774e-02,-7.354516535997390747e-03,2.370886877179145813e-02,-1.408560201525688171e-02,-1.494113169610500336e-02,2.522453293204307556e-02,1.594964414834976196e-03,-3.528408706188201904e-02,-4.145435616374015808e-02,3.936507925391197205e-02,-2.581074833869934082e-03,3.370701894164085388e-02,7.410526275634765625e-03,1.394753530621528625e-02,1.161035522818565369e-02,-3.161302953958511353e-02,3.187936916947364807e-02,2.214827761054039001e-02,-4.724398255348205566e-03,4.106140509247779846e-02,-1.481615565717220306e-02,4.161902889609336853e-02,-3.069408796727657318e-02,2.516142558306455612e-03,-2.681404910981655121e-02,-1.798542961478233337e-02,3.729412332177162170e-02,1.586093939840793610e-02,-3.197389841079711914e-02,2.450153231620788574e-03,-2.095853909850120544e-02,-4.052060469985008240e-02,2.860307693481445312e-03,-2.385093830525875092e-02,1.624581217765808105e-02,8.143988437950611115e-03,3.225310146808624268e-02,1.338703371584415436e-02,2.246363274753093719e-02,3.186969086527824402e-02,-1.099651795811951160e-03,-9.749273769557476044e-03,-5.546408239752054214e-03,1.105070672929286957e-02,-4.307340458035469055e-02,-2.496106782928109169e-03,2.678962610661983490e-02,2.380705066025257111e-02,2.568127401173114777e-02,-1.675696857273578644e-02,3.075639717280864716e-03,-4.678975418210029602e-02,6.039992440491914749e-03,1.002944074571132660e-02,-2.072743140161037445e-03,-1.073563192039728165e-02,2.792936563491821289e-02,2.262724936008453369e-02,-7.017203606665134430e-03,3.231412544846534729e-02,3.345844894647598267e-02,-3.510843962430953979e-02,-1.662906073033809662e-02,2.866356447339057922e-02,-2.137351781129837036e-02,2.319886162877082825e-02,-5.810196977108716965e-03,-3.909245878458023071e-02,-4.421553015708923340e-02,-4.294227436184883118e-02,3.066715411841869354e-02,-3.361254557967185974e-02,1.371153071522712708e-02,3.661750629544258118e-02,-3.979454562067985535e-02,1.238035783171653748e-02,-1.702795550227165222e-02,4.147141054272651672e-02,3.077179193496704102e-03,-2.755385637283325195e-02,-2.351593971252441406e-02,-1.714259013533592224e-02,-1.803691685199737549e-02,4.163051024079322815e-02,1.477066427469253540e-03,-1.584256812930107117e-02,3.301477059721946716e-02,-2.769200503826141357e-02,-1.663393341004848480e-02,-1.168789528310298920e-02,4.016249999403953552e-02,-3.931448608636856079e-02,-7.271979004144668579e-03,8.858989924192428589e-03,1.505078375339508057e-02,-3.626456856727600098e-02,3.584538027644157410e-02,3.377401456236839294e-02,3.619516268372535706e-02,-2.274968847632408142e-02,2.031703665852546692e-02,2.654136344790458679e-02,-3.425071388483047485e-02,1.608299091458320618e-02,2.231762185692787170e-02,-9.183954447507858276e-03,1.934001967310905457e-02,-3.638252988457679749e-02,-2.006205357611179352e-02,2.269255369901657104e-02,-5.335460416972637177e-03,1.754806376993656158e-02,5.245422013103961945e-03,3.067448176443576813e-02,6.841327995061874390e-03,-1.097365468740463257e-02,1.148053258657455444e-02,-4.748800396919250488e-02,-2.790734544396400452e-02,1.457522250711917877e-02,-3.620219603180885315e-02,2.888525277376174927e-02,-4.494222253561019897e-02,-2.100395970046520233e-02,1.765920966863632202e-02,1.457078265957534313e-03,2.069687098264694214e-02,-2.237146906554698944e-02,4.819024354219436646e-03,-2.203560993075370789e-02,-3.605905920267105103e-02,-8.130204863846302032e-03,-4.322188347578048706e-02,-4.752843827009201050e-02,-4.536378197371959686e-03,1.583349518477916718e-02,2.627933211624622345e-02,1.677038893103599548e-02,-4.560790956020355225e-03,-4.019286110997200012e-02,3.045351617038249969e-02,-9.698385372757911682e-03,2.021540189161896706e-03,-1.584430597722530365e-02,5.539983510971069336e-03,1.757029676809906960e-03,6.736215669661760330e-03,-3.819507360458374023e-02,-2.090681530535221100e-02,2.474874071776866913e-02,-2.479018270969390869e-02,-1.405922695994377136e-02,2.399743907153606415e-02,-1.938503049314022064e-02,-1.319577824324369431e-02,-1.340983714908361435e-02,2.314247749745845795e-02,-1.402770448476076126e-02,2.739948965609073639e-02,-2.708782814443111420e-02,-1.736723934300243855e-03,8.172837086021900177e-03,1.960861310362815857e-02,1.422026660293340683e-02,1.433014404028654099e-04,8.090496063232421875e-03,6.985228508710861206e-03,-3.206682205200195312e-02,-3.288448229432106018e-02,-3.138217702507972717e-02,-8.536037988960742950e-03,3.232969716191291809e-02,-3.213101625442504883e-02,-1.363871246576309204e-02,-1.430451683700084686e-02,-2.554384805262088776e-02,-5.330846644937992096e-03,-3.985026106238365173e-02,-1.130657270550727844e-02,-6.338343024253845215e-03,-1.021532248705625534e-02,-2.960284054279327393e-02,-2.527511306107044220e-02,2.315012179315090179e-02,-3.111497731879353523e-03,1.028729416429996490e-02,-4.087488725781440735e-02,-4.110067337751388550e-02,-3.939236328005790710e-02,1.466857735067605972e-02,1.635177992284297943e-02,-4.381931573152542114e-02,6.181415636092424393e-03,1.420539151877164841e-02,-6.340960972011089325e-03,-4.729610681533813477e-02,8.197031915187835693e-03,1.603224501013755798e-02,-3.453768044710159302e-02,3.533704578876495361e-02,4.272419027984142303e-03,-3.038526512682437897e-02,-2.034516446292400360e-02,8.469899185001850128e-03,2.544802799820899963e-02,3.195964545011520386e-02,-6.814559455960988998e-03,-2.797510661184787750e-02,3.265030682086944580e-02,7.960433140397071838e-03,-2.141956984996795654e-02,2.493954636156558990e-02,2.453853189945220947e-02,-3.175664320588111877e-02,6.184595171362161636e-03,3.367435187101364136e-02,-3.352348133921623230e-02,-2.365532517433166504e-02,-3.737702500075101852e-03,-4.475987702608108521e-02,1.747923903167247772e-02,2.334178425371646881e-02,-4.044217988848686218e-02,9.552503004670143127e-03,2.429366670548915863e-02,-4.087363183498382568e-02,-3.101665899157524109e-02,9.782760404050350189e-03,-3.645513951778411865e-02,-2.652665041387081146e-02,2.814759127795696259e-02,2.534556388854980469e-02,3.483732417225837708e-02,-6.629017647355794907e-03,-1.324447337538003922e-02,-1.288156304508447647e-02,1.292869541794061661e-02,-4.158399626612663269e-02,-3.218129649758338928e-02,-2.058992348611354828e-02,3.133359923958778381e-02,-3.337524086236953735e-02,8.614129386842250824e-03,3.069430589675903320e-02,3.464980795979499817e-02,-3.373221680521965027e-02,-1.485258433967828751e-02,9.577049873769283295e-03,1.388896838761866093e-03,-6.280670408159494400e-03,8.944380097091197968e-03,-4.444883018732070923e-02,1.573279127478599548e-02,-4.169192537665367126e-02,2.568744122982025146e-02,1.458527427166700363e-02,2.895992808043956757e-02,-2.748035266995429993e-02,3.102172352373600006e-02,-4.658705368638038635e-02,-4.360602051019668579e-02,9.719664230942726135e-03,-2.762558311223983765e-02,1.502445712685585022e-02,-1.340299472212791443e-02,-2.350332587957382202e-02,-2.472495101392269135e-02,2.548624761402606964e-02,-1.939878985285758972e-02,9.384042583405971527e-03,-8.379792794585227966e-03,-3.361696144565939903e-03,4.352737218141555786e-03,3.276589512825012207e-02,1.280070282518863678e-02,-1.284146122634410858e-02,-2.805974334478378296e-02,-6.100499071180820465e-03,3.445681557059288025e-02,-8.807043544948101044e-03,1.042683050036430359e-02,-1.820841431617736816e-02,-1.236886158585548401e-02,-3.783700615167617798e-02,-4.379672557115554810e-02,1.591075770556926727e-02,1.506453007459640503e-02,-5.462314002215862274e-03,3.008096246048808098e-03,-1.406962703913450241e-02,2.329520322382450104e-02,2.896231599152088165e-02,2.154705114662647247e-02,6.652800366282463074e-03,-1.877372898161411285e-02,-2.002396434545516968e-02,-4.524954035878181458e-02,-2.628796175122261047e-02,-4.398311953991651535e-03,-3.551232069730758667e-02,9.042394347488880157e-03,3.551923111081123352e-02,-2.987050823867321014e-02,-2.200832217931747437e-02,2.065744996070861816e-02,1.144870463758707047e-02,-9.975492954254150391e-03,2.850873954594135284e-02,1.526175066828727722e-02,1.964654773473739624e-03,1.560635049827396870e-03,-2.590975724160671234e-02,1.830951124429702759e-02,-4.058226943016052246e-02,1.757602393627166748e-02,2.495406009256839752e-02,-2.333242073655128479e-02,-9.671173058450222015e-03,-1.183802634477615356e-02,-3.263725712895393372e-02,-1.825389153964351863e-05,-1.378609612584114075e-02,-4.451936483383178711e-02,3.557851538062095642e-02,3.040743991732597351e-02,3.253586962819099426e-02,3.958862647414207458e-02,3.986296430230140686e-02,-3.785970062017440796e-02,7.714227773249149323e-03,1.205419003963470459e-02,-1.705620437860488892e-03,3.610833361744880676e-02,-1.179752522148191929e-03,3.012075321748852730e-03,-2.723119780421257019e-02,-3.381091356277465820e-02,9.609531611204147339e-03,1.976676285266876221e-04,3.737928345799446106e-02,2.636446803808212280e-02,3.052767924964427948e-02,1.958110928535461426e-02,7.175743579864501953e-03,-1.532541122287511826e-02,-3.706532344222068787e-02,-7.128380239009857178e-04,-1.747879432514309883e-03,1.535392180085182190e-02,2.891748771071434021e-02,1.621228456497192383e-02,3.158992156386375427e-02,1.080219075083732605e-02,2.897205576300621033e-02,2.252054587006568909e-02,-1.343674585223197937e-02,4.006971791386604309e-02,1.832783222198486328e-03,-1.208439003676176071e-03,1.106312870979309082e-02,1.981124805752187967e-04,6.133784074336290359e-03,-2.068884484469890594e-02,2.842080779373645782e-02,1.362716965377330780e-02,-1.863752678036689758e-02,-4.641644656658172607e-02,-9.070289321243762970e-03,-3.408468514680862427e-02,3.162008151412010193e-02,-5.587849766016006470e-03,-2.991438098251819611e-02,1.548274047672748566e-02,-3.179088979959487915e-02,1.033072359859943390e-02,3.354338556528091431e-02,1.739390194416046143e-02,-4.054782167077064514e-02,8.567607030272483826e-03,-4.088158532977104187e-02,-1.022521033883094788e-02,3.110425733029842377e-02,-3.281682357192039490e-02,-1.813836582005023956e-02,-1.150151062756776810e-02,-2.408342994749546051e-02,-3.822474554181098938e-02,-3.721871599555015564e-02,-2.002244815230369568e-02,2.307799004483968019e-04,2.009554021060466766e-02,-1.976427808403968811e-02,2.971236966550350189e-02,-3.297423943877220154e-02,-3.247520700097084045e-02,7.214510347694158554e-03,3.552877157926559448e-02,-1.134271733462810516e-02,6.493754219263792038e-03,-2.488409169018268585e-02,-2.743392437696456909e-02,-3.367466479539871216e-02,-2.127922140061855316e-02,2.744829654693603516e-02,-2.358621917665004730e-03,3.460231423377990723e-02,-4.405760392546653748e-02,1.013888511806726456e-03,1.812950149178504944e-02,-1.307199150323867798e-02,9.832027368247509003e-03,8.102151565253734589e-03,-3.885765373706817627e-02,-2.404318191111087799e-02,2.927420847117900848e-02,-2.997907251119613647e-02,1.570746675133705139e-02,5.670133046805858612e-03,-2.115346677601337433e-02,-3.566844016313552856e-02,2.641830407083034515e-02,2.691025845706462860e-02,-4.172088950872421265e-02,2.242206037044525146e-02,-3.254542499780654907e-02,-2.350727654993534088e-02,-1.807097718119621277e-02,-2.173645049333572388e-02,-3.980328328907489777e-03,2.848215773701667786e-02,-2.158783003687858582e-02,-1.829761825501918793e-02,-2.373296022415161133e-02,-4.331100732088088989e-03,-3.443553298711776733e-02,-3.019793331623077393e-02,9.572889655828475952e-03,-3.066963702440261841e-02,-1.757419668138027191e-02,2.315081655979156494e-04,2.930249646306037903e-02,-3.594626113772392273e-02,3.373979032039642334e-02,-1.561854965984821320e-02,1.858759671449661255e-03,3.629041090607643127e-02,1.735840365290641785e-02,-3.167702257633209229e-02,-2.113589830696582794e-02,-1.627867855131626129e-02,6.248071789741516113e-03,-1.806166768074035645e-02,-4.207338020205497742e-02,-4.331003129482269287e-02,-3.411165671423077583e-03,-3.952834382653236389e-02,-5.913462489843368530e-03,-3.929311782121658325e-02,6.767176091670989990e-04,-4.302441142499446869e-03,-4.673914983868598938e-02,-1.877579651772975922e-02,-1.096469163894653320e-02,1.105186715722084045e-02,1.331575214862823486e-02,-1.281780563294887543e-02,-3.879260271787643433e-02,2.016627788543701172e-02},

{1.008683163672685623e-02,-3.966359421610832214e-02,-4.428037256002426147e-02,-2.504214458167552948e-02,1.479506678879261017e-02,7.036987808533012867e-04,-2.014845982193946838e-02,2.464077062904834747e-02,1.177528873085975647e-02,-2.124753408133983612e-02,-3.702486306428909302e-02,-7.074526045471429825e-03,-4.233542084693908691e-02,-1.930400170385837555e-02,3.035887889564037323e-02,-3.895716741681098938e-02,1.837371150031685829e-03,1.084743905812501907e-02,1.805052277632057667e-03,-5.066793784499168396e-02,-9.450145065784454346e-03,2.494649589061737061e-02,1.485067140311002731e-02,-4.825270548462867737e-02,-1.735645532608032227e-02,-3.341083065606653690e-04,1.696089468896389008e-02,-2.879271097481250763e-02,-6.914694327861070633e-03,-1.157196704298257828e-02,-3.994436562061309814e-02,-4.211357235908508301e-02,-1.605711318552494049e-02,3.007232211530208588e-02,2.181291207671165466e-02,-4.234065115451812744e-02,-3.037027642130851746e-02,-1.656389050185680389e-02,-4.699365794658660889e-02,-4.282413423061370850e-02,3.128889575600624084e-02,-4.689537454396486282e-03,-3.778604418039321899e-02,1.798047334887087345e-03,8.507284335792064667e-03,-4.386057332158088684e-02,2.736587263643741608e-02,-1.318646222352981567e-02,-2.663269639015197754e-02,-4.427256062626838684e-02,1.019708346575498581e-03,1.139410422183573246e-03,-2.273537591099739075e-02,3.028916567564010620e-02,2.410404384136199951e-02,-4.594805091619491577e-02,-4.329215362668037415e-02,-3.114864416420459747e-02,1.887731812894344330e-02,-2.638822421431541443e-02,1.165363006293773651e-02,-1.827445812523365021e-02,7.008864078670740128e-03,-4.139808192849159241e-02,-3.678590059280395508e-02,8.330207318067550659e-03,1.948953792452812195e-02,-3.512748330831527710e-02,1.818688772618770599e-02,2.089663967490196228e-02,-1.545292232185602188e-02,1.328009646385908127e-02,-3.691075742244720459e-02,3.614141419529914856e-02,-3.008264303207397461e-02,3.576540574431419373e-02,-2.119441516697406769e-02,-1.224468462169170380e-02,3.437133505940437317e-02,2.870298549532890320e-02,-9.351793676614761353e-03,-1.032950356602668762e-03,-2.227230742573738098e-02,-3.575415164232254028e-02,-2.865998446941375732e-02,-3.171476349234580994e-02,-3.482342883944511414e-02,3.264421224594116211e-02,2.925781719386577606e-02,1.504875533282756805e-02,-1.177451014518737793e-02,-3.154434263706207275e-02,5.390441976487636566e-03,3.158151358366012573e-02,-2.441573655232787132e-03,1.156479213386774063e-02,2.118597738444805145e-02,1.361236721277236938e-02,-5.651311483234167099e-03,1.596459932625293732e-02,-1.204147469252347946e-02,-2.424300834536552429e-02,-1.379502192139625549e-02,2.630073390901088715e-02,-1.758306287229061127e-02,-3.351538255810737610e-02,-3.508434165269136429e-03,-3.356728935614228249e-03,-9.567290544509887695e-04,6.005216389894485474e-03,3.663599491119384766e-04,-3.086651489138603210e-02,-4.172167927026748657e-02,3.233963996171951294e-02,1.642763242125511169e-02,-3.910776227712631226e-02,1.313066482543945312e-02,-9.271841496229171753e-03,-4.579988121986389160e-02,-4.836887493729591370e-02,2.345800772309303284e-02,4.361774772405624390e-03,-1.551721990108489990e-02,6.042912602424621582e-03,-3.471888136118650436e-03,-3.917516022920608521e-02,1.775589585304260254e-02,3.952208533883094788e-02,-3.053307533264160156e-02,3.199903294444084167e-02,1.954901590943336487e-02,-1.170470658689737320e-02,-9.093031287193298340e-03,-1.719333231449127197e-02,-3.636400029063224792e-02,-7.721111178398132324e-03,1.429471094161272049e-02,-3.233424574136734009e-02,2.002857625484466553e-02,3.313305601477622986e-02,-3.754949197173118591e-02,-2.007626369595527649e-02,-1.257202494889497757e-02,-1.405549887567758560e-02,2.500511892139911652e-02,1.049245521426200867e-02,-3.168475627899169922e-02,1.851915009319782257e-02,1.986974291503429413e-02,2.045024186372756958e-02,-2.169590443372726440e-02,1.873937621712684631e-02,-2.772047929465770721e-02,-2.620064653456211090e-03,7.539649377577006817e-04,-4.857348650693893433e-02,-4.946013912558555603e-02,-1.909217052161693573e-02,-4.484739899635314941e-02,-3.032573964446783066e-03,-4.067065566778182983e-02,-4.856199026107788086e-02,-5.128691438585519791e-03,-9.098454378545284271e-03,2.489602006971836090e-02,1.675031520426273346e-02,-3.853341937065124512e-02,1.676411484368145466e-03,-4.026188328862190247e-02,2.040358819067478180e-02,-1.738092675805091858e-02,2.288453839719295502e-02,-4.645656794309616089e-02,1.208016555756330490e-02,-3.587052971124649048e-02,9.366896701976656914e-04,-4.275789484381675720e-02,2.157059311866760254e-02,-6.243449170142412186e-03,-2.865433134138584137e-02,-3.898371011018753052e-03,-2.394188009202480316e-02,2.659725770354270935e-02,-1.453328691422939301e-02,1.358939334750175476e-02,-2.294269204139709473e-02,-1.471121236681938171e-02,-3.774557635188102722e-02,-1.529371365904808044e-02,2.683548256754875183e-02,-8.395623415708541870e-03,-2.370420098304748535e-02,2.647115662693977356e-02,2.483524754643440247e-02,8.182752877473831177e-03,-1.622681878507137299e-02,-3.465624898672103882e-02,-3.701101616024971008e-02,3.011319413781166077e-02,2.421649917960166931e-02,7.966112345457077026e-03,-4.060887917876243591e-02,-2.440639585256576538e-02,1.625059917569160461e-02,-2.687862515449523926e-02,6.955564022064208984e-03,7.305890321731567383e-03,1.356954779475927353e-02,-4.094485938549041748e-02,-4.043778404593467712e-02,-3.876433894038200378e-02,5.153968930244445801e-03,1.710407994687557220e-02,1.552432775497436523e-02,1.570300012826919556e-02,2.300110273063182831e-02,2.972950786352157593e-02,1.938540674746036530e-02,3.166732564568519592e-02,1.423280406743288040e-02,3.193105384707450867e-02,8.273323066532611847e-03,-3.702685981988906860e-02,-3.740573301911354065e-02,1.569833979010581970e-02,-4.878053069114685059e-02,2.454248815774917603e-02,-3.611861728131771088e-03,1.499712374061346054e-02,-3.386294469237327576e-02,-1.794377714395523071e-02,-3.477571159601211548e-02,1.653401739895343781e-02,-4.411942884325981140e-02,2.485437318682670593e-03,-1.032080780714750290e-02,-5.285805673338472843e-04,-1.816413179039955139e-02,-8.300450630486011505e-03,3.236579895019531250e-02,2.159880846738815308e-02,2.496498078107833862e-02,3.105119802057743073e-03,-5.047229677438735962e-02,-2.483447827398777008e-02,1.569961570203304291e-02,1.195829128846526146e-03,3.239823563490062952e-04,-3.929680585861206055e-02,7.524725515395402908e-03,-1.356279291212558746e-02,-1.428077090531587601e-02,-3.145102784037590027e-02,2.144686318933963776e-02,1.764902472496032715e-02,-8.944158442318439484e-03,2.890863269567489624e-02,5.116998683661222458e-03,-4.516804590821266174e-02,1.656743511557579041e-02,-3.365617617964744568e-02,-1.956119947135448456e-02,-5.045951530337333679e-02,-1.703354343771934509e-02,-2.486544474959373474e-02,7.752301637083292007e-03,2.930536307394504547e-02,-4.537429660558700562e-02,-4.680237732827663422e-03,-1.192442420870065689e-02,-3.388779982924461365e-02,-4.821631312370300293e-02,2.547914721071720123e-02,-8.323902264237403870e-03,-8.184360340237617493e-03,-3.093724139034748077e-03,-3.159711882472038269e-02,2.381739579141139984e-02,-6.495628971606492996e-03,1.436700578778982162e-02,-2.865010173991322517e-03,4.733692388981580734e-03,1.999251917004585266e-02,-4.118185490369796753e-02,-4.180813953280448914e-02,-2.638811245560646057e-02,-3.069123253226280212e-02,1.619767863303422928e-03,3.776336787268519402e-03,-8.828575722873210907e-03,-1.518804021179676056e-02,-3.506721183657646179e-02,-9.346901439130306244e-03,-4.250215366482734680e-02,1.827468909323215485e-02,2.591778896749019623e-02,-4.734023660421371460e-02,-1.952214539051055908e-02,-8.898235857486724854e-03,2.774080261588096619e-02,2.660561911761760712e-02,2.815189212560653687e-02,-2.285649254918098450e-02,-1.373311970382928848e-02,2.315028011798858643e-02,-9.607338870409876108e-05,-1.788897626101970673e-02,-4.052795097231864929e-02,2.569862268865108490e-02,2.862131595611572266e-02,2.049444615840911865e-02,2.057779021561145782e-02,1.133185462094843388e-03,-4.762097261846065521e-03,-3.101687505841255188e-02,-4.326020181179046631e-02,3.616239642724394798e-03,-5.177084240131080151e-04,2.782875904813408852e-03,-2.794060669839382172e-02,1.486662495881319046e-02,-2.586360648274421692e-02,-3.858323022723197937e-02,-1.083839032799005508e-02,-1.828646287322044373e-02,2.553312852978706360e-02,-1.988691091537475586e-02,-1.597262173891067505e-02,2.108291536569595337e-02,9.058683179318904877e-03,3.159890323877334595e-02,4.195149987936019897e-03,1.996487611904740334e-03,-1.341488305479288101e-02,-4.573142901062965393e-02,-1.088027656078338623e-02,-3.753361850976943970e-02,-4.571910947561264038e-02,-1.018190290778875351e-02,5.904837511479854584e-03,-3.536796197295188904e-02,3.000282496213912964e-02,4.395429044961929321e-03,3.135244920849800110e-02,-5.870777182281017303e-03,1.109757926315069199e-02,1.019350998103618622e-02,1.303989440202713013e-02,1.274798810482025146e-02,-7.280526682734489441e-03,2.776936441659927368e-02,-1.287678070366382599e-02,5.330199375748634338e-03,-1.313489396125078201e-02,-5.574922543019056320e-03,-3.959609568119049072e-02,-1.451314147561788559e-02,2.686247602105140686e-02,2.070561796426773071e-02,-2.497752197086811066e-02,-2.516738697886466980e-02,5.258310702629387379e-04,-5.875688977539539337e-03,-4.780057352036237717e-03,-4.024098627269268036e-03,-4.693448916077613831e-02,2.845179103314876556e-02,2.255348721519112587e-03,-4.705841839313507080e-02,1.091983914375305176e-02,2.173164859414100647e-02,-3.148804977536201477e-02,-2.534832805395126343e-02,3.176339343190193176e-02,2.493236446753144264e-03,-2.638165093958377838e-02,-2.377605065703392029e-02,1.016653981059789658e-02,-4.648540541529655457e-02,1.108514610677957535e-02,2.946247532963752747e-02,-4.408558458089828491e-02,-1.250592991709709167e-02,-3.662198036909103394e-02,-4.913064092397689819e-02,-2.206720598042011261e-02,1.968716457486152649e-02,2.713433094322681427e-02,-3.614977747201919556e-02,-1.617950387299060822e-02,1.030165702104568481e-02,-4.308943822979927063e-02,2.654932625591754913e-02,2.426904253661632538e-02,-1.175197772681713104e-03,2.819349057972431183e-02,9.911528788506984711e-03,-3.873682022094726562e-02,-2.351122722029685974e-02,1.295970380306243896e-02,2.867054939270019531e-02,-2.333995699882507324e-02,2.322248928248882294e-02,-4.548906534910202026e-02,-4.604151472449302673e-02,-1.652431860566139221e-02,-9.523501619696617126e-03,1.709953323006629944e-02,1.244179531931877136e-02,2.760323695838451385e-02,-2.832124568521976471e-02,-4.958363715559244156e-03,2.293052896857261658e-02,-3.681589663028717041e-02,-4.916414245963096619e-02,2.234891243278980255e-02,-1.588992774486541748e-02,-3.002722375094890594e-02,-3.037038259208202362e-02,2.641539089381694794e-03,-3.742233291268348694e-02,-1.825126446783542633e-02,-2.222387120127677917e-02,2.305779373273253441e-03,-4.130730032920837402e-02,-4.723635315895080566e-02,-3.681531175971031189e-02,3.750666510313749313e-03,-4.871003702282905579e-02,-3.316206112504005432e-02,-4.165001586079597473e-02,-3.421086817979812622e-02,5.174428224563598633e-06,-8.088648319244384766e-03,3.711504116654396057e-02,-4.865203052759170532e-03,-4.615668952465057373e-02,9.156892774626612663e-04,-6.342336535453796387e-03,-8.010956458747386932e-03,-8.278239518404006958e-03,-3.897960111498832703e-02,-2.996867150068283081e-02,-3.525470569729804993e-02,-3.171364217996597290e-02,-2.986487001180648804e-03,1.394592784345149994e-02,-4.836820811033248901e-02,-4.566865414381027222e-02,-3.300813958048820496e-02,2.919219806790351868e-02,-3.283331915736198425e-02,-1.527030486613512039e-02,1.710780151188373566e-02,1.853541471064090729e-02,-4.155971109867095947e-02,2.421759441494941711e-02,-2.011843025684356689e-04,-2.795581473037600517e-03,-5.900239106267690659e-03,-2.249619364738464355e-02,-1.073242072016000748e-02,2.141026780009269714e-02,-2.690840512514114380e-03,1.570299267768859863e-02,-2.149266749620437622e-02,2.176757156848907471e-02,3.196359053254127502e-02,4.908852279186248779e-03,-2.205762453377246857e-02,-1.022088923491537571e-03,1.169077865779399872e-02,-6.594169884920120239e-03,-4.409322515130043030e-03,2.229277603328227997e-02,-4.871525615453720093e-02,1.450233068317174911e-02,1.875402219593524933e-02,1.049785315990447998e-02,-1.407327502965927124e-02,-3.405335918068885803e-02,-4.759256541728973389e-02,2.711623348295688629e-02,-4.121073707938194275e-02,-1.635577529668807983e-02,1.459577120840549469e-02,3.101052250713109970e-03,2.109632454812526703e-02,-3.884120285511016846e-02,-3.158844634890556335e-02,-4.477280005812644958e-02,-4.398000612854957581e-02,2.497235313057899475e-02,-3.610240295529365540e-02,-3.717154264450073242e-02,-4.922056198120117188e-02,-3.402818739414215088e-02,2.349493466317653656e-02,-2.233656495809555054e-02,-3.906814381480216980e-02,-1.561149396002292633e-02,-3.337198123335838318e-02,2.467433549463748932e-02,-5.140258744359016418e-02,-2.954372903332114220e-04,-1.287768594920635223e-02,2.135075815021991730e-02,2.199255302548408508e-02,-3.719732165336608887e-02,5.262030288577079773e-03,-1.095432788133621216e-02,-2.091120742261409760e-02,3.077890723943710327e-04,1.742206327617168427e-02,-1.056590117514133453e-03,2.378240413963794708e-02,2.522718533873558044e-02,1.296214666217565536e-02,-1.862382516264915466e-02,4.088367801159620285e-03,-4.710740223526954651e-02,2.943800296634435654e-03,2.736360207200050354e-02,-3.323727846145629883e-02,-2.891800366342067719e-02,-4.853244870901107788e-02,2.378946729004383087e-02,-3.989194706082344055e-02,5.939252208918333054e-03,-3.722689673304557800e-02,1.630409061908721924e-02,-1.592552103102207184e-02,-1.066285651177167892e-02,-1.847701705992221832e-02,-8.003892377018928528e-03,-5.640282761305570602e-04,-2.451319806277751923e-02,-2.210308797657489777e-03,2.741788513958454132e-02,-3.553988412022590637e-02,-1.613911241292953491e-03,-3.577963262796401978e-02,2.881048992276191711e-02,-1.080330461263656616e-03,-2.027068473398685455e-02,1.722161658108234406e-02,2.013123407959938049e-02,1.916677877306938171e-02,-3.983787819743156433e-02,3.144000470638275146e-02,-3.613171400502324104e-03,-3.007823601365089417e-02,2.330792322754859924e-02,-2.150770276784896851e-03,2.302925847470760345e-02,-1.039146818220615387e-02,9.382840245962142944e-03,-3.674826398491859436e-02,-2.338277362287044525e-02,-3.562121093273162842e-02,-1.117412652820348740e-02,-3.508049249649047852e-02,-4.141882434487342834e-02,1.303957495838403702e-02,-1.985412091016769409e-03,-3.085983917117118835e-02,-4.526040330529212952e-02,-1.287660654634237289e-02,-2.716428413987159729e-02,8.905353024601936340e-03,-1.085584424436092377e-02,-1.515094563364982605e-02,-4.674076288938522339e-02,1.695224829018115997e-02,-1.936589367687702179e-02,-2.981978282332420349e-02},

{-3.219601139426231384e-02,-4.165183380246162415e-02,1.281343214213848114e-02,-1.244522351771593094e-02,-6.005693692713975906e-03,2.643560990691184998e-02,-2.155832760035991669e-02,1.714841648936271667e-02,-5.487135052680969238e-02,-3.297566995024681091e-02,1.352142635732889175e-02,7.266659289598464966e-02,-4.018903151154518127e-02,-5.311229079961776733e-02,-1.094479765743017197e-02,-2.785268798470497131e-02,1.156726852059364319e-02,2.013110928237438202e-02,9.105952456593513489e-03,8.842012844979763031e-03,2.493388205766677856e-02,-4.319865722209215164e-03,3.521169302985072136e-03,2.542078495025634766e-02,1.548227388411760330e-02,8.966409601271152496e-03,-4.012963548302650452e-02,-4.034852236509323120e-02,5.789128318428993225e-02,4.836030304431915283e-02,-3.759526833891868591e-02,-3.010011836886405945e-02,2.314105257391929626e-02,3.408322855830192566e-02,1.105365902185440063e-02,-1.756956567987799644e-03,-3.116173669695854187e-02,1.812875084578990936e-02,-9.297840297222137451e-03,4.624905704986304045e-04,2.559832297265529633e-02,8.015665411949157715e-02,-2.119127847254276276e-02,-1.798485405743122101e-02,4.883585497736930847e-02,3.132253512740135193e-02,3.471454232931137085e-02,4.527859389781951904e-02,2.523233741521835327e-02,-1.033455319702625275e-02,-1.545823365449905396e-02,2.434027381241321564e-02,6.172753497958183289e-02,5.652952566742897034e-02,-1.204021740704774857e-02,-2.003983035683631897e-02,2.081485278904438019e-02,1.324864383786916733e-02,1.879761926829814911e-02,1.089583057910203934e-02,3.568230196833610535e-02,-1.987797021865844727e-02,3.979364037513732910e-02,4.002521932125091553e-02,8.030242472887039185e-02,8.424543589353561401e-02,-2.748992666602134705e-02,2.729432843625545502e-02,4.898525029420852661e-02,1.360651757568120956e-02,8.350794017314910889e-02,8.254610747098922729e-02,-1.659658923745155334e-02,3.299473598599433899e-02,1.673480868339538574e-02,5.589789152145385742e-02,5.283742770552635193e-02,3.410897403955459595e-02,2.323663793504238129e-02,7.515062391757965088e-02,1.912224106490612030e-02,6.886173039674758911e-02,9.782078862190246582e-02,9.145218878984451294e-02,6.936587858945131302e-03,6.673658639192581177e-02,1.652429625391960144e-02,7.761920988559722900e-02,6.647974997758865356e-02,8.426175266504287720e-02,2.885273657739162445e-02,3.815522044897079468e-02,7.931720465421676636e-02,8.299985527992248535e-02,7.783234119415283203e-02,6.332664191722869873e-02,4.032179713249206543e-02,7.947402447462081909e-02,9.947358816862106323e-02,6.909002363681793213e-02,4.154569655656814575e-02,6.614448875188827515e-02,3.609663248062133789e-02,4.932379722595214844e-02,5.110082030296325684e-02,3.993875905871391296e-02,2.574486844241619110e-02,8.156831562519073486e-02,-3.057129448279738426e-03,-6.086856871843338013e-02,1.865578233264386654e-03,-1.692842878401279449e-02,7.580126821994781494e-02,4.399757832288742065e-02,-3.176256641745567322e-02,-2.924320101737976074e-02,1.603771746158599854e-02,2.616048045456409454e-02,5.288892984390258789e-02,6.699583679437637329e-02,-4.372869059443473816e-02,-5.858187004923820496e-02,-6.757640745490789413e-03,1.900731213390827179e-02,6.426886469125747681e-02,5.656602978706359863e-02,-3.794850409030914307e-02,5.676537752151489258e-03,2.590839192271232605e-02,-9.567010216414928436e-03,6.554786115884780884e-02,3.322746232151985168e-02,-4.349926486611366272e-03,3.090023249387741089e-02,2.580454759299755096e-02,6.675563007593154907e-02,4.956031683832406998e-03,5.515975505113601685e-02,-9.034263784997165203e-04,-1.731242612004280090e-02,3.822768479585647583e-02,6.672412902116775513e-02,4.130441229790449142e-03,8.564434945583343506e-03,-3.289571031928062439e-02,-6.051262095570564270e-02,-2.926657162606716156e-02,-3.537577576935291290e-03,2.742803841829299927e-02,1.021585776470601559e-03,-3.937788680195808411e-02,-3.236929699778556824e-02,-5.727583914995193481e-02,1.304903347045183182e-02,-3.386498987674713135e-02,4.243171215057373047e-02,-2.786781825125217438e-02,-3.591918572783470154e-02,-1.203859597444534302e-02,-3.550401702523231506e-02,2.002524584531784058e-02,6.032072752714157104e-02,1.003226265311241150e-02,-5.238792300224304199e-02,-3.180801868438720703e-02,2.137077786028385162e-02,1.472626905888319016e-02,2.085855230689048767e-02,-2.341854013502597809e-02,-5.096533522009849548e-02,-1.190093439072370529e-02,2.700935117900371552e-02,4.381747543811798096e-02,5.834206193685531616e-02,-3.271163254976272583e-02,-3.140800446271896362e-02,-4.310734197497367859e-02,2.790184691548347473e-02,3.281554207205772400e-02,4.820775240659713745e-02,-1.510160136967897415e-02,1.157764997333288193e-02,-1.742412569001317024e-04,-2.184727787971496582e-02,2.034305222332477570e-02,-8.392789459321647882e-05,-1.046249177306890488e-02,-2.717604115605354309e-02,-3.120700828731060028e-02,-2.248963713645935059e-02,-4.563025385141372681e-02,9.051006287336349487e-03,-5.063505470752716064e-02,-1.614907383918762207e-02,-5.425950139760971069e-02,-3.364669159054756165e-02,5.937148258090019226e-02,3.155044466257095337e-02,-3.348614787682890892e-03,3.951854631304740906e-02,2.707885578274726868e-02,-5.592877510935068130e-03,4.421322047710418701e-02,1.549768820405006409e-02,-5.100655555725097656e-02,2.074493095278739929e-02,4.915012046694755554e-02,-6.462320219725370407e-03,4.685267060995101929e-02,6.118996813893318176e-02,-5.870145559310913086e-02,1.982642337679862976e-02,-2.772583067417144775e-02,6.890898570418357849e-03,2.496155351400375366e-02,4.680773988366127014e-02,7.508770562708377838e-03,-6.480435281991958618e-02,-5.698638502508401871e-03,-1.891467161476612091e-02,-3.754402324557304382e-02,6.176210008561611176e-03,-3.319139033555984497e-02,-1.714020781219005585e-02,7.024623919278383255e-03,5.974023137241601944e-03,-2.355250762775540352e-03,2.439959719777107239e-02,-5.615638941526412964e-02,4.506772093009203672e-04,-4.941618815064430237e-02,-1.297974213957786560e-02,1.897721365094184875e-02,-6.667296867817640305e-03,-8.392034098505973816e-03,-1.209206786006689072e-02,1.523468643426895142e-03,-9.707442484796047211e-03,7.466298993676900864e-03,4.535859823226928711e-02,1.049412135034799576e-02,1.287370454519987106e-02,-1.120804436504840851e-02,-1.002442743629217148e-02,2.555921114981174469e-02,1.720243506133556366e-02,-2.941274270415306091e-02,-5.602296814322471619e-02,1.723043969832360744e-03,5.075126420706510544e-03,-2.458404283970594406e-03,2.662736549973487854e-02,6.109066680073738098e-02,9.944593161344528198e-02,8.661062270402908325e-02,3.849559277296066284e-02,5.306868627667427063e-02,-1.144270785152912140e-02,7.440786808729171753e-02,1.473955810070037842e-01,9.038988500833511353e-02,5.524823442101478577e-02,8.573324978351593018e-02,4.064388485858216882e-05,8.893857151269912720e-02,1.354025602340698242e-01,1.220658347010612488e-01,8.597575128078460693e-02,1.145757883787155151e-01,2.978756837546825409e-02,1.244269311428070068e-01,1.622025668621063232e-01,1.192934513092041016e-01,7.238174974918365479e-02,1.028719320893287659e-01,9.687986969947814941e-02,1.271812170743942261e-01,1.388071328401565552e-01,1.501637846231460571e-01,8.995628356933593750e-02,6.636427342891693115e-02,7.840314507484436035e-02,1.053931117057800293e-01,1.498100608587265015e-01,1.424033343791961670e-01,1.165246069431304932e-01,1.251710951328277588e-01,8.920231461524963379e-02,-2.545517869293689728e-03,-9.025307372212409973e-03,-5.230815708637237549e-02,-3.964602481573820114e-03,5.953968316316604614e-02,3.068713098764419556e-02,6.213458254933357239e-03,7.084011449478566647e-04,-3.952671959996223450e-02,-1.223585475236177444e-02,6.318404525518417358e-02,2.634149976074695587e-02,2.342525497078895569e-02,-6.487232749350368977e-04,3.193020820617675781e-04,-4.461247008293867111e-03,6.583835184574127197e-02,4.417948052287101746e-02,-2.129684947431087494e-02,2.380474470555782318e-02,2.932076156139373779e-02,3.600446879863739014e-02,7.150229066610336304e-02,5.752765014767646790e-02,1.030271127820014954e-02,-7.275195326656103134e-03,-2.157016657292842865e-02,-5.790373776108026505e-03,2.156584523618221283e-02,2.477450761944055557e-03,-1.818422600626945496e-02,-1.300409436225891113e-02,3.266025334596633911e-02,6.278627365827560425e-02,2.824187651276588440e-02,4.218939691781997681e-02,-6.002412363886833191e-02,-2.226447872817516327e-02,1.838981732726097107e-02,2.421343885362148285e-02,1.333855278789997101e-02,-2.592639811336994171e-02,-1.783316396176815033e-02,-5.172276496887207031e-02,-1.220258697867393494e-02,-4.988546948879957199e-03,3.759728372097015381e-02,2.087254775688052177e-03,-4.558747634291648865e-02,8.225218392908573151e-03,2.159667387604713440e-02,-5.826895590871572495e-03,-1.081246603280305862e-02,7.260900456458330154e-04,1.978050358593463898e-02,-3.214258700609207153e-02,-4.391546919941902161e-02,-2.039854601025581360e-02,4.125418141484260559e-02,6.491751223802566528e-02,-2.077088132500648499e-02,-4.533413052558898926e-02,-1.830174773931503296e-02,-3.498280711937695742e-04,2.464802563190460205e-02,1.654076389968395233e-02,8.086245507001876831e-03,-5.767370015382766724e-02,-3.495681285858154297e-02,-1.730675809085369110e-02,3.390016034245491028e-02,5.448242649435997009e-02,-1.357895229011774063e-02,-2.593626454472541809e-02,-1.162169594317674637e-02,-1.948524382896721363e-03,4.882138594985008240e-02,5.811759456992149353e-02,8.786242105998098850e-04,3.161245211958885193e-02,-2.016415633261203766e-02,-2.884153649210929871e-02,1.081095729023218155e-02,3.504068031907081604e-02,-1.474172063171863556e-02,3.408270422369241714e-03,2.663172408938407898e-02,3.376616910099983215e-02,4.675539210438728333e-02,6.416396796703338623e-02,-1.698006130754947662e-02,2.077860012650489807e-02,-1.173973921686410904e-02,2.011584676802158356e-02,8.506105095148086548e-02,7.768642902374267578e-02,-5.989721976220607758e-03,2.645108476281166077e-02,5.809722468256950378e-03,7.901866734027862549e-02,3.617805242538452148e-02,5.578167736530303955e-03,-5.903150886297225952e-03,4.701431374996900558e-03,-7.607879117131233215e-03,6.226297840476036072e-02,7.132179290056228638e-02,2.282154373824596405e-02,-2.205734141170978546e-03,-5.880804732441902161e-02,-2.909541502594947815e-02,-6.569525576196610928e-04,7.062634918838739395e-03,3.300082683563232422e-02,-2.341083995997905731e-02,-5.002726987004280090e-02,5.473343655467033386e-03,-3.509899601340293884e-02,-7.464237511157989502e-03,4.579321295022964478e-02,2.508294768631458282e-03,-7.058744877576828003e-02,-6.460436433553695679e-02,8.828732185065746307e-03,-1.929386891424655914e-02,4.555957764387130737e-02,-6.911194324493408203e-02,6.282624322921037674e-03,-4.672404006123542786e-02,-2.591904439032077789e-02,4.380900785326957703e-02,4.147475585341453552e-03,9.234782308340072632e-03,7.078605238348245621e-03,9.777717292308807373e-03,1.001755613833665848e-02,1.153752487152814865e-02,5.535208806395530701e-02,-3.796550258994102478e-02,1.266706036403775215e-03,-5.804602056741714478e-02,-3.913460671901702881e-02,-1.752788014709949493e-02,3.826890885829925537e-02,1.932018436491489410e-02,1.136567164212465286e-02,6.025205552577972412e-02,2.403807640075683594e-02,4.259163141250610352e-02,4.768107086420059204e-02,2.894529025070369244e-04,6.081144511699676514e-02,8.323122560977935791e-02,6.358774751424789429e-02,7.900910824537277222e-02,5.693705007433891296e-02,5.744517222046852112e-02,9.087762981653213501e-02,1.053434833884239197e-01,9.970010071992874146e-02,5.774671211838722229e-02,2.242655865848064423e-02,5.586327984929084778e-02,6.139606982469558716e-02,5.555470287799835205e-02,6.876880675554275513e-02,2.736938744783401489e-02,1.234654616564512253e-02,3.355656936764717102e-02,3.688060864806175232e-02,7.419457286596298218e-02,6.846730411052703857e-02,4.113994911313056946e-02,5.925082787871360779e-02,1.515926327556371689e-02,7.025057822465896606e-02,1.258368045091629028e-01,8.916605263948440552e-02,5.017492175102233887e-02,6.812810897827148438e-02,-6.462946534156799316e-02,-5.504908040165901184e-02,-6.314080208539962769e-02,-2.884173393249511719e-02,-2.789623849093914032e-02,-1.330546382814645767e-02,-3.858125954866409302e-02,-4.318368434906005859e-02,-1.187872048467397690e-02,-9.243077598512172699e-03,-1.929077878594398499e-02,3.657028824090957642e-02,-5.819260329008102417e-02,-4.719755798578262329e-02,-6.610090285539627075e-02,-3.536422550678253174e-02,2.688325010240077972e-02,4.923044890165328979e-02,1.051747333258390427e-02,-1.085547078400850296e-02,-4.957064986228942871e-02,-2.055996563285589218e-03,5.144365504384040833e-02,-4.664071835577487946e-03,-4.442898184061050415e-02,-6.756924837827682495e-02,-1.760710217058658600e-02,-3.245851770043373108e-02,3.239703131839632988e-03,2.931369654834270477e-02,-1.519750896841287613e-02,-2.210687845945358276e-02,-3.070882894098758698e-02,1.552827004343271255e-02,-2.795716002583503723e-02,2.578000538051128387e-03,5.268899723887443542e-02,4.500078409910202026e-02,5.189911648631095886e-02,-1.217564381659030914e-02,1.259354036301374435e-02,1.134877857111860067e-05,-2.303528226912021637e-02,-3.359768912196159363e-02,5.046768486499786377e-02,3.919276595115661621e-02,5.880204215645790100e-02,-6.562430411577224731e-03,-9.798849932849407196e-03,-6.760668475180864334e-03,-3.162734443321824074e-03,-3.633971558883786201e-03,6.741375476121902466e-02,7.575536519289016724e-02,9.750816971063613892e-03,3.678930550813674927e-02,-1.057440042495727539e-02,9.477035142481327057e-03,7.469983398914337158e-02,2.606777288019657135e-02,4.284251108765602112e-02,1.824140734970569611e-02,1.185597386211156845e-02,2.279595099389553070e-02,6.169123947620391846e-02,2.901557646691799164e-02,2.370219491422176361e-02,2.135365270078182220e-02,5.464863032102584839e-02,-1.335592661052942276e-02,6.574852764606475830e-02,3.238650038838386536e-02,-4.440717026591300964e-02,5.134005099534988403e-02,6.841108202934265137e-02,9.101659990847110748e-03,8.829835802316665649e-02,5.954881757497787476e-02,4.096537455916404724e-02,5.276779644191265106e-03,2.230366505682468414e-02,2.637449838221073151e-02,3.014141693711280823e-02,7.713125646114349365e-02,-2.001139149069786072e-02,1.037331204861402512e-02,8.425556868314743042e-02,2.512009255588054657e-02,7.435836642980575562e-02,7.604581117630004883e-02,-1.661849953234195709e-02,6.823492050170898438e-02,6.263282895088195801e-02,2.966574579477310181e-02,2.047927305102348328e-02,5.011945217847824097e-02,-1.271958462893962860e-02,4.412396252155303955e-02,5.946209654211997986e-02,1.037847772240638733e-01,2.795194648206233978e-02,4.811646789312362671e-02,3.608655929565429688e-02,8.114714920520782471e-02,7.674883306026458740e-02,1.057684794068336487e-01,1.591311208903789520e-02,4.619466885924339294e-02},

{-2.630476281046867371e-02,9.835642762482166290e-03,-5.499924346804618835e-02,-2.946130000054836273e-02,2.965879067778587341e-02,5.406117439270019531e-02,6.480463780462741852e-03,-2.266574651002883911e-02,-3.573864698410034180e-02,2.749251388013362885e-02,-2.617689408361911774e-02,3.092015907168388367e-02,-6.300281267613172531e-03,-4.689981415867805481e-02,-5.537239462137222290e-02,2.154612727463245392e-02,-2.038132026791572571e-02,2.884967625141143799e-02,-1.369408145546913147e-02,-2.507489873096346855e-03,1.371521851979196072e-03,1.801633043214678764e-03,4.895379766821861267e-02,3.089872002601623535e-02,-1.660936884582042694e-02,-6.145330891013145447e-02,-3.391378745436668396e-02,7.413352839648723602e-03,3.487671166658401489e-02,3.000294091179966927e-03,-2.348273061215877533e-02,-4.088856221642345190e-04,-4.395137075334787369e-03,-3.952335193753242493e-02,3.712891042232513428e-02,3.597039729356765747e-02,4.382097162306308746e-03,4.707236215472221375e-02,4.663981869816780090e-02,4.973546601831912994e-03,2.699740789830684662e-02,1.915264315903186798e-02,5.666008964180946350e-02,-4.913940938422456384e-05,4.085249453783035278e-02,5.861536413431167603e-02,4.178714007139205933e-03,6.311983615159988403e-02,1.464495342224836349e-02,5.970897153019905090e-02,4.550942778587341309e-02,7.437255978584289551e-02,7.851872593164443970e-02,5.331686884164810181e-02,-7.178462576121091843e-03,1.210376434028148651e-02,3.563157841563224792e-02,3.730143606662750244e-02,4.826744273304939270e-02,6.517375260591506958e-02,3.300786390900611877e-02,-4.001400899142026901e-03,8.260853588581085205e-03,8.729215711355209351e-02,4.181516543030738831e-02,6.030956283211708069e-02,-7.927865721285343170e-03,3.530132398009300232e-02,5.512215197086334229e-02,7.420326024293899536e-02,6.153229624032974243e-02,8.634413778781890869e-02,-2.668312564492225647e-02,3.017654875293374062e-03,6.934671849012374878e-02,8.487288653850555420e-02,3.981159627437591553e-02,7.208799570798873901e-02,1.159114763140678406e-02,9.614322334527969360e-03,4.818797111511230469e-02,2.998626790940761566e-02,4.951313883066177368e-02,7.990699261426925659e-02,7.595130708068609238e-03,4.520201683044433594e-02,9.227101504802703857e-02,4.592281207442283630e-02,3.844457864761352539e-02,5.912401527166366577e-02,-1.163971982896327972e-02,9.143321216106414795e-02,6.641581654548645020e-02,5.098010972142219543e-02,7.984229177236557007e-02,7.952404767274856567e-02,4.784769564867019653e-02,3.894667327404022217e-02,1.202511936426162720e-01,3.119435347616672516e-02,2.415017597377300262e-02,6.699769943952560425e-02,-1.216862909495830536e-02,3.672996163368225098e-02,4.783662781119346619e-02,1.040385216474533081e-01,2.278412692248821259e-02,5.969873443245887756e-02,-4.727238789200782776e-02,-3.844762593507766724e-02,-1.174500863999128342e-02,-1.834028214216232300e-02,8.284279704093933105e-02,3.410422429442405701e-02,-3.391220234334468842e-03,8.036190643906593323e-03,-3.176108002662658691e-03,4.035746678709983826e-02,1.518852356821298599e-02,6.396616250276565552e-02,-5.570429190993309021e-02,-1.842088624835014343e-02,1.041566021740436554e-02,-7.259728386998176575e-03,7.008534669876098633e-02,4.942948371171951294e-02,1.080337166786193848e-02,1.407982222735881805e-02,3.420986235141754150e-02,-7.553070783615112305e-03,8.201533928513526917e-03,4.830745235085487366e-02,1.571705378592014313e-02,1.575483195483684540e-02,4.837002977728843689e-02,5.369027331471443176e-02,7.330488413572311401e-02,7.077147811651229858e-02,-1.282295305281877518e-02,1.628043688833713531e-02,3.806957509368658066e-03,5.068381875753402710e-02,1.709751039743423462e-02,1.782891340553760529e-02,-3.459971770644187927e-02,-5.774740129709243774e-02,1.169567368924617767e-02,-5.722386389970779419e-02,-2.146928571164608002e-02,-6.383895408362150192e-03,-5.220446735620498657e-02,-1.937135867774486542e-02,-2.254705689847469330e-02,-3.010893613100051880e-02,-4.391012713313102722e-02,2.300511859357357025e-02,-3.778856992721557617e-02,-5.376518890261650085e-02,2.823874587193131447e-03,3.041371935978531837e-03,7.457621395587921143e-03,3.901441767811775208e-02,-3.903228417038917542e-02,-2.795885689556598663e-02,1.056969352066516876e-02,8.950486779212951660e-03,1.536550000309944153e-02,3.054907172918319702e-02,-4.798495396971702576e-02,-2.057431451976299286e-02,9.740985929965972900e-03,-4.748932272195816040e-02,-2.186089009046554565e-02,1.231323927640914917e-02,-4.568494390696287155e-03,-1.140198786742985249e-03,-3.625043481588363647e-02,2.783746924251317978e-03,1.422276813536882401e-02,1.631589420139789581e-02,4.173900000751018524e-03,-1.620624586939811707e-02,-2.073608711361885071e-02,4.463664442300796509e-02,1.814635843038558960e-02,-2.566544525325298309e-02,-1.337922178208827972e-02,-1.842875219881534576e-02,2.160799456760287285e-03,2.927279099822044373e-02,-1.092068571597337723e-02,3.328692400828003883e-03,1.772712543606758118e-02,4.137558862566947937e-02,2.276149578392505646e-02,1.074404176324605942e-02,5.392106994986534119e-02,2.130977623164653778e-02,2.007003128528594971e-02,4.751002043485641479e-02,1.835133321583271027e-02,-6.454772781580686569e-03,7.679127156734466553e-02,7.657457888126373291e-02,-1.828254945576190948e-02,-3.291327878832817078e-02,4.846394807100296021e-02,5.681662634015083313e-02,6.415753066539764404e-02,2.640643343329429626e-02,-2.061660774052143097e-02,1.293895300477743149e-02,3.754551708698272705e-02,1.982551999390125275e-03,7.005058974027633667e-02,7.715679705142974854e-02,-1.402114890515804291e-02,-1.810123398900032043e-02,-6.790281832218170166e-02,-9.703158866614103317e-04,-3.026924841105937958e-02,-1.733182556927204132e-02,-6.783167272806167603e-02,-6.750645488500595093e-02,-2.315137907862663269e-02,-1.569851860404014587e-02,-1.253427658230066299e-02,2.977324649691581726e-02,-2.637026086449623108e-02,-8.303446695208549500e-03,-2.615067921578884125e-02,-2.206197939813137054e-03,8.746915496885776520e-03,-3.240064531564712524e-02,-5.268620327115058899e-02,-1.512980833649635315e-02,-6.326695438474416733e-03,-5.422527901828289032e-03,-3.715566545724868774e-02,3.474621474742889404e-02,6.573239224962890148e-04,-5.833171308040618896e-02,6.815404165536165237e-03,-4.894884303212165833e-02,2.285424433648586273e-02,-1.701455749571323395e-02,2.961898688226938248e-03,-5.001844838261604309e-02,-1.792426034808158875e-02,-5.458770692348480225e-02,-3.028676379472017288e-03,2.163986675441265106e-02,1.283593475818634033e-01,1.075080633163452148e-01,1.031296774744987488e-01,9.480874985456466675e-02,1.224752701818943024e-02,-3.793809097260236740e-03,1.434575021266937256e-01,1.493381261825561523e-01,1.335030496120452881e-01,1.176225021481513977e-01,8.358419686555862427e-02,6.589804589748382568e-02,9.348902851343154907e-02,7.135678082704544067e-02,1.058711260557174683e-01,7.238779217004776001e-02,6.869078427553176880e-02,7.957391440868377686e-02,8.367931097745895386e-02,1.360168308019638062e-01,9.633051604032516479e-02,1.063565462827682495e-01,1.440866738557815552e-01,3.165466338396072388e-02,1.277787387371063232e-01,1.711294353008270264e-01,1.155048087239265442e-01,1.209788024425506592e-01,9.194450080394744873e-02,7.849298417568206787e-02,1.058623790740966797e-01,1.204716935753822327e-01,8.889424800872802734e-02,1.258537024259567261e-01,9.930630773305892944e-02,9.484770148992538452e-02,-1.872083172202110291e-02,6.391623057425022125e-03,-4.890330135822296143e-02,-3.186710178852081299e-02,6.022081151604652405e-02,6.489507853984832764e-02,-1.520582195371389389e-02,-5.173233523964881897e-02,2.279189229011535645e-02,2.622524276375770569e-02,6.696816533803939819e-02,5.227703228592872620e-02,1.278508338145911694e-03,-1.827641203999519348e-02,-2.085408009588718414e-02,-1.788391172885894775e-02,-2.379090059548616409e-03,4.398222267627716064e-02,-3.904073382727801800e-04,-8.682037703692913055e-03,2.055781148374080658e-02,4.557043686509132385e-02,7.788328826427459717e-02,8.756432682275772095e-03,4.501695220824331045e-04,-6.845010444521903992e-03,-1.364888437092304230e-02,7.039322704076766968e-02,6.525835022330284119e-03,8.231662213802337646e-02,-5.614873394370079041e-02,-8.022198453545570374e-03,5.139639228582382202e-02,-7.113049272447824478e-03,7.166285812854766846e-02,5.862928181886672974e-02,-1.260267570614814758e-03,-3.836862742900848389e-02,-3.978966921567916870e-02,1.888255588710308075e-02,-8.406733162701129913e-03,1.467088516801595688e-02,-4.165548458695411682e-02,-4.474450647830963135e-02,-3.598910290747880936e-03,1.244807150214910507e-02,4.404845088720321655e-02,3.011305816471576691e-02,-3.384381998330354691e-03,-1.382613088935613632e-02,-3.176417574286460876e-02,-2.522140741348266602e-02,-7.113819010555744171e-03,1.472140103578567505e-02,-5.037884041666984558e-02,-5.356824770569801331e-02,6.488185375928878784e-03,-2.135971002280712128e-02,-6.969154812395572662e-03,5.911319330334663391e-02,-3.350074961781501770e-02,-1.647022180259227753e-02,-2.636738680303096771e-02,3.843891993165016174e-02,2.332530915737152100e-02,-1.111950632184743881e-02,-2.846123650670051575e-02,-2.581893233582377434e-03,1.584845781326293945e-02,-8.549996651709079742e-03,1.005311403423547745e-02,6.169657036662101746e-02,-1.158799231052398682e-02,3.379718214273452759e-02,-2.613230608403682709e-02,3.086362779140472412e-02,5.591068789362907410e-02,6.101094186305999756e-02,-7.235745433717966080e-03,-2.405739016830921173e-02,3.936282917857170105e-02,4.816757887601852417e-02,7.263430207967758179e-02,2.776373876258730888e-03,-8.757153525948524475e-03,-1.239792676642537117e-03,2.394783310592174530e-02,6.126761808991432190e-02,7.905446738004684448e-02,5.738519877195358276e-02,3.150632232427597046e-02,9.337381459772586823e-03,6.169624254107475281e-02,1.846931874752044678e-02,6.788413971662521362e-02,1.900193281471729279e-02,-1.722731813788414001e-02,-6.723268423229455948e-03,2.040893398225307465e-02,7.706115394830703735e-02,3.803896531462669373e-02,4.679651185870170593e-02,-1.317020598798990250e-02,6.500885938294231892e-04,6.428278237581253052e-02,1.119668222963809967e-02,4.171218350529670715e-02,4.306507483124732971e-02,-3.979928046464920044e-02,-5.488005466759204865e-03,-1.912678033113479614e-02,-1.874640583992004395e-02,2.816030988469719887e-03,-2.609110809862613678e-02,4.665213171392679214e-03,-1.104606315493583679e-03,-4.756816476583480835e-02,-2.611242607235908508e-02,-2.810588665306568146e-02,3.979036584496498108e-02,-4.626846313476562500e-02,-1.320668868720531464e-02,-1.602242514491081238e-02,-6.821515853516757488e-04,9.592050686478614807e-03,1.366330590099096298e-02,-4.763743653893470764e-02,-8.586046285927295685e-03,-1.421932363882660866e-03,-5.095265060663223267e-02,4.770991206169128418e-02,1.072456687688827515e-02,-6.595023907721042633e-03,-4.222261905670166016e-02,-6.408828310668468475e-03,2.234881557524204254e-02,-2.238015644252300262e-02,1.945856772363185883e-02,-3.436779603362083435e-02,-3.141385735943913460e-03,1.881589181721210480e-02,-2.092171274125576019e-02,-1.342778746038675308e-02,5.780087038874626160e-02,-8.524987846612930298e-03,3.614601865410804749e-02,8.974332362413406372e-02,8.104081451892852783e-02,1.048206537961959839e-02,7.845313102006912231e-02,2.640184387564659119e-02,1.081516221165657043e-01,3.299831598997116089e-02,7.813873142004013062e-02,1.772846095263957977e-02,7.860105484724044800e-02,7.240008562803268433e-02,7.701321691274642944e-02,7.700745761394500732e-02,5.999664217233657837e-02,1.587882265448570251e-02,6.192842125892639160e-02,4.934020712971687317e-02,8.381504565477371216e-02,8.871658891439437866e-02,5.565979331731796265e-02,1.099173203110694885e-01,2.968149818480014801e-02,-4.718061070889234543e-03,5.772992223501205444e-02,1.290604025125503540e-01,9.447564184665679932e-02,8.290685713291168213e-02,6.186876818537712097e-02,6.747573614120483398e-02,5.254131555557250977e-02,1.156902909278869629e-01,1.317835599184036255e-01,9.326998889446258545e-02,8.244080841541290283e-02,-5.801191926002502441e-02,1.032666582614183426e-02,1.669292896986007690e-02,-3.751575574278831482e-02,-6.567185744643211365e-03,6.265584379434585571e-02,-4.754858464002609253e-02,-5.702291056513786316e-02,-1.442419458180665970e-02,-2.096313983201980591e-03,2.838571183383464813e-02,7.422244548797607422e-02,-6.139073893427848816e-02,-3.290344029664993286e-02,-1.464948523789644241e-02,-1.088567078113555908e-02,2.041421364992856979e-03,3.458944335579872131e-02,-8.277017623186111450e-03,7.737410720437765121e-03,-4.391874745488166809e-02,-2.193185733631253242e-03,6.452526152133941650e-02,5.166565533727407455e-03,-5.774988606572151184e-02,-3.842459619045257568e-02,-5.532867088913917542e-02,-3.060693666338920593e-02,3.563533350825309753e-02,1.422656420618295670e-02,-6.097372248768806458e-02,-5.841204151511192322e-02,-5.927047133445739746e-02,4.175133071839809418e-03,-5.646109115332365036e-03,5.661046132445335388e-02,3.536413237452507019e-02,3.411500528454780579e-02,-5.626141093671321869e-03,-4.565846174955368042e-03,-1.913235709071159363e-02,1.466020755469799042e-02,4.615082964301109314e-02,4.010777175426483154e-02,1.801969297230243683e-02,1.626191893592476845e-03,-2.266614465042948723e-03,3.891750052571296692e-02,1.582956127822399139e-02,2.153399959206581116e-02,-6.228101439774036407e-03,6.136370077729225159e-02,2.818625234067440033e-02,6.828890740871429443e-02,-2.070911927148699760e-03,1.116845477372407913e-02,-1.551784761250019073e-02,2.462296932935714722e-02,7.942796498537063599e-02,7.833322882652282715e-02,6.777912843972444534e-03,7.215382065623998642e-04,3.167733550071716309e-02,3.858182206749916077e-02,1.329246256500482559e-02,4.152736067771911621e-02,1.165296416729688644e-02,-1.104075647890567780e-02,-5.003330763429403305e-03,6.464606523513793945e-02,2.037885785102844238e-02,6.445597857236862183e-02,2.070205844938755035e-02,1.300446223467588425e-02,8.310399204492568970e-02,2.952745929360389709e-02,9.022376686334609985e-02,7.186821848154067993e-02,-3.079598583281040192e-02,6.178238987922668457e-02,2.278886921703815460e-02,6.341040879487991333e-02,3.574666753411293030e-02,8.616402745246887207e-02,4.822606220841407776e-02,6.148796156048774719e-02,9.557494521141052246e-02,8.804285526275634766e-02,1.001204699277877808e-01,6.343235075473785400e-02,2.835560590028762817e-02,3.633704409003257751e-02,1.019395291805267334e-01,1.152156665921211243e-01,4.709698632359504700e-02,6.163944676518440247e-02,1.142614986747503281e-03,3.723724186420440674e-02,1.161731556057929993e-01,6.579297780990600586e-02,1.102170869708061218e-01,4.690314084291458130e-02,4.927541688084602356e-02,3.834683820605278015e-02,5.335469916462898254e-02,1.070552468299865723e-01,1.051250845193862915e-01,4.182622209191322327e-02},

