#ifndef __LENET5PARAMS_H
#define __LENET5PARAMS_H

#include "lenet5params.h"
//line 2 34 36 519 523 5267  5270  6357
float conv1Weight[6][1][5][5]=
    {{{{-0.2226,  0.0529,  0.1487,  0.3315,  0.3563},
          {-0.0156,  0.3049,  0.7541,  0.6867,  0.1962},
          { 0.3268,  0.8241,  1.2829,  1.0606,  0.4225},
          { 0.1453,  0.4932,  0.8188,  0.3983,  0.1792},
          { 0.1054,  0.1001,  0.0060,  0.1638,  0.3196}}},
        {{{-0.1762, -0.0349, -0.2242, -0.1630, -0.2077},
          { 0.1164, -0.1274, -0.2746, -0.0952, -0.1929},
          { 0.1434,  0.1049,  0.0296, -0.2584, -0.0534},
          { 0.0672, -0.0803,  0.0220,  0.0495,  0.3265},
          { 0.0721,  0.3181,  0.4029,  0.4338,  0.3019}}},
        {{{ 0.0068, -0.2220, -0.2157, -0.1916, -0.0797},
          {-0.0372, -0.2343, -0.1344, -0.0531,  0.3371},
          {-0.0671, -0.3184, -0.2005, -0.1226,  0.3714},
          {-0.1188, -0.2404, -0.1430,  0.2321,  0.5138},
          {-0.2127, -0.1058,  0.1992,  0.3318,  0.5281}}},
        {{{ 0.0744,  0.0291, -0.1226,  0.4211,  0.3617},
          {-0.0255, -0.2921,  0.1044,  0.4101,  0.2403},
          {-0.2551, -0.2536, -0.0891,  0.5576,  0.3389},
          {-0.3844, -0.2922,  0.3215,  0.3931,  0.2136},
          {-0.1176, -0.1853,  0.3940,  0.1574,  0.0208}}},
        {{{-0.2458, -0.1054, -0.1310, -0.0665, -0.0267},
          {-0.1611, -0.4122, -0.3815, -0.3004, -0.2540},
          {-0.0213,  0.0223, -0.1854, -0.0174, -0.1876},
          { 0.2949,  0.3840,  0.0774,  0.0060,  0.2116},
          { 0.0106,  0.0497,  0.4437,  0.3319,  0.2126}}},
        {{{-0.0126, -0.1510, -0.2767, -0.1762, -0.0462},
          { 0.1633, -0.3002, -0.2752,  0.1677,  0.4241},
          { 0.3388,  0.1280,  0.4953,  0.8687,  0.4564},
          { 0.7548,  0.8929,  1.2918,  1.2326,  0.3714},
          { 0.2993,  0.7582,  0.6694,  0.6096,  0.3851}}}};

float conv1Bias[] = {0.0008,  0.0582,  0.2318, -0.1020,  0.4341,  0.0044};

float conv2Weight[16][6][5][5] =
{{{{ 0.2049,  0.1333,  0.0830, -0.1611, -0.1702},
         {-0.0087,  0.0066, -0.1570, -0.3095, -0.1503},
         {-0.0408, -0.1019, -0.3004, -0.1869,  0.0190},
         { 0.0510, -0.0307, -0.0788,  0.0424,  0.1347},
         { 0.0142,  0.1755,  0.1007,  0.2238,  0.0940}},
        {{ 0.0584, -0.0303, -0.0703, -0.0688, -0.0778},
         {-0.0884,  0.0043, -0.0878,  0.0194,  0.0818},
         {-0.0442,  0.0079, -0.0623,  0.1182,  0.0600},
         {-0.0316,  0.0963,  0.0806,  0.0092, -0.0116},
         { 0.0421,  0.0972, -0.0465, -0.0025, -0.0246}},
        {{ 0.0987,  0.0639, -0.0412, -0.0099,  0.0512},
         {-0.0161, -0.0580, -0.0451,  0.0115,  0.0735},
         { 0.0963, -0.0695, -0.0710,  0.1009,  0.0899},
         {-0.0165,  0.0761,  0.0259,  0.0173,  0.0162},
         { 0.1064,  0.0172,  0.0268,  0.0124, -0.1016}},
        {{-0.0123,  0.1392,  0.0288, -0.0995, -0.0272},
         { 0.1446,  0.0814, -0.0159, -0.1027,  0.0717},
         {-0.0499, -0.0457, -0.1246,  0.0351,  0.1150},
         { 0.0150,  0.0094,  0.0051,  0.0057, -0.0409},
         {-0.0032, -0.0502,  0.0237,  0.0128,  0.0419}},
        {{-0.1161, -0.1142, -0.0937, -0.1015, -0.0181},
         {-0.0869,  0.0275, -0.0886, -0.0907,  0.0479},
         {-0.0268,  0.0105, -0.0432, -0.0289, -0.0194},
         { 0.0005,  0.0525,  0.0099,  0.0965, -0.0619},
         {-0.0674, -0.0248, -0.0421, -0.0015,  0.0055}},
        {{ 0.1320,  0.0766, -0.0575, -0.2030, -0.2734},
         { 0.0006, -0.0539, -0.2753, -0.3622, -0.1532},
         {-0.0774, -0.1796, -0.3187, -0.0791,  0.1972},
         { 0.1149,  0.0674,  0.0510,  0.1611,  0.1887},
         { 0.0051,  0.1118,  0.0546,  0.1711,  0.0080}}},
{{{-0.0936,  0.0278, -0.0876, -0.0173,  0.0927},
         { 0.0163, -0.2182, -0.2600,  0.2745,  0.1894},
         {-0.2607, -0.0703,  0.2382,  0.3094, -0.1448},
         {-0.0507,  0.1372,  0.3078, -0.1826, -0.3722},
         { 0.0659,  0.1079, -0.1413, -0.0926, -0.1496}},
        {{-0.0266,  0.0156,  0.0094, -0.0222, -0.0065},
         {-0.0544, -0.0781,  0.0676, -0.0802, -0.0066},
         {-0.0904,  0.1554, -0.0352, -0.1426, -0.1283},
         { 0.0388,  0.0480, -0.0587,  0.0577,  0.0400},
         {-0.0421, -0.1148, -0.0309,  0.0219, -0.0318}},
        {{-0.0367, -0.0855, -0.0059,  0.0535,  0.0637},
         {-0.0468,  0.0234,  0.2583,  0.0472, -0.0077},
         {-0.0116,  0.2006,  0.1726,  0.0252, -0.0436},
         { 0.1831,  0.0590, -0.0017, -0.0037,  0.0027},
         { 0.1354, -0.1428, -0.0262, -0.1040, -0.0932}},
        {{-0.0010, -0.0974, -0.0736,  0.1759,  0.1159},
         { 0.0026, -0.0389,  0.1322,  0.1926, -0.0015},
         {-0.0075,  0.0430,  0.2183,  0.0704, -0.0460},
         { 0.0386,  0.1569,  0.0478, -0.0820, -0.0588},
         { 0.1355,  0.0071, -0.0094, -0.0484, -0.0414}},
        {{-0.0321,  0.0021, -0.0277, -0.0193, -0.0739},
         {-0.0921,  0.0702,  0.0386, -0.0258, -0.1404},
         { 0.0033, -0.0362, -0.0123, -0.1163, -0.0107},
         {-0.0245, -0.1552, -0.0837, -0.1388,  0.0742},
         {-0.0350, -0.1603,  0.0073, -0.0389, -0.0116}},
        {{ 0.0257, -0.2262, -0.1832,  0.0678,  0.2362},
         {-0.0736, -0.3427,  0.1884,  0.3740,  0.0014},
         {-0.1897,  0.2069,  0.4794, -0.0154, -0.3937},
         { 0.0312,  0.2206,  0.0127, -0.2431, -0.1655},
         {-0.0055, -0.0750, -0.1494, -0.0270, -0.0574}}},
{{{ 0.0254, -0.0796, -0.0453, -0.0297,  0.0507},
         {-0.0800, -0.0337,  0.0042,  0.0620,  0.0138},
         { 0.0246,  0.0757, -0.0644, -0.0524, -0.0614},
         { 0.0197,  0.0137,  0.0531, -0.0073, -0.0582},
         {-0.0458, -0.0062,  0.0391,  0.0604, -0.0470}},
        {{-0.0093,  0.0669,  0.0496,  0.0567, -0.0666},
         { 0.0534, -0.0187,  0.0425, -0.0267,  0.0580},
         {-0.0239,  0.0589, -0.0357, -0.0149, -0.0449},
         { 0.0674,  0.0785, -0.0741,  0.0117,  0.0747},
         { 0.0183,  0.0091,  0.0120, -0.0161,  0.0243}},
        {{ 0.0783, -0.0048, -0.0157, -0.0081, -0.0135},
         {-0.0765, -0.0602,  0.0250,  0.0622,  0.0656},
         {-0.0144, -0.0193,  0.0373, -0.0514,  0.0185},
         { 0.0640,  0.0736,  0.0538,  0.0111, -0.0654},
         { 0.0594, -0.0154, -0.0311, -0.0228, -0.0709}},
        {{-0.0128,  0.0462,  0.0316,  0.0725, -0.0232},
         { 0.0239, -0.0011, -0.0540,  0.0176, -0.0408},
         { 0.0527, -0.0672, -0.0638, -0.0089,  0.0339},
         {-0.0466, -0.0160, -0.0377,  0.0529, -0.0299},
         { 0.0139,  0.0706, -0.0535, -0.0405, -0.0532}},
        {{ 0.0707,  0.0708, -0.0710,  0.0499,  0.0247},
         { 0.0226, -0.0852,  0.0488, -0.0141, -0.0593},
         { 0.0299, -0.0697,  0.0076, -0.0574,  0.0448},
         {-0.0442,  0.0060, -0.0839,  0.0591,  0.0530},
         {-0.0380,  0.0471, -0.0449, -0.0423, -0.0422}},
        {{ 0.0045, -0.0705,  0.0401, -0.0654, -0.0535},
         {-0.0341, -0.0053,  0.0291, -0.0392, -0.0514},
         {-0.0766, -0.0009, -0.0665,  0.0771, -0.0824},
         { 0.0536, -0.0490,  0.0578, -0.0444, -0.0351},
         {-0.0368, -0.0221, -0.0710,  0.0070, -0.0607}}},
{{{-1.5134e-01, -2.1537e-01,  5.3192e-02,  4.0307e-02,  1.0298e-01},
         {-5.8749e-02,  1.2809e-01, -3.5390e-02, -2.5925e-01, -2.8270e-01},
         { 8.1730e-02,  1.8361e-01,  7.0025e-02,  1.3645e-01,  1.0195e-01},
         {-1.2446e-01,  2.1421e-01,  1.7377e-01,  3.1546e-01,  5.1185e-03},
         {-2.1679e-01, -2.1235e-01, -2.1044e-01, -2.8878e-01, -9.1036e-02}},
        {{-5.7019e-02,  1.9473e-02, -9.9810e-03, -2.4756e-02, -6.5240e-02},
         {-6.5303e-02, -6.3232e-02,  7.4643e-02,  1.0965e-01,  1.7085e-02},
         {-4.1564e-02,  2.1041e-02,  1.8154e-01,  1.5227e-01,  9.1233e-02},
         {-6.6316e-02, -2.7188e-02, -3.9836e-02, -4.7263e-02,  1.6238e-02},
         {-3.9653e-02,  6.7653e-02,  6.1217e-02,  1.0728e-01,  5.5730e-02}},
        {{ 1.3242e-01,  5.2093e-02,  4.0508e-02, -4.3335e-02, -9.7755e-02},
         { 1.5306e-01,  4.0780e-03, -7.2922e-02,  3.1065e-02, -1.6480e-02},
         { 1.9259e-02, -2.4176e-02, -5.3116e-02, -8.7585e-02, -4.2246e-02},
         {-2.3118e-02, -1.9500e-01, -1.4087e-01, -1.4247e-01, -7.6799e-02},
         {-1.3847e-01, -1.1835e-01, -1.0264e-01,  3.3872e-02,  3.8147e-03}},
        {{ 6.9924e-02,  1.1658e-01,  7.9781e-02,  3.6055e-03,  7.2220e-02},
         { 6.5221e-02,  1.4206e-01, -2.3905e-02,  8.3293e-03, -1.2459e-02},
         { 2.0083e-02, -1.2603e-02, -1.6626e-01,  1.7751e-02, -1.0580e-01},
         { 1.0947e-01, -5.8056e-02, -1.3763e-01, -9.4138e-02, -1.9234e-02},
         {-8.7955e-02, -1.7920e-02, -8.0945e-02, -3.3644e-02, -4.4204e-03}},
        {{-5.1393e-02, -6.3623e-02, -1.0835e-01,  3.1408e-02,  5.4220e-02},
         {-1.3942e-02, -7.7253e-02, -1.0991e-01,  2.1863e-02, -7.7683e-02},
         {-5.7275e-02, -1.0043e-01,  3.3043e-02,  8.4875e-02,  9.3168e-02},
         {-2.7181e-02, -9.4502e-02,  1.2559e-02, -8.4227e-02, -1.0637e-01},
         { 8.2419e-02,  8.8169e-02, -3.2968e-04,  9.1896e-02,  5.0057e-02}},
        {{-2.3162e-01,  2.9760e-02, -5.1421e-02, -5.9164e-03, -1.1325e-02},
         { 1.2718e-01,  1.2988e-01, -2.0474e-01, -1.0021e-01, -1.7006e-01},
         { 1.0716e-01,  7.9339e-02,  4.5781e-01,  6.3353e-01,  2.6199e-01},
         {-1.4882e-01, -2.5300e-02,  4.6299e-02,  3.3431e-02, -4.6742e-02},
         {-1.1582e-01, -2.8251e-01, -2.5884e-01, -1.4036e-01, -5.3138e-02}}},
{{{ 0.0104, -0.1700, -0.1007,  0.0881,  0.0323},
         {-0.0363,  0.0654,  0.0840, -0.0214, -0.0042},
         { 0.1024,  0.2758,  0.0587, -0.2311, -0.1488},
         { 0.2052,  0.1135, -0.3652, -0.1548,  0.0258},
         { 0.0282, -0.1965, -0.1453,  0.1365,  0.0980}},
        {{-0.0560, -0.0699,  0.0299, -0.0166, -0.0297},
         { 0.0488,  0.0261, -0.0935, -0.0333, -0.0327},
         { 0.0082, -0.1215,  0.0423,  0.0145,  0.0046},
         {-0.0776, -0.0548,  0.0729,  0.0020,  0.1046},
         {-0.0031,  0.0767,  0.0757,  0.0439, -0.0244}},
        {{-0.0541, -0.0256, -0.0028, -0.0282, -0.0294},
         {-0.0199,  0.1264,  0.0689,  0.0542, -0.0512},
         { 0.1764,  0.0499, -0.0183,  0.0481, -0.0218},
         {-0.0279,  0.0373,  0.0557,  0.0523, -0.0007},
         {-0.0042, -0.0155,  0.0709, -0.0125, -0.0927}},
        {{-0.0725,  0.0515,  0.0633, -0.0395, -0.0882},
         {-0.0473,  0.0976,  0.0472,  0.0804, -0.0254},
         { 0.1165,  0.0637, -0.0403, -0.0186, -0.0592},
         { 0.1609, -0.0272, -0.0975,  0.0780, -0.0157},
         { 0.1100, -0.1290,  0.0195,  0.0489, -0.0404}},
        {{-0.0735,  0.0098,  0.0275, -0.0360, -0.0668},
         {-0.1031, -0.0540,  0.0354, -0.0946,  0.0168},
         {-0.1207, -0.1197, -0.0187,  0.0229,  0.0135},
         {-0.0875, -0.0224, -0.0646,  0.1100, -0.0103},
         { 0.0092,  0.0293,  0.0789,  0.0466,  0.0114}},
        {{-0.0130, -0.0957,  0.0335,  0.1432,  0.1500},
         {-0.0673,  0.2006,  0.0293, -0.0479, -0.2763},
         { 0.2122,  0.1070, -0.1740, -0.3084, -0.1249},
         { 0.1520, -0.1957, -0.3261, -0.0179,  0.1194},
         {-0.0440, -0.0879,  0.1252,  0.1851,  0.1234}}},
{{{-3.5528e-02, -1.1446e-01, -2.7253e-01, -1.2018e-01,  1.9999e-01},
         { 5.2953e-02, -1.0070e-01, -3.0824e-01,  6.6984e-02,  1.8507e-01},
         { 1.0279e-01, -1.3153e-01, -2.0676e-01,  1.3985e-01,  1.5010e-01},
         { 7.1429e-02, -1.9692e-01,  1.1430e-02,  1.3052e-01,  3.6002e-02},
         { 2.1707e-02, -2.2623e-01,  5.7072e-02,  2.0564e-01,  1.5855e-02}},
        {{ 7.3398e-02, -7.8209e-02, -4.2009e-02, -7.7320e-02, -3.2043e-02},
         { 2.5212e-02, -2.3789e-02,  4.1780e-02,  5.9274e-02, -1.2180e-01},
         {-8.2814e-03, -7.0905e-02,  6.5370e-02, -3.3933e-02, -1.0692e-01},
         { 1.6364e-02,  2.6453e-02,  4.5872e-02,  2.2661e-02, -5.4825e-02},
         {-4.8911e-02, -4.1547e-02,  1.2760e-02, -4.8989e-02,  6.5347e-02}},
        {{ 5.7247e-02, -4.4923e-02, -8.0597e-02,  3.2130e-02,  7.9550e-02},
         { 1.3690e-02, -4.2742e-02, -1.1613e-02,  1.8230e-01, -3.9817e-02},
         { 5.1074e-02, -1.1126e-01,  1.3332e-01,  1.0661e-01, -6.1319e-02},
         {-8.7123e-03, -3.4383e-03,  5.9297e-02, -1.6971e-02, -6.8801e-02},
         {-3.9191e-02,  6.9393e-02,  9.6726e-03, -4.5696e-04,  1.1752e-02}},
        {{ 6.6856e-02, -5.8560e-02, -1.2479e-01,  2.9368e-02,  5.1602e-02},
         { 9.4635e-02, -2.5386e-02,  4.1947e-02,  5.3325e-02, -2.8005e-03},
         { 5.3951e-02, -1.2931e-01,  6.6876e-02,  7.3684e-02, -3.3148e-02},
         { 2.7185e-02, -1.2150e-01,  1.2286e-01,  1.2768e-01, -1.1165e-01},
         { 2.4509e-03, -8.3029e-02,  1.0668e-02,  3.4155e-02, -1.7322e-02}},
        {{-4.2044e-02,  4.8530e-02, -1.2109e-01,  1.1898e-02, -9.0495e-02},
         {-3.1501e-02,  6.0868e-02, -5.3869e-02,  4.8350e-02, -1.4145e-01},
         {-2.8786e-02, -3.8299e-03, -1.5982e-02, -6.8322e-02, -1.3559e-01},
         {-3.3580e-02, -2.1543e-02, -7.8873e-02, -1.2763e-01, -1.5027e-02},
         {-1.4705e-02, -6.7070e-02,  1.9570e-04, -1.1852e-01, -1.0586e-01}},
        {{ 2.9800e-02, -7.4556e-02, -3.0020e-01,  2.0597e-02,  2.4390e-01},
         { 1.1601e-01, -1.8255e-01, -2.3637e-01,  1.1556e-01,  1.7817e-01},
         { 1.7568e-01, -2.6249e-02,  5.6516e-02,  1.5467e-01,  4.1960e-02},
         { 3.6612e-02, -2.0352e-01, -6.7192e-02,  3.5073e-02, -7.4850e-02},
         {-1.4373e-02,  3.1983e-02,  5.9694e-02,  1.0937e-02, -6.3261e-02}}},
{{{-0.1232,  0.0794,  0.0315, -0.0923, -0.0936},
         {-0.0173, -0.1873, -0.1509, -0.0947, -0.1764},
         {-0.0162, -0.2393, -0.1068, -0.2726, -0.2589},
         { 0.0337,  0.2701,  0.1308, -0.0201, -0.1519},
         { 0.1066,  0.2838,  0.2366,  0.0661,  0.1444}},
        {{ 0.0909,  0.0350,  0.0637, -0.0467, -0.0086},
         { 0.0810,  0.0287,  0.0246,  0.0432, -0.0344},
         { 0.1475,  0.1533,  0.1017, -0.0195, -0.0630},
         { 0.0957,  0.0745,  0.1186,  0.1550,  0.0078},
         {-0.0485,  0.0222,  0.0376,  0.0245,  0.0669}},
        {{ 0.0991, -0.0044,  0.0028, -0.0554,  0.0568},
         {-0.0667,  0.0041, -0.0276,  0.0131, -0.0090},
         {-0.0790,  0.0612, -0.1192, -0.0140,  0.0244},
         {-0.0177,  0.0332, -0.0599, -0.0542, -0.0660},
         {-0.0642, -0.0781, -0.1128,  0.0009, -0.0266}},
        {{ 0.0216,  0.0022,  0.0139, -0.0604, -0.0028},
         {-0.0823, -0.0807,  0.0578, -0.1129, -0.0918},
         {-0.1662, -0.0418, -0.0309, -0.1943,  0.0203},
         {-0.0556,  0.0652, -0.0210, -0.0232, -0.0717},
         { 0.1269,  0.1208,  0.0901, -0.0091,  0.0318}},
        {{-0.0543, -0.0730, -0.0425, -0.0891,  0.0289},
         { 0.0403,  0.0396,  0.0111, -0.0202,  0.0196},
         { 0.0647,  0.0744,  0.1231,  0.0040,  0.0824},
         {-0.0153,  0.0145,  0.0147,  0.1509,  0.0953},
         {-0.0609, -0.0846, -0.0648,  0.0333,  0.0622}},
        {{-0.0295, -0.0696,  0.0105, -0.1289, -0.1370},
         { 0.0577, -0.1790, -0.2994, -0.3097, -0.0412},
         { 0.1042,  0.1077, -0.0300, -0.1211, -0.1924},
         { 0.2983,  0.4018,  0.3330,  0.2057,  0.1159},
         { 0.0671,  0.0816,  0.0169,  0.1180,  0.1799}}},
{{{-8.3741e-02, -3.1865e-02, -1.5144e-02, -1.6933e-01, -2.3352e-01},
         {-2.7262e-03,  4.1033e-02,  1.3933e-01,  9.4973e-02, -1.4496e-01},
         { 3.4193e-02, -1.3228e-01,  5.4063e-02,  7.1716e-02, -5.4768e-02},
         {-1.3582e-01, -2.9143e-01, -1.5110e-02,  3.2338e-01, -6.0325e-03},
         {-1.4898e-01, -1.9677e-01,  2.7003e-01,  2.2862e-01, -1.0463e-01}},
        {{ 8.6115e-02,  6.3575e-02, -1.1028e-03, -5.6317e-02, -8.2200e-02},
         { 1.4559e-02, -3.5203e-02, -9.5186e-02,  1.6817e-02,  5.1937e-02},
         {-2.9908e-02, -2.0607e-02, -6.2293e-02,  1.2540e-02, -3.2304e-02},
         {-8.1080e-03, -5.5391e-02, -7.4976e-03, -2.6804e-02, -8.4797e-02},
         {-4.7796e-02,  1.2082e-02, -3.7235e-02, -2.2684e-02, -3.5829e-02}},
        {{-4.4970e-02,  9.4903e-02,  3.2725e-02, -6.2380e-02, -3.2021e-02},
         { 6.1675e-02, -5.6510e-02,  2.3915e-02, -1.6310e-01, -5.5259e-02},
         {-1.3341e-02, -5.2698e-02,  7.6242e-02, -1.5740e-03, -9.4642e-02},
         {-7.2055e-03, -3.4201e-02,  1.6321e-01,  1.1411e-01, -7.3646e-02},
         { 2.3552e-02,  1.9859e-02,  4.3863e-02, -4.5893e-03, -9.5251e-02}},
        {{-1.0160e-01,  2.8493e-02, -4.0497e-02, -1.4655e-01,  3.1074e-02},
         {-2.9376e-02, -4.2965e-02,  8.9633e-02,  2.9479e-02, -7.1037e-02},
         {-5.6560e-03,  1.9213e-03,  1.6407e-01,  6.3756e-02, -6.8974e-02},
         {-7.8162e-02, -1.2669e-01,  1.5903e-01,  1.5920e-01, -1.3848e-01},
         {-2.8984e-02, -4.3770e-02,  1.4921e-01,  1.8170e-01, -4.6721e-03}},
        {{-6.0298e-02, -1.7387e-02,  7.4031e-02,  5.0484e-02, -3.2948e-02},
         { 2.3700e-02,  4.7328e-02, -7.4841e-02,  5.6635e-02,  1.8012e-02},
         { 3.2589e-02,  6.0444e-05, -4.1681e-02, -1.4468e-01, -9.2347e-02},
         { 8.4163e-02, -2.7951e-02, -9.7541e-02, -1.1449e-01, -1.8557e-02},
         { 1.6783e-02, -1.0603e-01, -7.7477e-02, -2.0341e-01, -5.3551e-02}},
        {{-1.1720e-01,  4.2149e-02,  1.9133e-01,  9.5689e-02, -2.1146e-01},
         {-1.8003e-02,  6.2825e-02,  1.0665e-01,  8.8444e-02,  3.8216e-02},
         { 1.5978e-02, -1.8339e-01, -8.0118e-02,  2.1325e-01,  4.7055e-02},
         {-9.8779e-02, -1.9272e-01,  2.4616e-01,  1.7387e-01, -1.2744e-01},
         {-4.9118e-02,  6.8796e-02,  1.1954e-01,  2.4533e-03, -1.1638e-01}}},
{{{ 0.0358,  0.1264,  0.0063, -0.1017,  0.0248},
         {-0.1450, -0.3146, -0.2160,  0.0710,  0.1068},
         {-0.0958,  0.1541,  0.3418,  0.3160,  0.0299},
         { 0.1825,  0.2515,  0.0894, -0.0612, -0.1422},
         {-0.1331, -0.2759, -0.3404, -0.1121, -0.0498}},
        {{-0.0185, -0.0908, -0.0552, -0.0957, -0.0180},
         {-0.0490,  0.0891,  0.1400,  0.0604, -0.0731},
         { 0.0624,  0.1495,  0.0085, -0.0112,  0.0391},
         {-0.0037, -0.0387,  0.0491, -0.0327, -0.0364},
         { 0.0507,  0.0822,  0.0686, -0.0135, -0.1242}},
        {{-0.1075, -0.1883, -0.1805, -0.0026,  0.0287},
         {-0.0322, -0.0063, -0.0269, -0.0876, -0.0293},
         { 0.1006,  0.0630, -0.0379, -0.1146, -0.0697},
         {-0.0154, -0.1781, -0.1147, -0.0907,  0.0425},
         {-0.0376, -0.1690,  0.0048, -0.0615, -0.0058}},
        {{ 0.0249,  0.0324,  0.0478,  0.0238,  0.0142},
         {-0.1131,  0.0780, -0.0378, -0.0070,  0.0591},
         {-0.0714,  0.0217, -0.1839, -0.1224,  0.0056},
         { 0.0219,  0.0264, -0.1003, -0.0339, -0.0342},
         { 0.0167, -0.1331, -0.0331,  0.0068,  0.0016}},
        {{ 0.0013,  0.0405, -0.0725, -0.0013, -0.0007},
         {-0.0778, -0.0777, -0.0565,  0.0146, -0.0471},
         { 0.0974,  0.1289,  0.0602,  0.0927,  0.0177},
         { 0.0014, -0.0996, -0.0747, -0.0372,  0.0086},
         { 0.0446,  0.0286,  0.0567, -0.0374, -0.0822}},
        {{-0.0324, -0.0626, -0.1849, -0.1454,  0.0836},
         {-0.1996, -0.0859,  0.1296,  0.2507,  0.1859},
         { 0.2225,  0.4975,  0.4745,  0.1706, -0.1192},
         { 0.1080,  0.0040, -0.3077, -0.2330, -0.0070},
         {-0.1452, -0.2340, -0.0342, -0.0376, -0.0721}}},
{{{-4.5430e-02, -8.2535e-02,  2.5754e-02, -1.6333e-02,  6.5582e-03},
         {-1.2604e-01,  1.1132e-01,  5.9755e-02, -2.3563e-02, -6.1473e-02},
         {-2.1470e-01,  2.5491e-01,  2.2657e-01, -2.1236e-01, -1.1440e-01},
         {-1.3703e-01,  3.0716e-01,  1.7075e-01, -1.7290e-01, -8.9204e-02},
         { 1.4131e-02,  1.8711e-01, -8.4458e-02, -1.4383e-01,  8.5285e-02}},
        {{ 9.2501e-02,  4.1333e-02, -4.1577e-02, -5.8053e-02, -7.3035e-02},
         { 5.8738e-02, -4.5078e-02,  4.5474e-02, -4.1166e-02, -3.4118e-03},
         { 3.7212e-03, -2.9559e-02,  4.1513e-03,  6.1432e-02,  5.4067e-02},
         { 5.1548e-02, -2.7799e-02, -3.5373e-02, -8.5214e-03,  2.0651e-02},
         { 2.7020e-02, -5.8246e-02,  1.7277e-02,  3.9671e-02, -1.7817e-02}},
        {{ 4.0116e-02,  4.6108e-02, -2.3817e-02, -9.1752e-03,  5.9150e-02},
         {-6.8996e-02,  6.3722e-02, -8.0930e-02,  1.1101e-02,  4.6083e-02},
         { 8.0696e-03,  1.0088e-01, -9.1231e-02,  4.7917e-02,  1.3947e-01},
         { 5.8499e-02,  1.2959e-01, -1.1951e-02, -2.1398e-02, -4.5445e-03},
         { 8.1446e-03,  1.9798e-04, -8.4442e-02,  6.7214e-02,  9.5354e-03}},
        {{ 2.1882e-02, -6.3408e-02,  8.4832e-02, -3.2214e-02,  2.0219e-02},
         {-5.3554e-02,  1.2203e-02,  6.7923e-02, -1.2966e-01,  9.3810e-02},
         { 6.8877e-02,  2.3681e-01,  8.8840e-02, -1.0075e-01,  9.0165e-02},
         { 9.4835e-02,  2.6240e-01,  2.8112e-02, -6.3693e-02,  1.0449e-01},
         { 7.5949e-02,  1.3651e-01, -5.5384e-02, -1.5069e-02,  2.0309e-02}},
        {{ 1.4949e-04,  7.6743e-02,  1.1400e-02, -7.4613e-02, -3.7960e-02},
         {-8.9568e-02,  4.6629e-02, -7.3979e-02, -1.0377e-01, -4.7958e-02},
         {-4.8583e-02, -5.4975e-02, -1.4932e-01, -1.0777e-01,  4.4938e-02},
         {-1.1793e-01, -1.6869e-01, -1.3290e-01,  2.4116e-02,  2.3322e-02},
         {-1.2547e-01, -4.1851e-02,  8.9091e-03,  1.6001e-02,  6.7775e-02}},
        {{-4.7375e-02,  2.1271e-02,  1.0694e-01, -6.1464e-02, -1.0213e-01},
         {-1.8050e-01,  1.7511e-01,  1.1793e-01, -1.1777e-01, -1.6198e-01},
         {-1.8851e-01,  2.9483e-01,  6.5090e-02, -3.4812e-01, -1.0217e-01},
         { 1.3126e-01,  2.6597e-01, -7.5535e-02, -2.3080e-01, -4.2072e-02},
         { 1.6883e-03,  8.0306e-02, -1.4977e-01, -1.5700e-01, -8.0865e-03}}},
{{{ 0.1079, -0.0227, -0.2464, -0.0799, -0.0610},
         { 0.1542, -0.0135, -0.0186,  0.1936,  0.2115},
         {-0.0066,  0.2087,  0.3246,  0.3012, -0.0148},
         {-0.1173, -0.1535, -0.4258, -0.3366, -0.0874},
         {-0.0383, -0.1537, -0.0557, -0.0082, -0.0338}},
        {{ 0.0624,  0.0497,  0.0243, -0.0162,  0.0050},
         { 0.0945,  0.1031,  0.0947,  0.0457,  0.0565},
         { 0.0558, -0.0270, -0.0503, -0.0041,  0.0786},
         { 0.1164,  0.0230,  0.1303,  0.0894,  0.0589},
         { 0.1068,  0.0243,  0.1386,  0.0216, -0.0644}},
        {{-0.0040, -0.0299, -0.0153,  0.0652, -0.0249},
         {-0.0074,  0.0539, -0.0274,  0.0197,  0.0250},
         {-0.0819, -0.0788, -0.1174, -0.1623, -0.0996},
         {-0.0445, -0.0632, -0.1596, -0.0651, -0.0137},
         {-0.0409,  0.0311,  0.0258, -0.0259,  0.0010}},
        {{-0.0459, -0.0796, -0.0047, -0.0902,  0.0186},
         { 0.0034, -0.0545, -0.1205, -0.1097, -0.1547},
         {-0.0243, -0.0572, -0.0958, -0.1934, -0.0333},
         {-0.1200, -0.0471, -0.1274, -0.0970, -0.0215},
         {-0.0671, -0.0163, -0.0776, -0.0958, -0.0268}},
        {{ 0.0516, -0.0610, -0.0163,  0.0121,  0.0421},
         { 0.0707,  0.1273,  0.1130,  0.0500,  0.0810},
         {-0.1009,  0.0541, -0.0562,  0.0501, -0.0854},
         { 0.0104, -0.0497,  0.0673,  0.0946,  0.0433},
         { 0.0328,  0.0499,  0.0183, -0.0328, -0.0331}},
        {{ 0.0958, -0.1287, -0.2653, -0.1522, -0.0285},
         { 0.1508,  0.3002,  0.5611,  0.5470,  0.2832},
         {-0.1093,  0.0625,  0.0168, -0.0429, -0.0892},
         {-0.0048, -0.3829, -0.3813, -0.1709,  0.1069},
         { 0.0191,  0.0872,  0.1211,  0.0860, -0.0212}}},
{{{ 4.6679e-02,  1.3291e-01,  3.4850e-02, -1.1851e-01, -1.0353e-01},
         { 8.0807e-05,  2.1867e-01,  3.2882e-01,  2.3142e-01,  2.1841e-01},
         {-1.9811e-01, -2.3516e-01, -8.8763e-02,  2.0084e-02, -1.8477e-02},
         {-1.6534e-01, -4.6080e-01, -4.1969e-01, -2.4140e-01, -1.3661e-01},
         { 1.4815e-01,  6.7942e-02,  1.3218e-01, -3.5611e-02, -8.5633e-02}},
        {{ 1.7879e-02,  1.8823e-02,  7.5910e-02,  3.2346e-02,  6.3436e-02},
         {-8.1135e-02,  6.4296e-02,  5.0670e-02, -1.7137e-02,  2.5122e-02},
         { 2.3958e-02, -1.1357e-01,  3.5009e-02,  1.2584e-02,  4.3939e-03},
         { 1.1592e-01,  1.4594e-01,  1.6942e-01,  5.2026e-02, -6.7133e-02},
         { 7.0277e-02,  1.4725e-01,  6.7501e-02, -5.5629e-03, -1.7733e-02}},
        {{-1.2708e-02,  5.1981e-02,  7.5983e-02,  3.4216e-03, -1.0258e-02},
         { 1.8143e-02, -3.9249e-02, -3.0266e-02, -4.5214e-02, -4.9839e-02},
         {-1.0574e-01, -1.2093e-01, -8.3092e-03, -2.8704e-02, -6.3534e-02},
         { 6.3607e-03,  3.2190e-02,  1.4892e-02,  8.0165e-02, -7.5808e-02},
         { 3.8568e-03,  1.2460e-01,  3.8411e-02, -2.5112e-02, -1.7867e-02}},
        {{ 7.5423e-03,  6.3969e-03, -7.1116e-02, -1.2892e-01, -4.8547e-02},
         { 8.7897e-02, -7.7113e-02, -4.3283e-02, -1.1088e-01, -1.0619e-01},
         {-3.4804e-02, -7.3910e-02, -1.8500e-02, -3.3648e-02,  6.4932e-02},
         {-1.9909e-01, -1.0722e-01, -1.6571e-01, -3.0021e-02,  2.9426e-02},
         {-5.4840e-02, -7.0813e-02, -7.9919e-02, -1.3362e-01, -1.1465e-01}},
        {{ 2.9433e-02,  4.2149e-02,  8.5018e-02,  9.1986e-02, -5.4582e-02},
         { 6.2294e-02,  7.2086e-02,  2.3468e-02,  1.3926e-02,  9.8637e-02},
         { 8.0042e-02,  8.5775e-02, -4.6462e-02, -2.5007e-02,  8.7149e-02},
         { 1.6516e-01,  1.1273e-01,  1.9851e-01,  8.8455e-02,  7.0228e-02},
         { 4.1709e-02,  9.6701e-02,  1.0388e-01,  4.4390e-02,  2.9249e-02}},
        {{ 3.4600e-02,  9.7057e-02,  1.9280e-01,  2.8417e-01,  2.7416e-02},
         {-1.1867e-01,  1.3104e-02,  1.7937e-01,  3.3139e-01,  2.4634e-01},
         {-1.5865e-01, -5.5408e-01, -4.2282e-01, -3.3719e-01,  1.9853e-02},
         { 1.2115e-01,  7.4725e-02, -7.6402e-02, -1.0175e-01, -3.7034e-02},
         { 2.5261e-01,  3.5486e-01,  1.5882e-01,  1.1227e-01, -6.5407e-02}}},
{{{-0.0252,  0.0184,  0.0087,  0.1002, -0.1374},
         {-0.0940,  0.0986,  0.1235,  0.0917, -0.0471},
         { 0.0541,  0.0667,  0.1034,  0.2704,  0.1400},
         {-0.0551, -0.1847, -0.1333,  0.0395,  0.1122},
         {-0.0515, -0.0882, -0.1257, -0.1231,  0.0614}},
        {{-0.0523, -0.0624, -0.0050,  0.0635,  0.0477},
         {-0.0173, -0.0496,  0.0571,  0.0215, -0.0320},
         { 0.0159, -0.0965, -0.0113,  0.0687, -0.0130},
         { 0.0479,  0.0591, -0.1165, -0.1348, -0.0842},
         { 0.0467,  0.0895,  0.0470,  0.0153, -0.0214}},
        {{-0.0312,  0.0566,  0.0697, -0.0475, -0.0597},
         { 0.0510,  0.0254, -0.0503, -0.1009, -0.1531},
         {-0.0852, -0.1329, -0.1400,  0.0022, -0.1068},
         {-0.0819, -0.1137, -0.1280,  0.0126, -0.0205},
         { 0.0792,  0.0207, -0.0085, -0.0575, -0.0609}},
        {{ 0.0817, -0.0789,  0.0591, -0.0117,  0.0268},
         { 0.0680,  0.0881, -0.1163, -0.0581, -0.0518},
         { 0.0757,  0.0560, -0.0146, -0.0297, -0.0903},
         {-0.0433, -0.0078,  0.0785,  0.0376, -0.0012},
         {-0.0280, -0.0948, -0.0293, -0.0304, -0.0441}},
        {{-0.0329, -0.1089,  0.0108, -0.0950, -0.0133},
         {-0.0021,  0.0145, -0.0740, -0.0083, -0.0957},
         { 0.0778, -0.0354, -0.0190, -0.0397, -0.0600},
         { 0.0704,  0.0954, -0.0511, -0.0893, -0.0810},
         { 0.0750,  0.0068,  0.1536,  0.1212,  0.0328}},
        {{-0.1448, -0.0531,  0.0436,  0.1231, -0.1778},
         { 0.0861,  0.2295,  0.1020,  0.1814,  0.0206},
         { 0.1003, -0.0696,  0.0013,  0.1364,  0.0539},
         {-0.1464, -0.2334, -0.2280, -0.1032,  0.0013},
         { 0.0255,  0.0647,  0.1141,  0.0670,  0.0328}}},
{{{-0.2247, -0.1592, -0.0668, -0.1177, -0.1183},
         {-0.1692, -0.2069, -0.1363, -0.1035, -0.0399},
         {-0.1087, -0.0537,  0.1948,  0.3350,  0.2297},
         {-0.0075,  0.1981,  0.2152,  0.0132, -0.0520},
         { 0.1445,  0.2530, -0.0737, -0.0702, -0.0435}},
        {{-0.0819,  0.0256, -0.0447,  0.0219,  0.0422},
         { 0.0176,  0.0341,  0.0824,  0.0095,  0.0847},
         {-0.0195,  0.0595, -0.0238,  0.0321, -0.0260},
         { 0.0790, -0.0659,  0.0053, -0.0550,  0.1010},
         {-0.1361, -0.0406, -0.0908,  0.0204,  0.0015}},
        {{-0.0756, -0.0698, -0.1451, -0.1500, -0.0286},
         { 0.0520, -0.0055,  0.0316,  0.0768,  0.0627},
         { 0.0771, -0.0310, -0.0418,  0.0392, -0.1118},
         { 0.0140, -0.0112, -0.0052, -0.0624, -0.1054},
         {-0.0166, -0.0917, -0.1326,  0.0274, -0.0985}},
        {{-0.1122, -0.0682, -0.0451, -0.1313, -0.0444},
         {-0.1294,  0.0101, -0.0931, -0.0609, -0.1197},
         {-0.0851, -0.1020, -0.1071, -0.0623, -0.0482},
         { 0.0773,  0.0327, -0.0475,  0.1337,  0.0846},
         { 0.0435,  0.0627,  0.0539, -0.0928,  0.1194}},
        {{-0.0296, -0.0833, -0.0264, -0.0053, -0.0665},
         { 0.0671,  0.0661,  0.1155,  0.0382,  0.1407},
         {-0.0588, -0.0261,  0.0779,  0.0279,  0.0786},
         { 0.0342, -0.0893, -0.1100, -0.0339, -0.0873},
         {-0.0589, -0.0937, -0.1766, -0.1380, -0.0914}},
        {{-0.2393, -0.1933, -0.0604, -0.2383, -0.1590},
         { 0.0540, -0.0898, -0.0291,  0.2014,  0.1562},
         { 0.0037,  0.1057,  0.2703,  0.2794,  0.0102},
         { 0.1652,  0.2499,  0.0890, -0.0745,  0.0336},
         { 0.0700,  0.0520, -0.0437, -0.1855, -0.1385}}},
{{{-7.8036e-02, -9.5901e-02,  7.0664e-02,  4.2534e-02, -1.4854e-01},
         {-1.4552e-01, -2.5483e-02,  8.4222e-02,  7.7646e-02, -2.4524e-01},
         {-1.9978e-01,  7.4654e-02,  3.8473e-01,  4.2713e-02, -2.4450e-01},
         {-9.1055e-02,  8.5915e-02,  3.9059e-01,  5.6179e-02, -1.7809e-01},
         {-3.3683e-01, -8.5180e-02,  3.5725e-01,  1.7678e-01,  5.9356e-02}},
        {{-4.4629e-02, -9.0477e-02,  1.6185e-02,  4.2206e-03, -5.4566e-02},
         {-6.7830e-02,  1.4778e-02, -1.1248e-01, -5.7233e-02, -1.0936e-01},
         {-1.5243e-02, -2.0499e-04, -6.2278e-02,  2.5056e-02, -1.3638e-02},
         { 2.5969e-02, -2.0568e-01, -1.1431e-01,  4.2002e-02,  1.2598e-01},
         {-8.6899e-02, -2.0161e-01, -1.4736e-01,  3.8240e-02, -2.3980e-02}},
        {{-3.6743e-02,  5.2483e-03,  1.3063e-01,  3.6715e-02,  7.5630e-02},
         { 6.3182e-02,  1.8502e-01,  1.7319e-01,  5.4710e-02,  2.8830e-02},
         {-8.2806e-02,  1.4417e-01,  5.8353e-02, -1.0861e-01, -6.3069e-02},
         {-7.9511e-03, -4.7971e-03, -3.6700e-02, -1.8756e-01, -8.8247e-02},
         {-3.5629e-02,  2.2224e-02, -1.6083e-01, -1.4054e-01, -7.5236e-03}},
        {{-1.0403e-01, -3.2131e-02,  5.0806e-02,  4.0470e-02, -2.8675e-02},
         {-1.2959e-01,  1.7156e-02,  8.2295e-02, -5.8494e-02,  5.2137e-02},
         {-6.1993e-02,  5.2128e-02,  5.5867e-02, -1.2958e-01,  5.3684e-03},
         {-1.4735e-01,  6.1911e-02,  1.4566e-01,  1.5699e-02, -1.0198e-02},
         {-5.0913e-02,  1.4815e-01,  2.4198e-02, -5.1259e-02, -1.5981e-01}},
        {{-8.1809e-02, -9.9068e-02, -4.3932e-02, -1.4979e-02, -5.3368e-03},
         {-7.0943e-02, -1.4115e-02, -6.7830e-02, -1.1126e-01, -5.1619e-02},
         {-2.2604e-03, -1.1860e-01, -1.5405e-01, -6.7760e-02, -3.4397e-02},
         { 7.1541e-02, -9.3684e-02, -2.2437e-01,  1.0019e-02, -3.9351e-02},
         {-4.2229e-02, -3.2038e-02, -1.2381e-01, -5.6299e-02,  6.2926e-02}},
        {{-1.0418e-01, -1.2581e-01, -3.8440e-02,  2.0220e-02, -1.3725e-01},
         {-3.9400e-01, -1.3306e-01,  2.3663e-01, -7.2707e-02, -2.9946e-01},
         {-1.3599e-01,  4.4922e-02,  1.4066e-01, -3.5863e-02, -1.3033e-01},
         {-2.2531e-01,  8.1317e-02,  1.5263e-01,  3.3973e-01,  2.2069e-01},
         {-3.7686e-01, -2.0894e-01, -3.0255e-02,  2.3108e-01,  8.3912e-02}}},
{{{ 0.0039,  0.1539,  0.1328,  0.0550, -0.0965},
         { 0.0500,  0.0375,  0.2216,  0.2576,  0.0367},
         {-0.1193, -0.2137, -0.2188,  0.1646,  0.2053},
         {-0.1996, -0.1681, -0.2440,  0.0816,  0.1671},
         {-0.1226, -0.1013, -0.1877,  0.0247,  0.0094}},
        {{ 0.0229,  0.0917,  0.1001,  0.1440,  0.0365},
         {-0.0775, -0.0051, -0.0347,  0.0146,  0.0968},
         {-0.0509,  0.0240, -0.0188, -0.0949, -0.0091},
         {-0.0408,  0.0836, -0.0510, -0.0962,  0.0416},
         { 0.0938,  0.0713, -0.0839, -0.0580, -0.1225}},
        {{ 0.0886, -0.0334,  0.0142,  0.0547, -0.0113},
         {-0.0894, -0.0599, -0.1173, -0.0751, -0.1766},
         { 0.0313, -0.1366, -0.0307,  0.0546, -0.0759},
         {-0.0443,  0.0005,  0.0383,  0.0024, -0.0220},
         {-0.0167, -0.0345, -0.0211,  0.0352, -0.0865}},
        {{-0.0092,  0.0740, -0.0157, -0.0386, -0.1220},
         { 0.0642,  0.0276,  0.0206,  0.0509, -0.0418},
         {-0.0368,  0.0194, -0.0517,  0.2038,  0.0522},
         { 0.0196,  0.0048, -0.0753,  0.0730,  0.1461},
         {-0.0991,  0.0381, -0.1490,  0.0268,  0.0829}},
        {{ 0.0074,  0.0050,  0.0911,  0.1181,  0.0356},
         { 0.0523, -0.0796, -0.0860, -0.0023, -0.0509},
         {-0.0604, -0.0668, -0.0897, -0.1498, -0.1063},
         {-0.0141,  0.0378,  0.0626, -0.0888, -0.0586},
         { 0.0363,  0.0597,  0.0392,  0.0244, -0.1187}},
        {{-0.0191,  0.2343,  0.2520,  0.2036,  0.0119},
         {-0.0507, -0.1245, -0.0884,  0.1950,  0.1720},
         {-0.0505, -0.2624, -0.1380,  0.0113,  0.1059},
         {-0.1371, -0.0482, -0.1189, -0.0584,  0.0115},
         { 0.0870, -0.0801, -0.1454, -0.0410, -0.1612}}}};


float conv2Bias[] ={-0.0020, -0.0981, -0.0743, -0.0284,  0.0251,  0.0450,  0.0163, -0.1260,
        -0.0617, -0.0747, -0.0111,  0.0522,  0.0505, -0.0844,  0.0464, -0.0015};


float conv2Wight[120][256]={
  { 0.0502,  0.0808, -0.0428,  0.0222, -0.0170, -0.0252,  0.0317, -0.0127,
         0.1063,  0.0145,  0.0778,  0.0991,  0.0736,  0.0123,  0.0502, -0.0435,
         0.0691,  0.0233, -0.0776, -0.0701,  0.0464,  0.0109, -0.0950, -0.1880,
        -0.0126,  0.0132,  0.0006, -0.0669, -0.0466,  0.0450,  0.0721,  0.0669,
        -0.0252, -0.0025,  0.0565, -0.0574, -0.0167, -0.0070, -0.0533, -0.0120,
        -0.0398, -0.0321,  0.0189,  0.0086, -0.0010,  0.0236, -0.0058, -0.0575,
        -0.0307,  0.0718,  0.0801,  0.0052,  0.0725,  0.0742,  0.0464, -0.0159,
         0.0177, -0.0837, -0.0074, -0.0370,  0.0128,  0.0377,  0.1275,  0.0278,
         0.0774,  0.0782, -0.0354, -0.1022,  0.0256,  0.0636,  0.0147, -0.0383,
        -0.0093, -0.0150,  0.0149,  0.0234, -0.0611, -0.0319, -0.0567,  0.0100,
         0.0095, -0.0781, -0.0735, -0.0334, -0.0991, -0.0837, -0.0756,  0.0542,
        -0.0856,  0.0485,  0.0623,  0.0200, -0.0580,  0.0028, -0.0005, -0.0215,
         0.0023, -0.0315, -0.0008,  0.0939,  0.0050,  0.0354, -0.0002, -0.0026,
         0.1022,  0.0638,  0.1005,  0.0664,  0.0717,  0.0228, -0.0321,  0.0745,
         0.0320, -0.0760, -0.0349, -0.0281,  0.0107,  0.0047,  0.0042,  0.0292,
        -0.0119, -0.0306,  0.0247,  0.0474,  0.0046, -0.0607,  0.0045,  0.0586,
         0.0075,  0.0251, -0.0255, -0.0627,  0.0873,  0.0256, -0.0797, -0.1209,
        -0.0026, -0.0584, -0.0194,  0.0112, -0.0114,  0.0703,  0.1007,  0.0440,
         0.1105,  0.0705, -0.0603, -0.0813, -0.0420,  0.0163, -0.0007,  0.0085,
         0.0340, -0.0509,  0.0748,  0.0378, -0.0657, -0.0741, -0.0478, -0.0525,
        -0.0035, -0.0126,  0.0003, -0.0248, -0.0197, -0.0093, -0.0016,  0.0316,
         0.0340, -0.0344, -0.0473, -0.0921, -0.0648, -0.0435,  0.0805,  0.0903,
        -0.0149,  0.0189,  0.0916,  0.0353, -0.0190, -0.0735, -0.0112,  0.0645,
        -0.1009, -0.0053, -0.0107,  0.0086, -0.0008, -0.0102, -0.0188,  0.0800,
        -0.0298, -0.0463,  0.0711,  0.0915, -0.0216, -0.0535,  0.0084, -0.0548,
        -0.0866, -0.0638, -0.0873, -0.0444, -0.0676, -0.0184, -0.0250, -0.0064,
         0.0126, -0.0152, -0.0839, -0.1283,  0.0486, -0.0278, -0.0524,  0.0463,
        -0.0449, -0.0012,  0.0057,  0.0751,  0.0074,  0.0803,  0.0415,  0.0952,
        -0.0092,  0.0424,  0.0283, -0.0426,  0.0247, -0.0319, -0.0377,  0.0306,
         0.0077, -0.0219,  0.0935,  0.0263, -0.0023, -0.0032,  0.0419,  0.0246,
         0.0537,  0.0305,  0.0203,  0.0824,  0.0212, -0.0162,  0.0084,  0.0092,
        -0.0924, -0.0182,  0.0091, -0.0157, -0.0540, -0.0810,  0.0396,  0.0470},
{-0.0148,  0.0356,  0.1533,  0.0133, -0.0918, -0.0156,  0.0270,  0.0565,
        -0.0263, -0.0383,  0.0532, -0.0066, -0.0279, -0.0241, -0.1014, -0.0011,
         0.1024,  0.1247,  0.0920,  0.0572, -0.0885, -0.0170,  0.0520,  0.0384,
         0.0172,  0.1525,  0.0054, -0.0742,  0.0417,  0.0055,  0.0020, -0.0138,
         0.0540,  0.0166,  0.0135, -0.0462, -0.0253,  0.0412, -0.0382, -0.0586,
         0.0533,  0.0585, -0.0277, -0.0214,  0.0358,  0.0057, -0.0240,  0.0540,
        -0.0790, -0.0588,  0.0167,  0.0864, -0.0519,  0.0297,  0.0274,  0.0404,
        -0.0918, -0.0202,  0.0259, -0.1174, -0.0963,  0.0773,  0.0165, -0.0126,
         0.0325,  0.0040, -0.0033,  0.0558, -0.0584,  0.0091,  0.0814, -0.0352,
        -0.0442,  0.0053,  0.0278, -0.0760, -0.0306, -0.0868,  0.0780, -0.0108,
         0.0831,  0.0857,  0.0453,  0.0953, -0.0354,  0.0005,  0.0333,  0.0396,
        -0.0107,  0.0843, -0.0695, -0.0085,  0.1057, -0.0632, -0.0690, -0.0037,
         0.0143, -0.0701,  0.0325, -0.0186, -0.0068, -0.0222,  0.0468,  0.0127,
        -0.0923, -0.0212,  0.0525,  0.0373, -0.0136, -0.0297,  0.0428, -0.0384,
        -0.0478, -0.0502, -0.0885,  0.0423, -0.0257,  0.0254, -0.0978, -0.0616,
         0.1322,  0.0435, -0.0244, -0.0015,  0.0619, -0.1063,  0.0053,  0.0411,
        -0.1329, -0.0685,  0.0177,  0.0465, -0.0272, -0.0773, -0.0292,  0.1569,
        -0.0258,  0.0002, -0.0023,  0.0732, -0.0757, -0.0568,  0.0580,  0.0526,
         0.0034,  0.0496, -0.0120,  0.0233, -0.0146,  0.0062, -0.0161, -0.0089,
        -0.0402,  0.0999, -0.0159, -0.1089, -0.0375, -0.0213,  0.0030, -0.0270,
         0.0185, -0.0309, -0.0478,  0.1364, -0.0399, -0.0447,  0.0163,  0.1068,
        -0.0266, -0.0173,  0.0603,  0.0034, -0.0703,  0.0512,  0.0511,  0.0335,
         0.0013, -0.0992, -0.0601,  0.1072, -0.0224,  0.0515, -0.0328,  0.0764,
         0.0769, -0.0608, -0.0141,  0.0245, -0.0086, -0.0100, -0.0617, -0.0108,
        -0.0008, -0.1123, -0.0712, -0.0168,  0.0679,  0.0034, -0.0634, -0.0281,
         0.0201, -0.0586, -0.0100, -0.0253,  0.0472, -0.0435,  0.0595,  0.0170,
         0.0565, -0.0715, -0.0273,  0.0121, -0.0531, -0.0683,  0.0687,  0.0988,
        -0.0424,  0.0839,  0.0225,  0.0399, -0.1224, -0.0576, -0.0201,  0.0049,
         0.0754,  0.0915, -0.0946,  0.0600,  0.0669, -0.0733,  0.0439,  0.0490,
        -0.0187,  0.0490, -0.0532, -0.0517,  0.0545,  0.0837,  0.0005, -0.0419,
         0.0249, -0.0285, -0.0274, -0.0080,  0.0531, -0.0611, -0.0553,  0.0160,
         0.0947,  0.0110, -0.0384,  0.0226, -0.0077, -0.1108, -0.0888,  0.0171},
{-0.0819,  0.0155, -0.0533, -0.0191, -0.0197, -0.0297, -0.0416,  0.0158,
        -0.0916, -0.0490, -0.0179, -0.0533,  0.0353,  0.0244,  0.0741, -0.0127,
        -0.0231, -0.0644,  0.0627,  0.0505, -0.0593, -0.0541, -0.0084,  0.0817,
        -0.1298, -0.0709, -0.0267,  0.0159,  0.0100,  0.0823,  0.1334,  0.0456,
         0.0556, -0.0159, -0.0318,  0.0386, -0.0168, -0.0321, -0.0495, -0.0120,
        -0.0303,  0.0076,  0.0007, -0.0088, -0.0576,  0.0179,  0.0485,  0.0575,
        -0.0331,  0.0015, -0.0568, -0.0158,  0.0215,  0.0962,  0.0889,  0.0048,
         0.0526,  0.0381, -0.0220, -0.0315,  0.0648,  0.0036, -0.0764,  0.0256,
         0.0222, -0.0123, -0.0888,  0.1514, -0.0271, -0.0191,  0.0307, -0.0023,
        -0.0194, -0.1025, -0.0054, -0.0171,  0.0615,  0.0561,  0.0554,  0.0039,
        -0.0681,  0.0630,  0.1253,  0.0448, -0.0080, -0.0490,  0.0456, -0.0517,
        -0.0579, -0.0337, -0.0469, -0.0501,  0.0445,  0.0181,  0.0256,  0.0127,
        -0.0605, -0.0373, -0.1311, -0.0985,  0.0377,  0.0803,  0.0933, -0.0210,
         0.0519,  0.0733, -0.0230, -0.0281,  0.1079,  0.0876,  0.0236, -0.1249,
         0.0381,  0.0158,  0.0787,  0.0666, -0.0011, -0.0902, -0.0158,  0.0024,
        -0.0273,  0.0091,  0.0609,  0.0771,  0.0937, -0.0059,  0.0274,  0.0117,
         0.0378,  0.0106, -0.0304,  0.0411,  0.0358, -0.0161,  0.0588, -0.0064,
        -0.1126, -0.1149,  0.0044,  0.0063,  0.0191,  0.0591,  0.0561,  0.0513,
        -0.0622, -0.0182,  0.0383, -0.0059, -0.0377, -0.0269, -0.0486,  0.0482,
        -0.0139,  0.0761,  0.0530,  0.0168, -0.0431, -0.0190,  0.0454, -0.0026,
         0.0772, -0.0419, -0.1225, -0.0035,  0.0554,  0.0024,  0.0368,  0.1013,
        -0.0115,  0.0544,  0.0690,  0.0676,  0.0773, -0.0197,  0.0033,  0.0052,
        -0.1096, -0.0085, -0.0641,  0.0315, -0.0078,  0.0226,  0.0469, -0.0585,
         0.2966,  0.1904, -0.0295, -0.0259,  0.0053, -0.0445,  0.0021,  0.0113,
        -0.0388, -0.0577, -0.0071, -0.0814,  0.0873, -0.0104,  0.0607,  0.0184,
         0.0804,  0.0494, -0.0162, -0.0444, -0.0823, -0.0794,  0.0054, -0.0322,
        -0.0722, -0.0841,  0.0166, -0.0730, -0.1032, -0.1165,  0.0406,  0.0168,
        -0.0971, -0.0965, -0.0244,  0.0304,  0.0230,  0.0718, -0.0108,  0.1100,
         0.0779,  0.0267,  0.0221, -0.0302,  0.1596,  0.1618, -0.0286, -0.0037,
        -0.0815, -0.1052,  0.0202, -0.0289,  0.0224, -0.0065, -0.0254, -0.0040,
        -0.0704, -0.0315,  0.0833,  0.0146,  0.1173, -0.0123, -0.0245, -0.0660,
         0.1241,  0.1162,  0.0506, -0.0250, -0.0953, -0.1551, -0.1366, -0.0254},
{-0.0531,  0.0556,  0.0301, -0.0546,  0.0140,  0.0083, -0.0674, -0.0617,
         0.0101,  0.0167,  0.0115,  0.0403, -0.0639,  0.0197, -0.0050,  0.0100,
        -0.0649,  0.0620, -0.0297, -0.0233, -0.0317, -0.0527, -0.0309,  0.0158,
        -0.0364,  0.0177, -0.0197,  0.0216,  0.0232,  0.0050, -0.0615, -0.0026,
        -0.0178, -0.0191,  0.0150,  0.0336, -0.0242,  0.0409,  0.0015, -0.0186,
        -0.0584, -0.0123, -0.0500, -0.0240,  0.0344,  0.0258, -0.0542, -0.0191,
        -0.0131, -0.0029,  0.0256,  0.0055,  0.0531, -0.0595, -0.0100,  0.0271,
        -0.0059,  0.0043,  0.0106,  0.0374,  0.0475, -0.0101, -0.0678, -0.0324,
        -0.0347,  0.0597,  0.0585, -0.0475,  0.0011,  0.0283,  0.0577,  0.0056,
         0.0195,  0.0511, -0.0044,  0.0634,  0.0377,  0.0209, -0.0529, -0.0301,
         0.0023, -0.0108,  0.0456,  0.0301,  0.0354, -0.0265,  0.0175,  0.0123,
        -0.0300,  0.0228, -0.0435, -0.0524,  0.0471,  0.0147, -0.0265, -0.0206,
         0.0626, -0.0258, -0.0403, -0.0522,  0.0046,  0.0215, -0.0070,  0.0017,
         0.0176,  0.0412,  0.0010, -0.0175, -0.0467,  0.0265, -0.0541, -0.0661,
        -0.0062,  0.0462,  0.0117, -0.0568, -0.0219,  0.0277, -0.0122,  0.0264,
         0.0307, -0.0601, -0.0064, -0.0326, -0.0459, -0.0453, -0.0351, -0.0268,
        -0.0523,  0.0267,  0.0399, -0.0073, -0.0180,  0.0136,  0.0125,  0.0121,
         0.0375,  0.0119,  0.0122, -0.0028,  0.0217,  0.0325,  0.0366,  0.0111,
         0.0509,  0.0304,  0.0357, -0.0539,  0.0095,  0.0208,  0.0024,  0.0577,
        -0.0408, -0.0594,  0.0678,  0.0110, -0.0361, -0.0439,  0.0640, -0.0553,
        -0.0175, -0.0518, -0.0593,  0.0502, -0.0064, -0.0037, -0.0644,  0.0153,
         0.0504, -0.0346, -0.0013,  0.0377,  0.0493, -0.0105,  0.0077,  0.0015,
         0.0203,  0.0526,  0.0159,  0.0384, -0.0570,  0.0246, -0.0234, -0.0603,
         0.0248,  0.0022, -0.0615, -0.0128,  0.0358,  0.0217, -0.0428, -0.0011,
         0.0178,  0.0544, -0.0584,  0.0348,  0.0383, -0.0687, -0.0566, -0.0572,
        -0.0067,  0.0544, -0.0079, -0.0333, -0.0583, -0.0356, -0.0027, -0.0002,
         0.0524, -0.0155,  0.0384, -0.0518, -0.0234, -0.0216,  0.0485,  0.0405,
        -0.0412, -0.0285,  0.0303, -0.0545,  0.0206, -0.0063,  0.0387,  0.0123,
         0.0018,  0.0462,  0.0101,  0.0189, -0.0018, -0.0310, -0.0456, -0.0496,
         0.0156, -0.0665, -0.0232,  0.0053,  0.0013,  0.0260, -0.0525,  0.0452,
        -0.0141, -0.0493, -0.0269, -0.0429,  0.0619,  0.0342,  0.0124, -0.0617,
        -0.0089,  0.0568,  0.0014,  0.0257, -0.0507, -0.0334, -0.0573, -0.0237},
{ 3.9299e-02, -1.5297e-02,  3.3975e-02, -1.3506e-02, -2.6591e-02,
        -2.9931e-02, -8.6120e-02, -1.1513e-02, -1.8825e-02, -7.2461e-04,
         3.4507e-03,  2.6834e-02,  2.9050e-02,  2.7825e-02,  5.4730e-02,
        -2.1034e-02, -3.8364e-03, -1.4480e-04,  5.4780e-02, -1.1900e-01,
         3.2020e-02,  8.8878e-02, -3.8418e-02, -1.8242e-02,  4.8394e-02,
        -9.7267e-03,  5.7665e-02,  1.1873e-01, -1.4195e-02,  3.5986e-02,
         1.3609e-02,  6.5040e-02,  4.3888e-02,  3.2941e-02, -3.2872e-02,
        -3.9423e-02,  4.0554e-02,  2.4172e-02,  2.1673e-02, -5.0137e-02,
         6.1312e-02, -1.8429e-02,  4.2182e-02, -3.3137e-02, -7.6497e-03,
         5.7607e-02, -4.4693e-02,  3.3379e-02, -8.1567e-03, -4.2530e-02,
         1.2445e-01, -8.6173e-03,  1.3274e-02,  2.5965e-02, -2.3699e-02,
        -4.3508e-02,  8.9307e-02, -2.7910e-02, -9.3382e-02,  4.3234e-02,
        -3.5333e-03, -4.2484e-02, -2.9328e-02, -2.3926e-03, -1.5327e-02,
        -3.8638e-02, -3.6076e-02, -9.3601e-03,  2.8617e-02,  2.4605e-02,
         3.8494e-02, -5.4114e-02,  4.7077e-02,  9.5279e-02, -6.0769e-04,
         4.0577e-02, -6.3630e-02,  1.3017e-01,  9.2179e-02, -5.6560e-03,
        -1.5830e-02,  1.6109e-02,  7.3827e-03, -8.0321e-02,  8.9378e-02,
         6.7222e-02, -4.2344e-02,  3.0482e-02,  4.8842e-02, -2.8936e-02,
         7.0838e-02,  8.7029e-02, -2.5309e-02, -1.7488e-03,  1.1488e-01,
        -2.6519e-02,  9.4107e-03, -2.8534e-02,  4.2240e-02, -2.3023e-02,
         2.7756e-02, -1.2789e-01, -1.6823e-01, -1.2712e-02, -1.9054e-02,
        -7.0195e-03, -1.0290e-01, -1.2195e-01,  2.4288e-02,  8.8388e-02,
        -5.1187e-02, -1.0650e-01,  5.9680e-02,  4.7624e-02,  9.5498e-02,
         1.5944e-02,  6.3564e-02, -4.3268e-02,  1.6915e-02,  6.1942e-02,
         1.5471e-02,  5.7199e-03,  7.0832e-02,  3.8508e-02,  8.9335e-03,
         2.9675e-02, -4.8379e-02, -7.3838e-02, -9.9323e-02, -7.1874e-02,
        -1.3332e-02,  9.3075e-02, -3.1102e-03, -1.2253e-01, -6.0328e-02,
        -9.8720e-02, -4.9202e-02, -2.0426e-02, -7.0927e-02, -3.6542e-02,
         5.3596e-03,  1.1843e-02,  7.9776e-02,  3.0785e-02,  4.4751e-02,
         4.2678e-02, -1.2386e-02,  4.3978e-03,  2.5688e-02,  1.0953e-01,
         8.9688e-02,  6.9716e-02,  6.3073e-02, -7.4851e-03,  8.0305e-02,
         4.3238e-02, -3.0114e-02,  4.6370e-02,  4.8432e-03,  3.5749e-02,
        -1.6538e-02,  9.7444e-04,  6.7039e-02,  8.7084e-02, -1.5447e-01,
        -1.1592e-01, -6.4894e-02,  1.0671e-04,  1.6623e-03, -1.4585e-01,
        -1.1997e-01,  6.3611e-03, -5.7886e-02, -1.3442e-02, -7.5927e-02,
        -2.2033e-02,  4.9671e-02, -1.1264e-02,  1.2535e-02, -2.3661e-02,
        -1.3393e-01, -1.0264e-01, -7.7101e-02, -6.1428e-02, -2.3829e-02,
         4.9231e-02,  3.9454e-02, -3.6578e-02,  1.8721e-02, -1.0187e-01,
        -8.8581e-03, -1.6252e-02, -3.4882e-02,  4.3444e-02, -4.0350e-03,
         1.9486e-02, -5.8426e-02,  3.6915e-02,  4.8621e-02, -1.3110e-02,
        -1.5740e-02, -5.0824e-02,  3.4465e-02,  3.1220e-02,  2.7097e-02,
         2.1135e-02, -9.2673e-02,  7.2747e-03, -1.0996e-02,  1.4187e-01,
         3.2806e-02,  7.1320e-02,  5.3603e-03,  4.5827e-02, -9.1723e-02,
        -7.1680e-02, -1.6623e-01, -1.3892e-02, -9.1973e-02, -1.5803e-02,
        -6.1247e-02, -4.2114e-02, -2.9248e-02, -2.2796e-02, -6.2655e-02,
        -9.8411e-02,  3.9810e-02,  7.4397e-03,  2.8143e-02,  4.0312e-02,
         2.9342e-02,  3.6647e-02,  1.0106e-01, -5.0190e-02, -5.6048e-02,
        -4.0043e-03,  5.5362e-03, -1.2965e-03, -1.4627e-02, -2.5506e-02,
        -1.0740e-02, -5.8961e-02,  5.7497e-02,  7.2224e-02, -5.5751e-02,
         1.5272e-02,  3.3191e-02,  9.2987e-02, -2.0261e-02, -1.8511e-02,
         9.3443e-03,  9.8985e-03,  2.4341e-02,  5.4019e-03, -9.0072e-02,
         3.5474e-02},
{ 3.9900e-02, -5.3999e-02, -3.1499e-02, -3.2070e-02,  1.4225e-02,
        -1.9318e-02,  4.2087e-02,  6.4312e-02, -1.4279e-02,  5.0149e-02,
         5.5492e-02,  2.7189e-02,  4.5050e-02,  2.5189e-02,  5.2761e-02,
        -5.3428e-02, -3.5231e-03, -1.0888e-02,  4.5083e-02,  5.6260e-02,
         6.4086e-02, -4.3005e-02,  1.1200e-02,  2.9403e-02, -2.8868e-02,
         3.0889e-02,  6.7735e-03, -1.9532e-02, -4.9297e-04,  8.3650e-03,
         8.2545e-02,  5.4251e-02, -4.2925e-02, -4.8041e-03,  1.4086e-02,
         3.4906e-02,  1.1494e-02, -5.8853e-02,  2.7480e-02,  1.4682e-02,
         7.2966e-04, -4.2089e-02,  3.5880e-02, -2.4503e-02,  3.4416e-02,
        -2.4474e-02,  5.3528e-02, -2.8278e-02, -2.2510e-02,  4.4243e-02,
         3.6928e-02,  3.0281e-02, -5.1502e-02,  3.7687e-02, -6.6914e-03,
         1.9970e-02, -3.3682e-02,  7.0049e-02, -3.0614e-02, -1.7639e-02,
        -6.1414e-02, -9.6374e-02, -5.4389e-02,  2.6442e-02, -3.8845e-02,
        -3.3720e-02,  3.6560e-02,  6.4685e-02, -1.1998e-02, -2.2710e-02,
         3.5093e-02, -4.1504e-02, -5.3665e-02, -1.1254e-02, -5.7759e-02,
         1.4945e-02,  5.5703e-02, -4.5490e-02,  4.8646e-02, -2.7175e-02,
        -3.3995e-02, -7.2701e-02, -3.0384e-02,  2.8860e-02, -1.6467e-02,
         4.0707e-02,  4.7368e-02, -2.1880e-02,  2.4313e-03, -6.8568e-02,
        -5.2788e-02, -2.6308e-02, -3.0719e-03,  9.1712e-05,  8.4977e-02,
        -3.9779e-02, -5.3620e-02, -1.1440e-02, -8.5561e-02, -2.5924e-02,
        -2.7277e-02,  4.9516e-02,  1.9959e-02, -4.8278e-02,  1.0587e-03,
        -4.4907e-02, -6.9075e-03, -3.0975e-03,  5.8074e-02, -2.6864e-02,
        -3.4501e-02,  6.6296e-02,  4.3269e-03,  1.2692e-02, -3.6760e-02,
        -3.7218e-02,  3.3790e-02, -4.8795e-02,  7.4752e-02, -3.1760e-02,
        -5.4832e-02,  4.2708e-02,  3.0033e-02, -2.4597e-03, -3.2439e-02,
         6.3333e-02,  1.7876e-02, -2.5348e-02, -5.0163e-03,  5.9251e-02,
        -4.8940e-03, -1.9242e-02,  1.0813e-02,  5.0024e-02, -3.1200e-02,
         7.3634e-03, -2.6110e-02,  5.1466e-02,  3.1954e-02, -8.1280e-02,
        -7.5435e-02, -6.1109e-02, -7.2811e-02,  2.3670e-02,  6.0728e-03,
         3.5472e-02,  2.0894e-02,  2.3543e-02, -3.5130e-02, -5.8436e-02,
        -1.3708e-03, -1.0457e-02,  1.1856e-02,  3.6655e-02,  7.4989e-03,
         4.1179e-02, -3.2516e-02, -6.9504e-02,  3.1013e-03,  3.6657e-02,
        -1.6142e-04,  3.8760e-02, -4.0004e-02,  2.5841e-02,  6.2797e-03,
        -4.6624e-02,  3.7051e-02,  3.0336e-02, -4.3331e-02,  4.7154e-02,
        -7.3683e-02, -2.9647e-02, -5.1771e-02, -3.5754e-02, -1.2539e-02,
         3.4603e-02,  3.4129e-03,  7.6650e-02,  6.9282e-02,  3.9684e-02,
         3.3684e-02,  5.9765e-02,  3.8835e-02, -2.0157e-02, -2.6223e-02,
         5.2039e-02,  6.6486e-03, -2.8192e-02, -4.7829e-02,  7.0593e-02,
        -5.4620e-02,  1.8852e-02,  5.7844e-02,  3.4124e-02,  7.3470e-02,
         2.2016e-02,  5.9664e-04, -6.6757e-03,  2.0901e-02, -4.8716e-02,
         5.4296e-02,  2.4550e-02, -6.2996e-02,  3.1935e-02, -7.7499e-02,
        -6.5954e-02, -4.5348e-02,  6.1290e-02, -4.3586e-02,  1.3151e-02,
         3.0483e-02,  8.2709e-03, -5.6001e-03, -6.5252e-02, -3.9236e-02,
        -2.9422e-02,  3.4353e-02, -2.9525e-03, -4.4624e-02, -5.3087e-02,
         4.9668e-02,  2.2549e-03, -1.1254e-02,  6.0111e-02, -6.4128e-02,
        -3.3362e-02, -8.0737e-03,  3.5496e-02,  8.5341e-03, -4.9060e-02,
         8.0270e-02, -3.1580e-02, -7.3561e-02, -1.3181e-03, -1.2624e-03,
        -2.9343e-02,  5.9289e-02, -1.3974e-02, -7.7164e-02,  1.8360e-02,
         3.9862e-02, -1.5776e-02, -1.3248e-02,  5.1925e-02, -2.2092e-02,
         8.3308e-03,  3.2170e-03, -1.5609e-02, -1.1899e-02, -4.0876e-02,
        -3.3026e-02,  1.4456e-02, -2.7275e-02,  1.9860e-02, -2.7135e-03,
        -3.3804e-02},
{ 0.0571,  0.0115, -0.0758, -0.0949,  0.0318,  0.0291,  0.0236, -0.0634,
        -0.0036,  0.0074,  0.0140, -0.0219,  0.0294, -0.0206,  0.0365,  0.0110,
        -0.0397,  0.0156,  0.1352, -0.0953,  0.0823,  0.0453,  0.0006, -0.1059,
        -0.0660, -0.0525,  0.0203,  0.0026, -0.0583,  0.0822,  0.0013, -0.1561,
        -0.0532, -0.0079,  0.0390, -0.0429, -0.0199, -0.0510,  0.0494,  0.0413,
         0.0231,  0.0244,  0.0168,  0.0452,  0.0245,  0.0384, -0.0454,  0.0123,
        -0.1891, -0.0915,  0.0351, -0.0383, -0.0475,  0.1949,  0.1318, -0.1028,
         0.1473,  0.0478, -0.0781, -0.0278,  0.1125, -0.1077, -0.1172,  0.0527,
         0.0430, -0.0189,  0.0586, -0.0595, -0.1115, -0.0585, -0.0277,  0.1152,
        -0.0245, -0.0113, -0.0759,  0.0511,  0.0306,  0.0424,  0.0055, -0.0379,
         0.0015,  0.0397, -0.1246, -0.0687, -0.0138,  0.0006,  0.0528, -0.0944,
        -0.1237,  0.0556,  0.1032,  0.0096, -0.0880,  0.0350,  0.0499, -0.1153,
        -0.0503, -0.0054,  0.0792,  0.1132,  0.0449,  0.0444, -0.0805, -0.0255,
        -0.0060, -0.0181, -0.1142, -0.0900,  0.0009,  0.0305, -0.0815,  0.0352,
         0.0918,  0.0678, -0.0716, -0.0295, -0.0527, -0.0473,  0.0736, -0.0252,
        -0.0354, -0.0887,  0.1167, -0.1199,  0.0591,  0.0036,  0.0461,  0.0370,
        -0.0731, -0.0320, -0.0488,  0.1701, -0.0879, -0.0355,  0.0793, -0.0392,
        -0.0263, -0.0731, -0.0646, -0.1043, -0.0527,  0.0486, -0.0550, -0.0724,
         0.0696, -0.0018, -0.0034, -0.0576,  0.0302, -0.0075,  0.1401,  0.0325,
        -0.0721, -0.0288,  0.0182, -0.0475, -0.0092,  0.0971,  0.1012, -0.0523,
        -0.0149,  0.0454,  0.0990,  0.1383, -0.2243,  0.0107,  0.0868, -0.0235,
        -0.0376,  0.1615,  0.0707, -0.1648,  0.0081,  0.0746, -0.0005, -0.1255,
        -0.1283, -0.1435, -0.0862,  0.1328,  0.0147, -0.1954, -0.0774, -0.0409,
         0.0500,  0.1297,  0.1153, -0.0396,  0.1215,  0.1122,  0.0098,  0.0118,
        -0.0816, -0.1494, -0.0853,  0.1137, -0.0300,  0.0112,  0.0424,  0.0388,
         0.0588,  0.0345,  0.0013, -0.1057, -0.0780, -0.0677, -0.0246, -0.0204,
        -0.0230,  0.0484,  0.0873, -0.0044, -0.0409,  0.0638,  0.1423,  0.1076,
        -0.1163, -0.1651, -0.0071, -0.0223, -0.0786,  0.0023,  0.0652, -0.1372,
        -0.0742, -0.0087,  0.0021, -0.0548,  0.1219,  0.0448, -0.0197,  0.0266,
        -0.0081, -0.1191,  0.0290,  0.0853,  0.0041, -0.1332,  0.2006,  0.0537,
        -0.0499, -0.0445, -0.0200, -0.0122, -0.0812, -0.0343,  0.0108,  0.0589,
        -0.0427,  0.0077, -0.0408, -0.0354,  0.0323,  0.0885,  0.0482, -0.0220},
{-0.0623, -0.0131, -0.1095,  0.0125, -0.0017, -0.0239, -0.0542, -0.0614,
        -0.0223, -0.0262, -0.0225,  0.0611,  0.0102, -0.0152, -0.0177, -0.0383,
        -0.0048, -0.0465, -0.0076, -0.1582,  0.0073,  0.0512,  0.0246,  0.0665,
         0.0508, -0.0116,  0.0446,  0.0518, -0.0003,  0.0174,  0.0599, -0.0396,
        -0.0467,  0.0249,  0.0114,  0.0456,  0.0233,  0.0027, -0.0449,  0.0154,
        -0.0423,  0.0118,  0.0238, -0.0424, -0.0336, -0.0081, -0.0499,  0.0191,
         0.0199,  0.0706,  0.0531,  0.0868, -0.0052, -0.0967,  0.0920,  0.0295,
        -0.1004, -0.0468,  0.0154, -0.0237, -0.0242,  0.0278,  0.0099,  0.0101,
         0.0253, -0.0130, -0.0757, -0.0900, -0.0044,  0.0381, -0.0080,  0.0041,
        -0.0410, -0.0494, -0.0518, -0.0180,  0.0172, -0.0660,  0.0295, -0.0612,
        -0.1065, -0.1052, -0.0261,  0.0182,  0.0305,  0.1205,  0.0224,  0.0099,
        -0.0079, -0.0018, -0.0024,  0.0230, -0.0287, -0.0588, -0.0230, -0.0250,
        -0.0482,  0.0056,  0.0297,  0.0629, -0.0122,  0.0061, -0.0218, -0.1492,
         0.0166,  0.0095, -0.0220,  0.0329,  0.0013, -0.0164,  0.0526,  0.0442,
        -0.0602,  0.0952,  0.0629,  0.0796, -0.0668, -0.0559, -0.0397, -0.0731,
        -0.0406, -0.0926,  0.0210, -0.0277, -0.0578, -0.0205, -0.0178,  0.0535,
         0.0294, -0.1173,  0.1159,  0.0588,  0.0225,  0.1409,  0.1183,  0.0687,
        -0.0616, -0.0255, -0.0381, -0.0173,  0.0821,  0.0124, -0.0449, -0.1164,
        -0.0396,  0.0083,  0.0030,  0.0111,  0.0093, -0.0356, -0.0058,  0.0171,
        -0.0536,  0.0467,  0.1034, -0.0802,  0.0485, -0.0231,  0.0326, -0.0820,
         0.0862, -0.0016,  0.0211,  0.0085,  0.0486,  0.0675,  0.0344, -0.0009,
        -0.0153, -0.0326, -0.0259,  0.0266, -0.0639,  0.0423,  0.0581, -0.0192,
         0.1695,  0.1533, -0.0460, -0.0644,  0.0495,  0.0745,  0.0656,  0.0391,
         0.0378, -0.0436,  0.0115,  0.0179, -0.0615,  0.0606,  0.0952,  0.0751,
         0.0191,  0.0216, -0.0240,  0.0243, -0.0700,  0.0408,  0.0067,  0.0173,
         0.0259, -0.0083,  0.0091, -0.0100,  0.0033, -0.0125,  0.0519,  0.0601,
        -0.1351, -0.1318, -0.0076, -0.0018,  0.0609,  0.1628,  0.0350,  0.0077,
         0.1069,  0.0558,  0.0115, -0.0656,  0.0425, -0.0577,  0.0176, -0.0366,
        -0.0153, -0.0490,  0.0612, -0.0532, -0.0219,  0.0321,  0.0241, -0.0434,
         0.0208,  0.0124, -0.0558,  0.0283,  0.0506, -0.0721,  0.0381, -0.0541,
         0.0819,  0.1669,  0.1373,  0.0330, -0.0726,  0.0331,  0.0206, -0.0313,
        -0.0684, -0.0457, -0.1242, -0.0107, -0.0234, -0.0202,  0.0803,  0.0104},
{-4.4449e-02, -6.5439e-02, -1.1106e-02, -2.6335e-02, -9.4944e-02,
         6.9234e-02,  2.5012e-02, -5.6788e-02,  7.8405e-03,  6.6252e-02,
         2.3775e-02,  4.0872e-02, -3.4587e-02, -8.6254e-04, -7.9692e-02,
        -9.5297e-02,  4.9169e-02,  9.7535e-03,  2.7125e-02,  2.6032e-02,
         3.6659e-02,  5.3306e-02,  1.7379e-01,  4.6186e-02,  3.8048e-02,
         1.1454e-02,  9.5573e-03, -1.7971e-02,  2.1121e-03, -5.0265e-02,
        -3.0085e-02,  3.8492e-02, -2.0186e-02,  5.9551e-02,  1.4205e-02,
         3.6627e-02,  4.1497e-02,  5.7006e-02,  4.1905e-02,  5.8757e-02,
        -3.2095e-02,  9.0843e-03, -6.1397e-02, -5.8994e-02, -6.0000e-02,
        -2.5620e-02, -1.7660e-02, -4.1410e-02,  7.2502e-02,  6.1656e-02,
        -2.1747e-02, -5.2664e-02, -5.7824e-02, -4.8351e-02, -1.5117e-02,
        -2.8154e-02,  8.4922e-02,  1.5119e-04,  6.2514e-02, -4.8952e-02,
         3.9914e-02,  7.8579e-02, -2.0769e-02, -2.8943e-02,  7.0364e-02,
        -1.6041e-02,  4.3255e-02,  8.2976e-02,  1.0142e-02, -4.0990e-02,
         9.2658e-02,  1.1926e-01,  1.4204e-02, -1.1270e-02,  2.0586e-03,
         1.9029e-02,  2.9670e-03, -4.4135e-02, -6.3204e-02,  1.7525e-02,
        -2.3540e-05, -8.7388e-02, -4.9492e-02, -3.0443e-02,  7.4953e-02,
         5.5913e-02,  5.5544e-04, -5.4488e-02,  4.3180e-02,  8.9003e-02,
        -7.4319e-03, -8.7618e-03,  7.1907e-02, -5.9215e-02,  4.8214e-02,
         4.7070e-02, -6.4977e-02,  5.0754e-02, -3.0816e-02,  1.5325e-02,
        -7.3336e-02, -3.3959e-03, -8.0855e-02,  2.4891e-02, -5.4288e-02,
        -3.1703e-02, -3.6418e-02,  4.9445e-02, -5.0636e-02, -1.8230e-02,
         9.6211e-02,  3.5832e-02,  2.4455e-02, -4.7039e-02,  6.7051e-02,
         2.3691e-02, -7.3862e-02,  4.1350e-02,  8.7690e-03, -1.8176e-02,
        -6.3278e-02,  3.1708e-02, -2.5264e-03,  6.2298e-02,  7.5797e-02,
        -1.8740e-02,  7.8106e-02,  2.6984e-02,  1.3849e-01,  9.9694e-02,
         1.4084e-02, -2.7801e-02, -2.8804e-02,  5.4436e-02, -2.3188e-02,
        -9.0934e-02, -7.4976e-03, -6.4223e-02, -5.9736e-02, -9.8040e-02,
        -5.0151e-02, -8.2938e-02,  4.2897e-02,  3.1984e-02,  4.3631e-02,
        -6.2132e-02, -3.0995e-02,  1.0442e-01,  7.2846e-04, -5.2298e-02,
         1.0265e-01,  1.8435e-02, -1.1891e-02,  1.1275e-02, -7.8090e-02,
        -3.4921e-02,  3.5316e-02,  1.7732e-02, -6.3537e-02,  1.5363e-02,
         2.9096e-02,  1.1965e-02, -1.4287e-03, -1.5396e-02, -9.7175e-02,
         4.9193e-03, -5.6856e-03,  3.8751e-03, -3.9755e-02, -3.4057e-02,
        -1.1002e-02, -3.2145e-02, -4.2713e-02, -3.7383e-02,  1.5485e-02,
        -1.1197e-01,  5.2141e-02,  6.0313e-02, -1.0354e-01,  3.8212e-03,
         3.0247e-02,  5.4177e-02, -1.3676e-02,  3.0733e-02,  7.5419e-03,
        -3.0133e-02, -4.0492e-02,  1.9330e-02,  5.7452e-02,  7.8945e-02,
        -4.5038e-02, -7.0870e-02,  4.9573e-02, -5.8435e-03, -4.9834e-02,
         1.8532e-02,  5.8363e-02,  3.1061e-02, -4.5888e-02, -2.7906e-02,
        -1.6378e-02,  7.0041e-02,  2.7530e-02,  3.9562e-04, -5.8535e-02,
        -1.1585e-02,  3.1020e-02, -3.0335e-02,  1.0346e-01,  1.9972e-02,
        -6.3118e-02, -1.4071e-02, -1.3772e-01, -4.8802e-02, -9.2521e-03,
        -3.3792e-03, -1.4882e-01, -7.1147e-02, -6.4113e-02, -7.0467e-03,
        -4.0647e-02, -3.8071e-02,  8.5265e-03, -4.4126e-02,  3.7957e-02,
        -3.2648e-02, -1.3190e-01, -7.4826e-02,  1.4345e-02, -6.1627e-02,
         8.4123e-02,  2.2254e-02,  9.4311e-02,  4.2754e-02,  2.8139e-02,
         4.1064e-02,  3.7357e-02,  7.3970e-02, -1.5565e-03,  2.5264e-02,
         1.9174e-02, -5.9747e-02,  2.9761e-02, -1.4757e-02,  5.8251e-03,
        -2.6848e-02,  8.5254e-04, -8.5638e-02,  5.4606e-02, -6.2716e-03,
         1.7792e-03, -6.7504e-03, -3.3048e-02, -1.6463e-02,  4.0958e-02,
        -2.8509e-02},
{ 7.9406e-02,  1.2671e-01, -4.6177e-02, -1.0930e-01,  3.3534e-02,
        -8.6286e-02, -2.7322e-02, -1.0564e-02, -2.1050e-03,  7.0705e-03,
        -2.1888e-02, -5.0481e-02, -5.9983e-02, -8.0392e-02,  1.5229e-02,
        -8.9695e-02,  3.1819e-02,  1.3871e-01,  6.3260e-02,  4.2101e-03,
        -2.4914e-02,  4.3284e-03,  5.0121e-02,  1.0527e-01, -8.5202e-03,
        -6.0760e-02,  8.7212e-02,  4.3609e-02,  4.7426e-02,  2.9847e-02,
        -1.1509e-01, -8.2717e-02, -3.5514e-02,  5.4873e-02, -5.0456e-02,
         3.4056e-02,  2.5359e-02, -1.6420e-02,  1.4826e-02,  4.8220e-02,
        -3.9306e-02, -2.5081e-02, -8.2999e-03,  2.9980e-02,  1.2909e-02,
        -3.6259e-02,  2.4970e-02,  2.9660e-02, -7.0784e-02, -8.6448e-02,
         5.3121e-02, -8.2286e-03, -6.0313e-02,  1.2800e-01,  8.4098e-02,
         4.7452e-02, -5.0131e-02,  8.4576e-04,  5.0108e-02,  4.0875e-02,
        -7.9110e-02,  1.3832e-02, -3.2537e-02, -2.8475e-02,  8.5434e-02,
        -3.0127e-03,  1.9181e-02,  1.1404e-02, -2.6301e-02, -6.2869e-02,
         4.7659e-03,  1.3014e-01,  1.1520e-02, -7.2796e-05, -2.1973e-03,
         1.1576e-02, -8.0192e-02, -1.0469e-02,  5.4778e-02, -3.0630e-03,
         7.4916e-02,  5.1498e-02, -3.6874e-02,  2.0004e-02,  6.2746e-02,
        -1.2202e-02,  3.9779e-02, -1.7920e-03,  4.7195e-03,  1.4401e-02,
        -8.7128e-02,  2.2567e-02,  8.3748e-02, -1.2499e-02, -1.4012e-02,
        -1.7790e-03,  6.0435e-02, -5.2058e-02, -8.3500e-02, -5.5493e-02,
        -7.4481e-02, -4.5351e-02,  2.6168e-03,  4.1860e-02, -1.0461e-02,
         4.0533e-02,  4.8660e-02, -3.7420e-02, -7.6857e-02, -1.0839e-01,
        -3.1685e-02, -1.9217e-02,  2.2494e-02, -6.8243e-02, -8.3670e-02,
        -2.2421e-02, -3.1817e-02, -1.1078e-02, -2.4263e-02,  3.3422e-02,
         4.0695e-04,  1.2530e-02,  4.0530e-02,  2.8363e-02,  1.2475e-02,
         4.0510e-02, -4.1271e-02,  6.4084e-02,  3.0112e-02,  7.0696e-02,
         1.1753e-01, -2.9132e-02, -7.4834e-02, -1.8688e-02, -6.5912e-02,
         1.0395e-01,  1.6005e-02, -1.3835e-01,  8.5814e-02,  1.3241e-01,
        -4.7047e-02, -9.8254e-02, -1.4423e-01, -1.2727e-01,  3.3060e-02,
        -7.9908e-02,  5.3994e-02, -2.7465e-03, -7.8704e-02,  2.8926e-02,
         8.5491e-02,  6.3945e-02,  4.2130e-02,  1.2149e-02,  6.0276e-02,
         2.2392e-02,  4.9264e-02, -1.5266e-02,  6.8829e-02, -2.4709e-03,
        -4.5774e-02, -6.2549e-02,  3.1967e-02,  8.5573e-02, -1.5795e-01,
        -9.5265e-02, -6.8604e-02,  5.3793e-02, -5.2709e-02,  1.2969e-02,
         3.6207e-02,  5.4760e-02, -7.6571e-03, -3.4218e-02, -7.7511e-02,
        -5.2520e-02, -6.1974e-02, -2.2106e-02,  3.7794e-02,  1.4508e-02,
        -4.1678e-02, -5.6129e-02,  9.1498e-03,  8.3111e-02,  1.8335e-02,
         1.3377e-01,  2.9055e-02, -2.4532e-02,  8.1697e-04, -9.2296e-02,
        -1.1953e-01, -2.5583e-03, -1.0361e-01, -4.8125e-02, -1.7163e-02,
        -6.5248e-03,  4.8841e-02,  7.7701e-03, -8.0827e-02, -3.8973e-02,
        -3.7222e-02, -2.2785e-02, -7.7926e-03, -4.8285e-02, -3.3118e-02,
         4.6527e-02, -2.7607e-02,  1.1939e-02,  3.9880e-03,  1.4164e-01,
         5.9422e-02, -1.3047e-02, -1.8617e-02,  6.4832e-02,  7.9060e-02,
         8.6081e-03, -4.9757e-02,  6.8916e-02, -3.6207e-02, -2.8257e-02,
        -4.6452e-02, -1.1469e-01, -1.1304e-01, -2.8149e-02, -4.5970e-02,
        -4.3089e-02, -1.2078e-01,  6.0138e-02,  6.3397e-02,  5.7257e-02,
        -9.2245e-02, -8.7985e-02,  3.2296e-02, -4.4765e-02,  4.3000e-03,
         2.5745e-02,  2.6665e-02,  4.0862e-03,  7.1306e-02,  3.6050e-02,
        -3.3690e-02, -6.1254e-02, -3.0196e-02,  6.2483e-03,  3.4218e-02,
         2.3981e-02, -4.9385e-03, -1.0889e-01,  3.7743e-02,  1.5345e-02,
        -6.6618e-02, -6.3856e-02,  9.0781e-02,  7.7512e-02,  1.1090e-02,
        -1.0981e-01},
{-0.0019, -0.0136, -0.0476, -0.1138,  0.0247,  0.0033,  0.0190, -0.0874,
        -0.0173,  0.0104, -0.0507, -0.0564, -0.0241,  0.0033,  0.0409,  0.0275,
         0.0065, -0.0277,  0.0058,  0.0036,  0.0173,  0.0441, -0.0050,  0.1584,
         0.0053,  0.0502,  0.1085,  0.0346,  0.0140, -0.0315,  0.0725,  0.0797,
         0.0268,  0.0223,  0.0119,  0.0488, -0.0010,  0.0076,  0.0334, -0.0004,
         0.0379, -0.0281,  0.0037,  0.0394,  0.0348, -0.0184, -0.0505,  0.0376,
        -0.0031, -0.0220, -0.0543, -0.0174, -0.0500,  0.0179,  0.0663,  0.0838,
         0.1069,  0.0403, -0.0300,  0.0621,  0.0242, -0.0153, -0.0126,  0.0370,
         0.0604, -0.0086,  0.0137,  0.0823,  0.0559,  0.0083,  0.0383,  0.0971,
         0.0303, -0.0091, -0.0744,  0.0108, -0.0083,  0.1111, -0.0035, -0.0375,
        -0.0332, -0.0797, -0.0348, -0.0024,  0.0890, -0.0062, -0.0426,  0.0020,
        -0.0037, -0.1123,  0.0494,  0.0771, -0.0464, -0.0620,  0.0220,  0.0390,
        -0.0134, -0.0234,  0.0036, -0.0973,  0.0098, -0.0698, -0.0810, -0.0466,
        -0.0669,  0.0462,  0.0551, -0.0376,  0.0007,  0.0030, -0.0007,  0.0478,
         0.0612,  0.0750,  0.0229,  0.0520,  0.0248,  0.0065,  0.0691,  0.0644,
        -0.0397, -0.0821,  0.0441,  0.0072, -0.0067, -0.0073, -0.0037, -0.0407,
         0.0781, -0.0469, -0.0543,  0.0157,  0.0417,  0.0892,  0.0661,  0.0160,
         0.0438,  0.0204,  0.0641,  0.0615,  0.0181, -0.0358, -0.0859, -0.0472,
         0.0092,  0.0065,  0.0596,  0.0538, -0.0252, -0.0456, -0.0625, -0.0345,
         0.0390, -0.0437,  0.0162,  0.0404,  0.0437, -0.0646,  0.0500,  0.0442,
         0.0928, -0.0642, -0.0235, -0.0368, -0.0961,  0.0289, -0.0123, -0.0322,
         0.0018,  0.0304,  0.0654,  0.0211,  0.0197, -0.0525, -0.0184, -0.0580,
        -0.0068,  0.0470, -0.1444, -0.1713, -0.0713,  0.0607, -0.0319, -0.0904,
         0.1235,  0.0612,  0.0145,  0.0108, -0.0075,  0.0739, -0.0098,  0.0994,
        -0.0325, -0.0046,  0.0486, -0.0944, -0.0706, -0.0101,  0.0004, -0.0112,
        -0.0004,  0.0444,  0.0231,  0.0807,  0.0280,  0.0180, -0.0318, -0.0063,
         0.0828,  0.0832, -0.0094,  0.0102, -0.0230, -0.0726, -0.1583, -0.0999,
        -0.0653, -0.0932, -0.0323,  0.0572,  0.0140,  0.1256,  0.0348,  0.0206,
        -0.0171, -0.0961,  0.0508, -0.0245,  0.1266,  0.1083,  0.0456,  0.0559,
         0.0546,  0.0678,  0.0130,  0.0295,  0.0401, -0.0075,  0.0040, -0.0485,
         0.0408, -0.0024,  0.0218, -0.0574, -0.0750,  0.0552, -0.0113,  0.0702,
         0.0545,  0.0589,  0.0492,  0.0461,  0.0017, -0.0331,  0.0624,  0.1048},
{ 0.0605,  0.0630,  0.0928,  0.1082,  0.0588, -0.0466, -0.0277,  0.1397,
        -0.0645, -0.0255, -0.0272, -0.1277,  0.0145,  0.0090, -0.0141, -0.0544,
        -0.0086,  0.0596,  0.1062,  0.0977, -0.0161,  0.0462, -0.0460, -0.1558,
        -0.1077, -0.0448, -0.1803, -0.1476, -0.1351,  0.0308,  0.1552,  0.0580,
        -0.0399,  0.0206,  0.0275, -0.0358, -0.0277, -0.0514,  0.0338,  0.0075,
        -0.0176,  0.0020, -0.0423, -0.0425, -0.0109,  0.0277, -0.0415,  0.0353,
         0.0762, -0.0406, -0.0103,  0.1475, -0.1162,  0.0481,  0.0147, -0.0046,
         0.0590, -0.0014,  0.0303, -0.0906,  0.0972,  0.1351, -0.0050,  0.0025,
         0.0583, -0.0308,  0.0705, -0.0459,  0.0562, -0.1165,  0.0154, -0.1459,
         0.0002, -0.0491, -0.0901, -0.0151, -0.0053,  0.0397, -0.0013,  0.1339,
        -0.0488,  0.0931,  0.0877,  0.0709,  0.0375, -0.0051, -0.1553, -0.0525,
         0.0795, -0.0710, -0.0618,  0.0287, -0.0877, -0.0194, -0.0059,  0.0140,
        -0.0491, -0.0567, -0.0706,  0.0302,  0.0920,  0.0080,  0.0072,  0.1026,
         0.0880,  0.0149,  0.0658,  0.0079,  0.0171, -0.0289,  0.0881, -0.0540,
         0.0040,  0.0360, -0.1250, -0.1627, -0.0582,  0.0247, -0.0600,  0.0035,
         0.1058,  0.0813,  0.1460,  0.0708, -0.0102, -0.0704, -0.0764, -0.1158,
         0.0411, -0.0036, -0.0212,  0.0334,  0.0033, -0.0307,  0.0842, -0.0242,
        -0.1072, -0.0644, -0.0696, -0.0405,  0.0670,  0.0840,  0.1157,  0.0281,
        -0.0012, -0.0212,  0.0408, -0.0507, -0.0461,  0.0324, -0.0439, -0.1009,
        -0.0465,  0.0135, -0.1612,  0.1162, -0.1301, -0.0912,  0.0111,  0.1020,
         0.0060,  0.0495,  0.0630,  0.0899,  0.0295, -0.0194,  0.0969,  0.0805,
        -0.0011, -0.0562, -0.0952, -0.0740,  0.0888, -0.0637, -0.0384,  0.0206,
        -0.0817,  0.0117,  0.1003,  0.1540,  0.0848, -0.0642,  0.1038,  0.1421,
         0.0554,  0.0139, -0.0299, -0.0523,  0.0233, -0.0011,  0.0408,  0.0528,
        -0.0534,  0.0046, -0.0422,  0.0230, -0.0518, -0.0249, -0.0044,  0.0105,
         0.0585, -0.0680,  0.0572, -0.1045,  0.0068,  0.0755,  0.0082,  0.0082,
        -0.0881, -0.0792,  0.0129,  0.0223,  0.0006,  0.0158,  0.1475,  0.0862,
         0.0316,  0.0226,  0.0008, -0.0129,  0.0346,  0.1291,  0.1858,  0.0312,
         0.0478,  0.0519, -0.0536, -0.1095, -0.0089,  0.1823,  0.0106,  0.0063,
         0.0517,  0.0603, -0.1944, -0.0903,  0.0367, -0.0265, -0.1437, -0.0336,
         0.0292, -0.0012,  0.0655, -0.0053, -0.0239, -0.0724, -0.0102,  0.1307,
         0.0263, -0.0906,  0.0465,  0.0746,  0.0059, -0.0314, -0.1048, -0.0447},
{-0.0357, -0.0767, -0.0325, -0.0783,  0.0870,  0.0178,  0.0689, -0.0221,
        -0.0587, -0.0874, -0.0350, -0.0086, -0.0363,  0.0085,  0.0116, -0.0551,
         0.0072, -0.0776, -0.0590,  0.0515, -0.0598,  0.0227, -0.1185, -0.0477,
         0.0139, -0.0083, -0.0121, -0.0588,  0.0118, -0.1033,  0.0138, -0.0047,
        -0.0009,  0.0602,  0.0580, -0.0067, -0.0402, -0.0096, -0.0520, -0.0366,
         0.0167, -0.0441, -0.0364, -0.0558, -0.0099,  0.0131, -0.0330,  0.0144,
         0.0453,  0.0589,  0.0774, -0.0073,  0.0061,  0.0339,  0.0186, -0.0246,
        -0.0072,  0.0201,  0.0714, -0.0268,  0.0959,  0.0485, -0.0379,  0.0179,
         0.0618, -0.0054, -0.0529, -0.0306,  0.0437,  0.0525, -0.0800, -0.0957,
        -0.0206, -0.0715, -0.0537, -0.0148,  0.0624,  0.0388, -0.0126,  0.0502,
        -0.0692,  0.0600,  0.0805,  0.0223, -0.0310,  0.0072, -0.0174, -0.0118,
         0.0240,  0.0093,  0.0166, -0.0171, -0.0302,  0.0107,  0.0919,  0.0138,
        -0.0393, -0.0064,  0.0049, -0.0374,  0.0045, -0.0547,  0.0054,  0.1174,
         0.0409, -0.0223,  0.0154,  0.0774,  0.0070,  0.0325,  0.0665,  0.0060,
         0.0154,  0.0763, -0.0718,  0.0203,  0.0374, -0.0631, -0.0015, -0.0244,
        -0.0595, -0.1126,  0.0742,  0.0899,  0.0606, -0.0887,  0.0570,  0.0991,
         0.0835, -0.0286, -0.0410,  0.0335, -0.0360, -0.0283,  0.0241, -0.0372,
        -0.0099,  0.0832, -0.0021, -0.0240,  0.0726,  0.0829,  0.0412, -0.0896,
         0.0435, -0.0413, -0.0558,  0.0174, -0.0529, -0.0321, -0.0630,  0.0975,
         0.0446, -0.0060, -0.0882,  0.0803, -0.0461, -0.0067, -0.0545,  0.0366,
         0.0127,  0.0178,  0.0207, -0.0408,  0.0191,  0.0287, -0.1001,  0.0002,
         0.0343,  0.0538,  0.0598, -0.1162,  0.1034, -0.0068, -0.0299, -0.0753,
         0.0065,  0.0694,  0.0500, -0.0283,  0.0745, -0.0188, -0.0101,  0.0021,
         0.0798,  0.0594,  0.0066, -0.0906,  0.0362, -0.0289,  0.0431, -0.0571,
         0.0640,  0.0512, -0.0321,  0.0097,  0.0320,  0.0102,  0.0216,  0.0503,
        -0.0240,  0.0810,  0.0199, -0.0209,  0.0422,  0.0067,  0.0115,  0.0726,
        -0.0016, -0.0655, -0.0936, -0.0341, -0.0192, -0.0797, -0.0399,  0.0631,
         0.0517, -0.0167, -0.0290,  0.0471,  0.0262,  0.1314,  0.0276, -0.0707,
        -0.0454, -0.0345,  0.0961,  0.0088,  0.0069,  0.1241,  0.0423, -0.0268,
         0.0562, -0.0506, -0.0050,  0.1393,  0.0187, -0.0712,  0.0102,  0.0183,
         0.0647,  0.0459,  0.0644, -0.0271,  0.0078, -0.0580, -0.0417,  0.0044,
         0.0321, -0.1167, -0.0098,  0.0833,  0.0022, -0.0249,  0.0555, -0.0028},
{ 0.0171, -0.0030, -0.0551, -0.0725, -0.0495, -0.0593,  0.0512, -0.0283,
         0.0009, -0.0036,  0.0224,  0.0154,  0.0037,  0.0208,  0.0197,  0.0135,
        -0.0225,  0.0900,  0.0311, -0.0225, -0.0149, -0.0041, -0.0682, -0.0467,
        -0.0637, -0.0400,  0.1128,  0.0691, -0.0414,  0.0790,  0.0610,  0.0396,
         0.0191, -0.0415,  0.0265,  0.0198,  0.0395,  0.0412,  0.0010, -0.0061,
        -0.0342,  0.0183, -0.0411,  0.0525,  0.0249,  0.0463,  0.0562,  0.0429,
         0.0365,  0.0522,  0.0317, -0.0072, -0.0172,  0.0677,  0.0031, -0.0781,
         0.0377,  0.0597,  0.0453, -0.0258, -0.0398, -0.0433, -0.0824,  0.0045,
        -0.0442,  0.0448, -0.0270,  0.0245, -0.0423, -0.0234, -0.0702,  0.0110,
        -0.0009, -0.0162,  0.0622,  0.0357,  0.0716, -0.0447,  0.0550,  0.0477,
         0.0134,  0.0184, -0.0492,  0.0300,  0.0383, -0.0017, -0.0046,  0.0475,
        -0.1015,  0.0087, -0.0410,  0.0294,  0.0489, -0.0105,  0.0085, -0.0464,
         0.0111, -0.0329,  0.0381, -0.0649,  0.0275, -0.0387, -0.0736,  0.0864,
         0.0750, -0.0163,  0.0165,  0.0034, -0.0211,  0.0318, -0.0463, -0.0132,
         0.0664, -0.0491, -0.0485, -0.0039, -0.0115, -0.0095,  0.0671, -0.0084,
        -0.0272, -0.0226,  0.0664, -0.0299,  0.0568,  0.0852,  0.0254,  0.0591,
         0.0109, -0.0565,  0.0246,  0.0381,  0.0299, -0.0279, -0.0365,  0.0542,
        -0.0184, -0.0364,  0.0509, -0.0094, -0.0142,  0.0261,  0.0428, -0.0409,
        -0.0505, -0.0676,  0.0269, -0.0141,  0.0143,  0.0115, -0.0159,  0.0002,
         0.0071, -0.0301, -0.0021,  0.0537,  0.0514,  0.0653,  0.0625, -0.0365,
        -0.0935, -0.0706, -0.0190,  0.0574, -0.0538,  0.0954,  0.0347,  0.0006,
         0.0581, -0.0216, -0.0229, -0.0077,  0.0161,  0.0728,  0.0329,  0.0149,
        -0.0893, -0.0384, -0.0046,  0.0121, -0.0250, -0.0171, -0.0254, -0.0505,
        -0.0383,  0.0513, -0.0601, -0.0262, -0.0286,  0.0384,  0.0606, -0.0090,
        -0.0676, -0.0864, -0.0601,  0.0789, -0.0401,  0.0392,  0.0769,  0.0169,
        -0.0139, -0.0306, -0.0125, -0.0085,  0.0256, -0.0389, -0.0637,  0.0510,
        -0.0188,  0.0080, -0.0564, -0.0013, -0.0386, -0.0273, -0.0556, -0.0117,
        -0.0023, -0.0285,  0.0671,  0.0357, -0.0542, -0.0275,  0.0685,  0.0205,
        -0.0210, -0.0827,  0.0142, -0.0256,  0.0662, -0.0050, -0.0408,  0.0297,
        -0.0407, -0.0171,  0.0683,  0.0678, -0.0411, -0.0073, -0.0459, -0.0176,
        -0.0060,  0.0114,  0.0739, -0.0301, -0.0034,  0.0601,  0.0314, -0.0210,
         0.0384,  0.0403,  0.0461, -0.0193,  0.0790, -0.0106, -0.0357,  0.0711},
{ 2.1289e-02,  2.1284e-02,  7.5932e-03, -8.0394e-02,  4.0065e-02,
        -6.6471e-02,  1.7008e-02, -3.0711e-02,  1.1810e-02, -3.3495e-02,
        -5.8582e-02, -2.5667e-02,  6.0302e-02, -4.3851e-02,  7.3702e-02,
        -3.2237e-02, -5.2884e-02,  3.4218e-02,  5.0409e-02, -7.4829e-02,
        -7.0463e-02, -1.3343e-01, -3.0973e-03,  8.5195e-02,  1.1555e-02,
         7.5740e-02, -2.5723e-02,  4.5995e-02,  5.2851e-02,  6.1800e-02,
        -1.5415e-01,  4.1822e-02, -2.9304e-02,  2.4340e-02,  4.0575e-02,
         3.9788e-02, -3.2410e-02,  1.7984e-02,  5.5233e-02, -2.8449e-02,
         3.8147e-02, -5.3171e-02, -5.7898e-02,  1.4048e-02, -9.0550e-03,
        -4.0531e-02, -4.8928e-03, -4.1907e-03, -2.2799e-02, -4.3626e-02,
         6.7159e-03,  5.4547e-02, -3.6025e-02,  2.0965e-02, -1.2501e-02,
         4.3518e-02,  7.3146e-02, -2.1781e-03,  5.5407e-02, -1.6174e-03,
        -9.9055e-02, -8.1773e-02,  2.5995e-02, -9.2627e-02,  1.6604e-02,
         4.9163e-02,  5.8550e-02, -4.2094e-02,  3.6858e-02, -6.0904e-02,
         2.1750e-02,  8.6492e-02, -7.7437e-02,  2.1323e-02,  1.0653e-01,
        -5.9007e-03, -1.2943e-02,  1.0151e-01,  3.3912e-02, -6.2922e-02,
         6.9769e-02,  3.0281e-02,  4.0669e-02, -1.2989e-02,  1.9975e-02,
         7.4214e-02,  5.0371e-02,  2.1969e-02,  2.5482e-02, -3.9234e-03,
        -6.1317e-02,  6.4335e-03, -2.5785e-02,  8.6229e-05,  6.7687e-02,
        -6.2670e-02,  4.8194e-03, -2.3238e-02, -7.3007e-02, -5.4832e-02,
        -2.4778e-02,  3.8572e-02, -6.3595e-02, -1.0488e-01, -3.5226e-02,
        -5.2306e-02, -4.2075e-02, -1.0988e-01,  6.9238e-02,  1.6526e-02,
        -8.6188e-02,  2.8178e-02, -5.6177e-02,  7.6290e-02,  6.1041e-02,
        -4.5562e-02, -4.2686e-03,  6.3669e-02, -2.4811e-02, -4.2882e-02,
         7.1977e-03,  6.6410e-02,  7.6213e-03, -6.4672e-02,  7.4121e-02,
        -4.1411e-02, -6.4162e-02,  2.1403e-02, -5.0954e-02,  7.6524e-02,
         1.8482e-03,  7.8124e-03,  5.4830e-03, -9.8564e-02,  1.3002e-02,
        -2.0790e-02,  4.4058e-02,  7.7606e-02,  3.6622e-03, -1.8777e-02,
        -1.6418e-02, -1.0142e-01, -5.5271e-02, -8.0627e-02,  1.4751e-03,
        -4.9687e-02,  3.9839e-02,  4.3590e-03,  5.8840e-03, -7.3883e-02,
         7.7479e-02, -1.8241e-02, -1.1624e-03, -1.6605e-02, -2.4418e-02,
        -5.6366e-03,  7.8476e-02,  6.4998e-04, -2.9931e-02, -7.7688e-02,
        -6.1570e-02,  4.9492e-02, -1.0581e-02, -5.0521e-02, -1.8125e-02,
        -8.5596e-03, -2.4430e-02,  8.5596e-02, -4.7332e-02, -2.5727e-02,
        -6.6445e-03,  1.6015e-02,  5.0315e-03, -2.6809e-02, -1.4024e-02,
        -9.4679e-02, -8.5557e-02,  2.5445e-02, -3.3108e-02,  4.8650e-02,
         2.0647e-02,  2.7702e-02, -3.7849e-02, -1.0453e-01,  2.1575e-02,
         2.2676e-02,  2.0626e-02,  2.2174e-04,  2.1472e-02,  1.9341e-02,
         1.9942e-02, -3.1294e-02, -9.1395e-03,  1.2649e-02,  2.7947e-02,
        -1.8550e-02,  2.3580e-02,  6.1346e-02, -7.2492e-02, -8.0861e-03,
        -3.3688e-02,  5.8404e-02, -5.9279e-02, -8.7215e-03,  1.0684e-02,
        -7.2832e-02, -8.9020e-02, -9.9425e-02, -7.8920e-02,  4.2120e-02,
         1.7385e-01, -3.6502e-03, -6.6299e-02, -5.4001e-02,  5.1680e-02,
        -3.8959e-02,  1.4218e-02,  2.1252e-02, -1.5872e-02, -9.5189e-02,
         1.0826e-01, -3.3412e-02, -7.4805e-02, -2.4228e-02,  1.9096e-03,
         1.2340e-01,  1.1230e-01, -4.7448e-02, -2.1799e-02,  2.2342e-02,
        -5.4647e-02, -5.3519e-02, -5.7518e-02, -7.5763e-02,  6.5021e-02,
         3.8430e-02,  4.2796e-02,  4.7360e-02, -8.8118e-03, -1.7029e-02,
         6.3197e-03,  8.2651e-03, -2.7616e-02,  2.5601e-02, -2.8900e-02,
         5.6568e-02, -7.7152e-02, -9.1916e-02, -1.0312e-02, -1.2132e-02,
        -1.9694e-02,  6.6309e-03, -5.7765e-02, -3.6871e-02, -4.8090e-02,
        -6.6006e-02},
{-8.4465e-02,  6.7643e-02, -7.1727e-03,  4.5514e-02,  1.7815e-02,
         1.2804e-01,  2.6507e-02,  3.2295e-02, -9.2386e-02,  1.9028e-02,
        -1.1253e-02, -3.1667e-02, -1.6122e-02, -2.9735e-02, -3.2741e-03,
        -1.9148e-02, -2.5024e-03, -1.3145e-02, -2.8499e-02, -1.8999e-02,
        -6.4088e-02,  1.2574e-01,  5.3427e-02,  4.4982e-02, -1.2028e-02,
         1.3822e-02, -2.4331e-02, -2.4026e-02, -5.7376e-02,  2.8236e-02,
         9.2940e-02, -8.4493e-02,  4.4524e-02, -5.8219e-02,  5.4261e-02,
         4.4448e-02, -4.5765e-03, -7.5475e-04,  4.3404e-02,  3.6327e-02,
         4.1406e-02, -5.8133e-02, -1.1533e-03, -1.3432e-02, -2.2265e-02,
        -5.6802e-02,  3.4497e-02, -2.4744e-02,  2.8207e-02,  3.6172e-02,
         4.5556e-02,  1.1258e-03, -2.9397e-02,  5.0480e-03,  8.5524e-02,
         4.3163e-02,  1.6812e-02,  1.0488e-01,  4.8767e-02,  4.3014e-02,
        -3.3119e-02, -6.8909e-02, -2.9354e-02, -8.2768e-02,  5.2554e-02,
         1.5110e-02, -1.5427e-02,  3.8688e-02,  4.7688e-02,  5.2711e-03,
        -1.0493e-02, -2.3232e-02,  4.5639e-02,  4.5929e-02, -1.0755e-02,
        -1.4143e-02, -3.7900e-03, -2.6865e-02,  7.6209e-02,  8.2205e-02,
        -1.1949e-01, -2.1841e-02,  3.3193e-02,  3.8826e-02, -1.1034e-02,
         7.4884e-02,  5.0234e-03, -5.7559e-02,  5.1670e-02, -3.0440e-02,
         2.0921e-02, -5.3256e-02, -1.1338e-02,  9.1541e-02, -1.6665e-02,
        -1.3705e-02, -6.9460e-02,  2.9117e-02,  1.8773e-02, -8.3649e-02,
        -4.3506e-02, -2.9822e-02, -1.9002e-02,  3.9774e-02, -3.9040e-02,
         5.0008e-02, -7.0007e-02,  5.9490e-02,  1.5492e-03, -4.8846e-02,
        -4.8160e-02, -5.5151e-02, -9.4334e-02, -5.7038e-02,  8.2684e-02,
         4.8942e-02, -3.3672e-02, -2.9956e-02,  2.2425e-02, -7.4389e-05,
        -6.7636e-02,  3.1688e-03,  7.3674e-03, -1.4741e-02,  5.9390e-02,
         8.4526e-02,  3.8345e-02, -7.7903e-02,  7.5946e-03,  3.6060e-02,
         8.4907e-02,  5.2460e-02, -5.0636e-02,  3.9658e-02,  8.2230e-02,
        -4.1143e-02, -5.3752e-02,  3.3252e-03,  5.0443e-02,  4.6185e-02,
        -5.7534e-02, -1.3653e-02, -1.8370e-02, -4.9321e-02, -9.8678e-02,
        -4.2731e-02,  2.8943e-02,  2.8792e-02, -1.5273e-02, -3.3905e-02,
         1.4103e-02,  7.6457e-03, -4.2506e-02,  9.8773e-04,  7.5227e-03,
        -6.2300e-02,  5.8820e-02, -1.6953e-02,  3.2581e-02, -4.8926e-02,
         1.0471e-02,  7.1130e-02, -5.7377e-02,  2.5921e-04, -3.4985e-03,
        -5.2579e-03,  8.2039e-03,  2.2622e-02, -7.2447e-02, -5.2939e-03,
        -8.1991e-03,  7.7952e-03, -8.8752e-02, -2.7316e-02,  2.3746e-02,
         1.9411e-02,  1.4146e-01,  1.0990e-01,  7.2379e-02,  6.6715e-02,
        -2.2353e-02,  6.5103e-02,  7.2146e-02,  3.7286e-02, -1.3968e-02,
        -1.3223e-02,  1.0308e-02, -6.2096e-02, -1.5342e-03,  2.3989e-03,
         7.6893e-03,  5.0743e-02,  2.4916e-02,  4.1668e-02, -4.1027e-02,
        -4.2602e-02, -7.4858e-02,  1.7830e-02,  5.0737e-03, -2.5545e-02,
        -7.1756e-02, -5.2011e-02, -3.3206e-02,  4.6908e-02, -8.2556e-02,
        -5.6114e-02,  3.8117e-02, -6.0807e-03, -1.2679e-01, -1.3006e-01,
        -2.0179e-02, -8.2627e-02,  7.9405e-02,  1.7590e-01,  9.8816e-02,
        -3.8444e-02, -6.4870e-02,  3.5488e-02,  7.8254e-02,  3.7973e-02,
         7.0618e-02, -3.0684e-02, -1.0499e-02, -2.2374e-02, -4.7264e-03,
        -1.3362e-01, -3.6380e-02, -6.7764e-02,  4.5587e-02,  9.4418e-02,
         1.2580e-02, -4.9235e-02,  8.9340e-03,  7.9504e-02,  6.2272e-02,
         4.4318e-02, -8.6742e-03, -1.1682e-01,  5.6387e-02, -4.9680e-04,
         4.7465e-02,  7.0602e-02,  9.0370e-02,  4.6317e-02, -5.3741e-02,
         2.1827e-02,  2.8988e-02, -7.0409e-02, -7.0266e-02,  6.0995e-02,
         9.5195e-02, -6.2398e-02,  2.6727e-02,  8.8234e-02,  1.5355e-02,
        -3.9389e-03},
{-3.2474e-02,  8.9579e-02,  1.1952e-01, -2.4145e-02, -5.5766e-02,
        -2.6930e-02,  3.7216e-03,  3.1207e-02,  1.4469e-02,  3.3744e-02,
         7.2974e-02,  3.6980e-02, -2.7797e-02, -4.3639e-02, -5.8561e-02,
        -5.6938e-02,  5.5047e-02,  5.5651e-02,  1.5263e-01,  1.0502e-01,
         6.0049e-02,  6.3812e-02,  1.5224e-01,  1.0294e-01,  1.2677e-01,
         7.2665e-02, -4.9384e-03,  6.5402e-02,  2.6774e-02, -9.2621e-02,
        -9.4831e-02, -8.3498e-02,  4.1521e-02,  3.3659e-02,  6.3032e-03,
        -7.0796e-04, -7.5947e-03, -1.4487e-02,  2.9118e-03,  2.1799e-03,
        -4.9967e-02, -1.3483e-04,  2.7021e-02, -1.8194e-02,  4.7465e-02,
         2.7006e-02, -8.8636e-04,  5.1409e-02, -1.5978e-01, -7.7927e-02,
        -1.1108e-01, -5.8755e-03, -9.8700e-02, -1.1985e-02,  7.5685e-02,
         1.9457e-02, -6.8684e-02,  1.1689e-02,  4.9897e-03, -3.4275e-02,
         1.5418e-02,  1.7783e-01,  2.2985e-04,  1.5239e-02, -8.0913e-02,
         5.2110e-02,  1.0788e-01,  1.0965e-01, -3.7624e-02, -3.1993e-02,
         6.3319e-02, -5.3483e-02,  7.1390e-03,  8.7011e-02, -1.7395e-02,
         3.6608e-02, -3.4847e-02,  1.2937e-02,  1.8271e-02,  3.3088e-02,
         7.1527e-02,  6.6438e-02,  1.2643e-01,  5.0356e-02, -3.2128e-02,
         7.4897e-02,  1.2820e-01,  1.3505e-02, -2.5121e-02,  2.6680e-02,
         2.0411e-02,  7.9188e-03,  3.2972e-03, -9.2719e-02, -2.9237e-02,
        -4.4683e-02, -8.2993e-02, -8.3420e-02, -1.7073e-02, -7.5702e-02,
        -3.3841e-02,  3.0562e-02, -3.6753e-02, -1.1441e-02, -8.2613e-02,
        -6.7958e-02, -4.9396e-02, -3.8515e-02,  3.2265e-02, -7.6148e-03,
        -8.1254e-03, -2.5412e-02,  5.1889e-02, -3.5571e-02, -8.2295e-02,
         1.2246e-01,  1.4857e-02,  5.1858e-02, -5.0944e-02, -2.1515e-02,
         1.1371e-01, -7.4881e-03, -9.7851e-02,  1.8327e-02,  7.9508e-03,
        -6.6485e-04, -2.4650e-02,  1.7770e-02, -5.6245e-02, -1.1440e-01,
        -1.6923e-02,  1.1023e-02,  7.2906e-03,  4.6703e-02,  2.9626e-02,
         1.1901e-01,  6.5889e-02, -2.8489e-02, -3.1633e-03,  2.7126e-02,
        -3.6597e-02, -5.6157e-02, -5.4033e-02,  1.0222e-01,  9.1484e-02,
         7.9486e-02,  7.3702e-02, -2.4441e-02,  8.7838e-02, -4.0509e-02,
         2.5022e-02, -3.5184e-02,  1.0091e-01,  3.2371e-02,  4.1218e-03,
        -2.2147e-02,  5.3080e-02, -8.6291e-02,  3.3235e-02,  1.5243e-02,
        -5.8598e-02, -9.2655e-02, -9.5482e-02,  1.0381e-01, -4.2059e-02,
        -1.3247e-02,  2.3243e-03,  6.8434e-02, -6.7617e-02, -3.7804e-02,
        -5.6755e-02,  9.8293e-02, -9.9834e-02, -1.7514e-02,  7.3955e-03,
         2.5175e-02, -1.3356e-01, -1.5262e-01, -1.5116e-01,  3.4677e-02,
        -9.8693e-02, -6.2123e-02, -7.6289e-02,  3.7186e-02, -4.8803e-02,
         1.3548e-02,  8.0981e-02, -1.8597e-02, -7.8019e-03,  4.0828e-02,
         3.1591e-02, -5.1366e-02, -7.6979e-02, -1.0001e-01, -1.8173e-01,
         5.1901e-03, -1.3331e-02, -8.1329e-02, -5.0611e-02, -5.7593e-02,
        -7.4808e-02, -5.7721e-02,  1.7645e-02,  5.5987e-02,  8.8955e-02,
         6.1913e-02,  1.1008e-02, -4.3920e-02,  3.4910e-02, -7.6449e-02,
         1.7289e-02,  4.2766e-02, -3.9463e-02, -1.0299e-03,  7.1118e-02,
         9.4090e-02,  2.6239e-02,  3.8934e-02,  1.9216e-02,  1.1908e-02,
        -1.6798e-01, -5.0326e-02, -4.2736e-02, -2.8144e-02,  3.3736e-02,
         1.2688e-01, -2.3326e-02,  3.4942e-02, -6.4062e-02, -7.2778e-02,
        -6.0583e-03, -6.3447e-04,  5.8034e-03, -8.0183e-03, -1.1037e-02,
         1.1960e-02,  1.3501e-01,  9.5663e-03, -8.6123e-02,  4.5800e-02,
        -2.8274e-02, -1.5598e-01, -1.1087e-01, -7.1433e-02,  4.0535e-02,
        -6.3847e-02, -1.5530e-01, -5.7437e-02,  2.4305e-02,  4.4448e-02,
        -3.0670e-02, -1.0957e-02,  1.8933e-02, -6.4712e-02, -2.0069e-02,
         2.1817e-02},
{-0.0053,  0.0135, -0.0559, -0.0296,  0.0089,  0.0102, -0.0618,  0.0488,
        -0.0250,  0.0431, -0.0259, -0.0142,  0.0466,  0.0310,  0.0227, -0.0171,
         0.0118, -0.0366,  0.0056,  0.0521, -0.0294, -0.0108,  0.0311,  0.0055,
         0.0270, -0.0468, -0.0295,  0.0100,  0.0233,  0.0030,  0.0407,  0.0195,
        -0.0526, -0.0127,  0.0420, -0.0049,  0.0408, -0.0308,  0.0045,  0.0317,
        -0.0112,  0.0584, -0.0350, -0.0454, -0.0273,  0.0465, -0.0078, -0.0381,
        -0.0254,  0.0483, -0.0101,  0.0365, -0.0160,  0.0359, -0.0224,  0.0282,
        -0.0310,  0.0585, -0.0600,  0.0153,  0.0190, -0.0697,  0.0096, -0.0078,
        -0.0543,  0.0157, -0.0532, -0.0153,  0.0594, -0.0444, -0.0645,  0.0492,
         0.0046,  0.0287,  0.0021,  0.0437,  0.0279,  0.0578,  0.0203, -0.0380,
        -0.0618, -0.0591,  0.0439, -0.0135, -0.0305,  0.0462,  0.0224,  0.0558,
        -0.0049,  0.0039,  0.0235, -0.0602, -0.0433, -0.0139, -0.0362,  0.0128,
         0.0403,  0.0192,  0.0259,  0.0143, -0.0520, -0.0597,  0.0550,  0.0152,
         0.0283,  0.0050,  0.0228,  0.0016,  0.0010, -0.0673,  0.0062, -0.0497,
         0.0325,  0.0468, -0.0186,  0.0256,  0.0478,  0.0115, -0.0208,  0.0465,
        -0.0112, -0.0634,  0.0231, -0.0201, -0.0513,  0.0029, -0.0592,  0.0509,
        -0.0417,  0.0418, -0.0151,  0.0459,  0.0091,  0.0097, -0.0189, -0.0375,
         0.0373, -0.0429,  0.0525, -0.0070, -0.0425, -0.0040,  0.0020,  0.0507,
        -0.0177, -0.0497,  0.0177, -0.0619,  0.0467, -0.0376,  0.0112, -0.0048,
        -0.0088, -0.0638,  0.0221, -0.0444, -0.0244, -0.0426, -0.0532, -0.0108,
        -0.0345, -0.0218, -0.0620, -0.0259,  0.0191, -0.0418, -0.0113,  0.0454,
         0.0363, -0.0468,  0.0292, -0.0601, -0.0378,  0.0361, -0.0425,  0.0021,
         0.0584, -0.0310, -0.0331,  0.0231, -0.0548,  0.0427, -0.0082,  0.0395,
        -0.0028,  0.0122, -0.0380,  0.0407,  0.0362,  0.0044,  0.0490,  0.0053,
        -0.0175,  0.0170,  0.0090,  0.0378,  0.0538,  0.0365, -0.0266, -0.0204,
         0.0475, -0.0094,  0.0453,  0.0316,  0.0518,  0.0146, -0.0650, -0.0273,
        -0.0286, -0.0638,  0.0120, -0.0100,  0.0186, -0.0272, -0.0519, -0.0579,
         0.0568, -0.0532, -0.0249, -0.0117, -0.0173, -0.0205, -0.0086, -0.0338,
         0.0244, -0.0339, -0.0106,  0.0572, -0.0289, -0.0164,  0.0158,  0.0478,
         0.0053, -0.0461, -0.0414, -0.0183, -0.0628,  0.0379, -0.0390,  0.0170,
        -0.0021,  0.0450,  0.0307, -0.0566, -0.0332, -0.0064,  0.0015,  0.0502,
        -0.0433, -0.0600, -0.0241, -0.0330,  0.0147, -0.0182, -0.0575,  0.0557},
{-0.0287,  0.0619, -0.0392,  0.0214,  0.0371, -0.0098,  0.0405, -0.0146,
        -0.0358, -0.0329,  0.0078, -0.0275, -0.0100, -0.0313,  0.0200,  0.0252,
         0.0651,  0.0587,  0.0707,  0.0415,  0.0330,  0.0190,  0.0591,  0.0349,
         0.0250, -0.0405,  0.0099, -0.0569, -0.0165, -0.0732,  0.0386,  0.0079,
        -0.0293,  0.0398,  0.0382,  0.0430,  0.0251, -0.0212, -0.0095,  0.0197,
        -0.0072, -0.0561,  0.0047,  0.0515,  0.0413,  0.0328, -0.0491, -0.0422,
        -0.0553,  0.0705, -0.0124,  0.0293,  0.0436, -0.0238,  0.0549, -0.0472,
        -0.0066, -0.0104, -0.0360, -0.0127, -0.0647, -0.0533, -0.0398, -0.0455,
        -0.0439, -0.0091,  0.0499,  0.0349,  0.0444, -0.0214,  0.0108, -0.0066,
         0.0496,  0.0083, -0.0541, -0.0287,  0.0204,  0.0137,  0.0288,  0.0600,
        -0.0420, -0.0398,  0.0547, -0.0506, -0.0358, -0.0517,  0.0374, -0.0518,
         0.0520,  0.0103, -0.0305,  0.0439,  0.0403,  0.0414, -0.0278,  0.0167,
         0.0678, -0.0114, -0.0065, -0.0506, -0.0055,  0.0504, -0.0073, -0.0254,
         0.0243, -0.0434,  0.0056, -0.0401, -0.0550, -0.0072, -0.0274,  0.0366,
         0.0438,  0.0436, -0.0071,  0.0885,  0.0447, -0.0503, -0.0329, -0.0576,
         0.0561, -0.0109,  0.0354, -0.0229,  0.0414, -0.0558, -0.0394, -0.0117,
        -0.0412, -0.0066, -0.0038, -0.0061, -0.0269, -0.0466, -0.0230, -0.0175,
        -0.0710, -0.0650, -0.0198, -0.0392,  0.0221, -0.0817, -0.0149, -0.0170,
         0.0573,  0.0078,  0.0620, -0.0297,  0.0643,  0.0814,  0.0765,  0.0357,
        -0.0077, -0.0020, -0.0654,  0.0180,  0.0298,  0.0057,  0.0173, -0.0466,
         0.0005, -0.0004,  0.0423, -0.0387,  0.0598,  0.0193,  0.0243, -0.0027,
         0.0206, -0.0060,  0.0575, -0.0008, -0.0721, -0.0878, -0.0681, -0.0858,
        -0.0536,  0.0052,  0.0698,  0.0622, -0.0554,  0.0083,  0.0224,  0.0346,
        -0.0887, -0.0067, -0.0409,  0.0104, -0.0738, -0.0241,  0.0874,  0.0453,
         0.0379,  0.0149, -0.0318,  0.0279, -0.0223,  0.0437, -0.0513, -0.0126,
        -0.0705, -0.0776,  0.0408,  0.0451,  0.0368, -0.0285,  0.0143, -0.0578,
         0.0063,  0.0484,  0.0492, -0.0096,  0.0598,  0.0522, -0.0205,  0.0340,
        -0.0327,  0.0155,  0.0028, -0.0127, -0.0696, -0.0595,  0.0090,  0.0621,
        -0.0217, -0.0015, -0.0424,  0.0136,  0.0042, -0.0164, -0.0245, -0.0503,
         0.0818, -0.0371, -0.0567,  0.0350,  0.0645,  0.0878, -0.0751,  0.0049,
        -0.0379, -0.0013, -0.0308,  0.0033,  0.0148,  0.0620, -0.0109,  0.0448,
        -0.0568,  0.0029, -0.0113, -0.0239, -0.0196, -0.0688, -0.0351,  0.0400},
{-0.0370, -0.0247, -0.0051,  0.0418, -0.0175,  0.0134, -0.0005, -0.0089,
        -0.0385, -0.0637, -0.0157,  0.0208, -0.0443,  0.0302, -0.0380,  0.0176,
        -0.0397,  0.0003,  0.0427,  0.0438, -0.0508, -0.0061,  0.0236,  0.0314,
        -0.0574, -0.0815,  0.0372, -0.0930, -0.0130, -0.0657, -0.0635, -0.0349,
         0.0222,  0.0048,  0.0429,  0.0181, -0.0155, -0.0007, -0.0587, -0.0537,
        -0.0233,  0.0613, -0.0330,  0.0532, -0.0300,  0.0402, -0.0256, -0.0238,
         0.0714,  0.0361, -0.0435,  0.0261,  0.0452, -0.0621, -0.0677, -0.0415,
         0.0207, -0.0013, -0.0195, -0.0483,  0.0396,  0.0221,  0.0769,  0.0318,
         0.0050,  0.0246,  0.0021,  0.0303, -0.0369, -0.0132,  0.0190,  0.0277,
        -0.0259,  0.0014, -0.0076, -0.0006,  0.0019, -0.0629, -0.0376,  0.0218,
        -0.0025,  0.0228,  0.0274,  0.0015, -0.0340, -0.0200, -0.0404, -0.0477,
        -0.0495,  0.0021, -0.0032,  0.0517, -0.0848,  0.0513,  0.0250, -0.0553,
         0.0124, -0.0103, -0.0364, -0.0334,  0.0457, -0.0372, -0.0413, -0.0449,
         0.0325, -0.0072,  0.0593,  0.0266,  0.0491, -0.0286, -0.0073,  0.0179,
        -0.0161, -0.0759,  0.0339, -0.0050, -0.0237,  0.0444, -0.0139, -0.0613,
        -0.0139, -0.0344, -0.0393,  0.0280,  0.0008,  0.0013,  0.0304, -0.0502,
        -0.0158,  0.0969,  0.0232, -0.0657, -0.0548, -0.0126,  0.0064,  0.0119,
        -0.0351,  0.0139, -0.0254, -0.0744, -0.0478,  0.0434,  0.0379,  0.0618,
         0.0244, -0.0112, -0.0142, -0.0330,  0.0255,  0.0084,  0.0222,  0.0085,
         0.0329, -0.0480,  0.0643,  0.0262,  0.0416, -0.0783, -0.0309,  0.0423,
        -0.0213,  0.0272, -0.0330, -0.0333, -0.0181,  0.0473,  0.0286,  0.0385,
         0.0432, -0.0131, -0.0264, -0.0147, -0.0321, -0.0417,  0.0068,  0.0323,
         0.0273, -0.0153,  0.0246, -0.0401, -0.0339, -0.0007,  0.0092, -0.0621,
        -0.0049, -0.0075,  0.0032,  0.0668, -0.0447,  0.0115,  0.0417, -0.0393,
        -0.0379,  0.0355,  0.0551, -0.0460,  0.0341,  0.0076,  0.0149, -0.0142,
         0.0095,  0.0537, -0.0381, -0.0461, -0.0347,  0.0184, -0.0439,  0.0499,
         0.0538, -0.0492,  0.0149, -0.0356,  0.0080,  0.0498,  0.0006,  0.0494,
        -0.0742, -0.0963,  0.0262, -0.0521, -0.0145,  0.0088,  0.0232,  0.0727,
         0.0749, -0.0867, -0.0167, -0.0692, -0.0093, -0.0354,  0.0239,  0.0275,
         0.0199, -0.0084,  0.0727,  0.0271,  0.0408,  0.0211,  0.0411, -0.0235,
         0.0432, -0.0144, -0.0469, -0.0280,  0.0412,  0.0445,  0.0796, -0.0291,
        -0.0342,  0.0629, -0.0443, -0.0187,  0.0074,  0.0073, -0.0284,  0.0027},
{-2.2869e-02,  1.2327e-02, -9.1360e-02, -9.0285e-02, -5.6785e-02,
         3.0884e-02, -6.3188e-02,  4.9217e-02,  4.1537e-02, -4.4621e-02,
        -4.7262e-03, -5.7904e-02,  7.0264e-02, -7.1526e-02, -1.4858e-03,
        -3.5311e-02, -2.8119e-02, -3.9132e-02,  8.3629e-03,  8.1333e-04,
         4.0045e-02,  3.0969e-02, -5.0785e-02,  8.3744e-02, -2.2914e-02,
         8.4412e-02,  1.0830e-02,  6.6801e-02, -3.4500e-02,  2.3904e-02,
         4.1923e-02, -3.0360e-02,  2.0283e-02, -3.0295e-02,  3.8764e-03,
        -3.7976e-02,  2.4915e-02, -6.0975e-02,  3.8416e-02, -4.8932e-02,
        -2.5217e-02,  4.9898e-02,  1.3398e-02,  4.4935e-02, -3.6045e-02,
        -2.9667e-03, -2.6945e-02, -3.3535e-02,  2.3975e-02, -2.2194e-02,
        -6.0152e-02, -6.9262e-02, -7.9357e-02, -2.2980e-02, -7.1870e-03,
        -4.2342e-02,  3.7843e-02,  8.9753e-02, -4.0197e-02,  2.9206e-03,
         8.4660e-02, -5.7218e-02, -8.8887e-02,  3.9186e-02,  3.4804e-02,
        -4.4697e-02, -8.9092e-02,  3.9091e-02,  7.1221e-02, -4.0273e-02,
         8.6309e-02,  3.5443e-02, -2.1668e-02, -2.8750e-02,  2.8384e-02,
        -2.6868e-02, -2.1406e-02,  3.9336e-03,  2.6609e-02,  3.0976e-02,
        -2.0117e-04, -1.2635e-02,  5.6532e-02, -1.4258e-02, -3.5375e-02,
         5.0831e-02,  2.5894e-02,  1.9109e-02,  7.4235e-02,  3.0460e-02,
        -1.2522e-02, -3.1468e-02, -3.9934e-02,  1.1755e-02,  3.5014e-02,
         5.4297e-02,  1.8957e-02,  2.8272e-03,  4.9164e-02, -7.3055e-02,
         5.6972e-02, -5.1884e-02, -2.3579e-02,  1.3501e-02,  1.2436e-02,
        -1.9739e-02,  5.8591e-02, -3.5440e-02,  5.8687e-02,  6.9268e-02,
         7.1192e-02,  3.3643e-02,  1.6610e-02,  4.9997e-02, -5.7784e-03,
         8.8879e-02, -1.1068e-02,  5.9914e-02, -5.2817e-03, -4.4763e-03,
        -5.6210e-02, -7.8074e-05,  1.6740e-02,  5.3071e-02,  4.9868e-02,
         5.0168e-02, -5.8982e-02,  7.6380e-02,  4.5000e-02,  3.7454e-02,
         8.7762e-03, -6.5764e-03, -1.7567e-04,  3.8404e-02,  2.3364e-02,
        -3.0301e-02,  3.3570e-02, -6.3176e-02, -3.9347e-02,  6.7199e-02,
         4.6532e-02,  4.1397e-02,  2.3982e-02,  2.7488e-02, -3.5175e-02,
        -3.3868e-02, -4.3109e-02, -2.3548e-02,  2.3698e-03, -8.4791e-02,
         5.7285e-02,  5.3763e-02, -6.7285e-02, -8.0657e-02, -5.5973e-02,
         1.6418e-02,  6.1010e-03, -7.2065e-02,  8.8051e-03,  5.3008e-02,
         7.8600e-03, -3.6946e-02, -8.5379e-02, -8.8416e-02,  9.3264e-03,
         2.3260e-02, -2.7148e-02, -7.2867e-02, -4.9569e-02,  5.1753e-02,
         1.0097e-02, -2.8203e-02,  3.4895e-02,  5.7707e-02, -3.6569e-02,
         3.6525e-02, -7.2368e-02,  1.0772e-02, -9.2606e-03, -4.2143e-02,
        -6.0873e-02, -4.0314e-02,  3.5278e-02, -3.6129e-02,  4.9713e-02,
        -8.4331e-02, -4.2714e-02,  2.5304e-02,  1.1852e-01,  9.8150e-02,
         8.5655e-03, -4.6655e-02, -2.2726e-02,  5.9241e-02, -1.9155e-02,
         1.5609e-02, -8.3619e-02, -2.9513e-02,  1.5703e-02,  4.4776e-02,
         7.0183e-02,  3.7166e-02,  9.0873e-03,  2.9564e-02,  3.5791e-02,
         5.3722e-02, -3.3151e-03, -1.3490e-02,  4.8287e-02,  6.1722e-02,
         6.0432e-03,  4.9880e-02, -6.3989e-02, -2.7653e-02,  2.4791e-02,
        -9.8982e-02, -6.3482e-02, -4.3093e-02,  7.5583e-02, -1.3650e-02,
         1.0203e-02, -3.2677e-03, -2.0541e-03,  2.5583e-02, -5.4967e-02,
        -4.0816e-03,  4.6882e-02,  3.3724e-02, -2.8548e-02,  6.5368e-04,
        -5.7698e-02,  3.9180e-03, -2.4025e-02,  1.4174e-01, -5.4402e-02,
        -6.0279e-02, -4.7350e-02,  8.4505e-03, -8.7735e-02,  1.7069e-02,
        -1.8311e-02, -6.7004e-02,  1.2863e-02, -2.3725e-02, -6.7548e-03,
         2.4986e-02,  1.6782e-02,  1.3775e-02,  1.0182e-02, -7.3112e-02,
         4.6324e-02, -4.8596e-03,  8.1878e-03,  1.4964e-03,  6.5122e-02,
        -1.3967e-02},
{ 0.0883, -0.0325, -0.0373, -0.1213, -0.0365,  0.0218, -0.0336, -0.0408,
        -0.0440,  0.1052,  0.0152,  0.0814, -0.0283,  0.0334,  0.0158,  0.0434,
         0.0836, -0.0771, -0.1581, -0.2581, -0.0346,  0.0541,  0.0331,  0.0124,
         0.1051,  0.0461,  0.1289,  0.1574, -0.0299,  0.0521,  0.0419, -0.0198,
        -0.0523, -0.0020, -0.0619,  0.0515,  0.0050, -0.0029, -0.0294,  0.0375,
        -0.0091,  0.0344,  0.0561,  0.0597, -0.0579,  0.0137,  0.0215, -0.0155,
        -0.0368,  0.0251,  0.0335, -0.0940,  0.0120, -0.0152, -0.0255,  0.0276,
        -0.1259, -0.0990, -0.0264,  0.0840,  0.0355,  0.0656,  0.0009,  0.1190,
        -0.0108, -0.0466, -0.0662, -0.1655,  0.0366, -0.0016,  0.0348,  0.0686,
         0.0136,  0.0529,  0.0189,  0.0187, -0.0037, -0.0478,  0.0661, -0.0795,
         0.0352, -0.0869, -0.1814, -0.0387,  0.0110, -0.0150,  0.1021,  0.0736,
        -0.0162,  0.0281,  0.1211,  0.0633,  0.0077, -0.0637, -0.0255, -0.0730,
         0.1066, -0.0657,  0.0344,  0.0225,  0.0403, -0.0063, -0.0288,  0.0074,
        -0.0627,  0.0544,  0.0214, -0.0207,  0.0631,  0.0876, -0.0278,  0.0854,
         0.0343, -0.0393,  0.1212,  0.1621,  0.0260, -0.0190,  0.0748,  0.0679,
         0.0408,  0.0236,  0.0356, -0.1196,  0.0350, -0.0183,  0.0103, -0.1700,
         0.0052, -0.0506,  0.0061, -0.1068, -0.0362, -0.0287,  0.0604,  0.0328,
         0.0163,  0.0706,  0.0449,  0.0341, -0.0367,  0.0638, -0.0560, -0.0137,
         0.0393,  0.0127, -0.0974,  0.0324,  0.0171,  0.0106,  0.0053,  0.0057,
         0.0226, -0.0093,  0.1339, -0.0265, -0.0155, -0.0577, -0.0013, -0.0748,
        -0.0047,  0.0696, -0.0797, -0.0929, -0.1406, -0.1137, -0.0450, -0.0647,
        -0.0672, -0.0117,  0.0584,  0.1270, -0.0898,  0.0131, -0.0208,  0.0490,
         0.1494,  0.1517,  0.0285, -0.0972, -0.0018, -0.0381, -0.0583,  0.0004,
        -0.0702, -0.0042,  0.0697,  0.0557, -0.1093,  0.0173,  0.0048,  0.0629,
         0.0481,  0.0440, -0.0284,  0.0339,  0.0092,  0.0186,  0.0360,  0.0362,
        -0.0453,  0.0383, -0.0162, -0.0017,  0.0228, -0.0600,  0.0613,  0.0598,
         0.0588,  0.1227, -0.1235,  0.0155,  0.1524,  0.0855, -0.0065,  0.0333,
         0.1133,  0.0400,  0.1173,  0.0977, -0.0407, -0.0883, -0.0628, -0.0226,
        -0.0535, -0.0498, -0.0551,  0.0109, -0.0317,  0.0404, -0.1036,  0.0494,
        -0.0305,  0.0194, -0.0673, -0.0397,  0.1176,  0.0281,  0.0452, -0.0340,
        -0.0606,  0.0215,  0.1231,  0.0593, -0.0888,  0.0222,  0.0433,  0.0269,
        -0.0681,  0.0213, -0.0268,  0.0083, -0.0202,  0.0652,  0.0833, -0.0038},
{ 0.0240, -0.0800, -0.0016, -0.0379, -0.0014, -0.0480,  0.0145,  0.0215,
         0.0629,  0.0073,  0.0433,  0.0370,  0.0556, -0.0127,  0.0295, -0.0081,
         0.0431, -0.0091, -0.0198, -0.0111, -0.0227, -0.0139, -0.0672, -0.0634,
         0.1040, -0.0582, -0.0442, -0.0733,  0.0254, -0.0408, -0.0794, -0.0568,
         0.0495,  0.0287,  0.0542, -0.0597, -0.0439, -0.0290, -0.0114,  0.0235,
        -0.0512, -0.0031, -0.0047,  0.0005, -0.0307,  0.0603, -0.0295, -0.0603,
        -0.0655, -0.0677, -0.0794,  0.0035,  0.0038, -0.0722,  0.0371,  0.0050,
         0.0427, -0.0289,  0.0689, -0.0445,  0.0678,  0.0486,  0.0103,  0.0327,
        -0.0548,  0.0025, -0.0233, -0.0139, -0.0126,  0.0209, -0.0178,  0.0328,
         0.0043,  0.0198, -0.0437, -0.0169, -0.0102,  0.0474, -0.0187, -0.0786,
         0.0376,  0.0305, -0.0008,  0.0182,  0.0208, -0.0740, -0.0593, -0.0340,
        -0.0640, -0.0162, -0.0075,  0.0014,  0.0261,  0.0023, -0.0499,  0.0295,
         0.0481, -0.0465, -0.0053,  0.0165,  0.0066, -0.0266, -0.0011,  0.0411,
         0.0153, -0.0256,  0.0095,  0.0519,  0.0881,  0.0411,  0.0038,  0.0054,
        -0.0072, -0.0292,  0.0230,  0.0275,  0.0745,  0.0128, -0.0321, -0.0511,
         0.0528,  0.0423,  0.0598,  0.0107, -0.0696, -0.0280,  0.0247,  0.0062,
        -0.0808, -0.1352, -0.0204,  0.0249, -0.0317,  0.0513,  0.0197,  0.0198,
         0.0708,  0.0683, -0.0128,  0.0134,  0.0071,  0.0581,  0.0513,  0.0043,
        -0.0445,  0.0570, -0.0568, -0.0759,  0.0173,  0.0260, -0.0210,  0.0280,
        -0.0287, -0.0518,  0.0547,  0.0205,  0.0115,  0.0381, -0.0456, -0.0891,
